svm_type c_svc
kernel_type polynomial
degree 4
gamma 0.0175439
coef0 0
nr_class 2
total_sv 588
rho -0.74354
label 0 1
nr_sv 310 278
SV
1024 1:-1 2:-1 3:-1 4:-1 5:-1 6:-1 7:-1 8:-1 9:-1 10:-1 11:-1 12:-1 13:-1 14:-1 15:-1 16:-1 17:-1 18:-1 19:-1 20:-1 21:-1 22:-1 23:-1 24:-1 25:-1 26:-1 27:-1 28:-1 29:-1 30:-1 31:-1 32:-1 33:-1 34:-1 35:-1 36:-1 37:-1 38:-1 39:-1 40:-1 41:-1 42:-1 43:-1 44:-1 45:-1 46:-1 47:-1 48:-1 49:-1 50:-1 51:-1 52:-0.92401 53:-1 54:-1 55:-0.99608 56:-0.999199 57:-0.998232 
1024 1:-1 2:-0.740896 3:-1 4:-1 5:-1 6:-1 7:-1 8:-1 9:-1 10:-1 11:-1 12:-1 13:-1 14:-1 15:-1 16:-1 17:-1 18:-0.592959 19:-1 20:-1 21:-1 22:-1 23:-1 24:-1 25:-1 26:-1 27:-1 28:-1 29:-1 30:-1 31:-1 32:-1 33:-1 34:-1 35:-1 36:-1 37:-1 38:-1 39:-1 40:-1 41:-1 42:-1 43:-1 44:-1 45:-0.827264 46:-1 47:-1 48:-1 49:-1 50:-1 51:-1 52:-1 53:-1 54:-1 55:-0.998558 56:-0.998598 57:-0.99596 
1024 1:-1 2:-1 3:-1 4:-1 5:-0.476348 6:-1 7:-1 8:-1 9:-1 10:-1 11:-1 12:-1 13:-1 14:-1 15:-1 16:-1 17:-1 18:-1 19:-0.746133 20:-1 21:-0.555556 22:-1 23:-1 24:-1 25:-1 26:-1 27:-1 28:-1 29:-1 30:-1 31:-1 32:-1 33:-1 34:-1 35:-1 36:-1 37:-1 38:-1 39:-1 40:-1 41:-1 42:-1 43:-1 44:-1 45:-1 46:-1 47:-1 48:-1 49:-1 50:-1 51:-1 52:-1 53:-1 54:-1 55:-0.99902 56:-0.999399 57:-0.998232 
1024 1:-0.696035 2:-1 3:-0.729412 4:-1 5:-1 6:-1 7:-1 8:-1 9:-1 10:-0.924092 11:-1 12:-1 13:-1 14:-1 15:-1 16:-0.862 17:-1 18:-1 19:-0.8528 20:-1 21:-0.742297 22:-1 23:-1 24:-1 25:-1 26:-1 27:-1 28:-1 29:-1 30:-1 31:-1 32:-1 33:-1 34:-1 35:-1 36:-1 37:-1 38:-1 39:-1 40:-1 41:-1 42:-1 43:-1 44:-1 45:-1 46:-1 47:-1 48:-1 49:-1 50:-1 51:-1 52:-0.853562 53:-1 54:-1 55:-0.995463 56:-0.992791 57:-0.984217 
1024 1:-1 2:-1 3:-1 4:-1 5:-1 6:-1 7:-1 8:-1 9:-1 10:-1 11:-1 12:-0.638056 13:-1 14:-1 15:-1 16:-1 17:-1 18:-1 19:-0.719467 20:-1 21:-0.346405 22:-1 23:-1 24:-1 25:-1 26:-1 27:-1 28:-1 29:-1 30:-1 31:-1 32:-1 33:-1 34:-1 35:-1 36:-1 37:-1 38:-1 39:-1 40:-1 41:-1 42:-1 43:-1 44:-1 45:-1 46:-1 47:-1 48:-1 49:-1 50:-1 51:-1 52:-1 53:-1 54:-1 55:-0.999539 56:-0.999199 57:-0.997475 
1024 1:-1 2:-1 3:-1 4:-1 5:-1 6:-1 7:-1 8:-1 9:-1 10:-1 11:-1 12:-1 13:-1 14:-1 15:-1 16:-1 17:-1 18:-1 19:-1 20:-1 21:-1 22:-1 23:-1 24:-1 25:-1 26:-1 27:-1 28:-1 29:-1 30:-1 31:-1 32:-1 33:-1 34:-1 35:-1 36:-1 37:-1 38:-1 39:-1 40:-1 41:-1 42:-1 43:-1 44:-1 45:-0.936508 46:-1 47:-1 48:-1 49:-1 50:-0.97703 51:-1 52:-1 53:-0.69915 54:-1 55:-0.997482 56:-0.997397 57:-0.990025 
777.9077004868411 1:-1 2:-0.945378 3:-1 4:-1 5:-1 6:-1 7:-1 8:-1 9:-0.851711 10:-1 11:-1 12:-0.592554 13:-0.715315 14:-1 15:-1 16:-1 17:-0.669468 18:-1 19:-0.915733 20:-0.957096 21:-1 22:-1 23:-1 24:-1 25:-0.962554 26:-1 27:-1 28:-1 29:-1 30:-1 31:-1 32:-1 33:-1 34:-1 35:-1 36:-0.172269 37:-1 38:-1 39:-1 40:-1 41:-1 42:-1 43:-1 44:-1 45:-1 46:-1 47:-0.632075 48:-1 49:-1 50:-0.960623 51:-1 52:-0.992118 53:-1 54:-1 55:-0.999551 56:-0.998999 57:-0.990657 
1024 1:-1 2:-1 3:-0.647059 4:-1 5:-1 6:-1 7:-1 8:-1 9:-1 10:-0.950495 11:-1 12:-1 13:-1 14:-1 15:-1 16:-0.955 17:-1 18:-0.90099 19:-1 20:-1 21:-0.831933 22:-1 23:-1 24:-1 25:-1 26:-1 27:-1 28:-1 29:-1 30:-1 31:-1 32:-1 33:-1 34:-1 35:-1 36:-1 37:-0.869376 38:-1 39:-1 40:-1 41:-1 42:-1 43:-1 44:-1 45:-0.957983 46:-0.959184 47:-1 48:-1 49:-0.974458 50:-0.953445 51:-1 52:-0.996552 53:-1 54:-0.984879 55:-0.990593 56:-0.986183 57:-0.96351 
1024 1:-1 2:-0.938375 3:-0.827451 4:-1 5:-0.90319 6:-1 7:-0.939477 8:-1 9:-1 10:-0.732673 11:-0.157088 12:-0.908997 13:-1 14:-1 15:-1 16:-1 17:-1 18:-0.658966 19:-0.6928 20:-1 21:-0.587302 22:-1 23:-1 24:-1 25:-1 26:-1 27:-0.986799 28:-1 29:-1 30:-1 31:-1 32:-1 33:-1 34:-1 35:-1 36:-1 37:-1 38:-1 39:-1 40:-0.907563 41:-1 42:-1 43:-1 44:-1 45:-1 46:-1 47:-1 48:-1 49:-1 50:-0.992617 51:-1 52:-0.995505 53:-0.951358 54:-0.990279 55:-0.996915 56:-0.995795 57:-0.971843 
1024 1:-1 2:-1 3:-1 4:-1 5:-1 6:-1 7:-1 8:-1 9:-1 10:-1 11:-1 12:-1 13:-1 14:-1 15:-1 16:-1 17:-1 18:-1 19:-1 20:-1 21:-1 22:-1 23:-1 24:-1 25:-1 26:-1 27:-1 28:-1 29:-1 30:-1 31:-1 32:-1 33:-1 34:-1 35:-1 36:-1 37:-1 38:-1 39:-1 40:-1 41:-1 42:-1 43:-1 44:-1 45:-1 46:-1 47:-1 48:-1 49:-1 50:-1 51:-1 52:-0.953384 53:-1 54:-1 55:-0.999565 56:-0.999399 57:-0.997348 
1024 1:-1 2:-1 3:-0.709804 4:-1 5:-1 6:-1 7:-1 8:-1 9:-1 10:-1 11:-1 12:-0.950362 13:-1 14:-1 15:-1 16:-0.951 17:-1 18:-0.892189 19:-0.710933 20:-1 21:-0.770308 22:-1 23:-1 24:-1 25:-1 26:-1 27:-1 28:-1 29:-1 30:-1 31:-1 32:-1 33:-1 34:-1 35:-1 36:-1 37:-0.930334 38:-1 39:-1 40:-1 41:-1 42:-1 43:-1 44:-1 45:-0.954248 46:-1 47:-1 48:-1 49:-0.98358 50:-0.969852 51:-1 52:-0.990948 53:-1 54:-1 55:-0.99689 56:-0.989187 57:-0.96452 
1024 1:-1 2:-1 3:-1 4:-1 5:-1 6:-1 7:-0.155433 8:-1 9:-1 10:-1 11:-1 12:-1 13:-1 14:-1 15:-1 16:-1 17:-1 18:-1 19:-0.672533 20:-1 21:-1 22:-1 23:-1 24:-1 25:-1 26:-1 27:-1 28:-1 29:-1 30:-1 31:-1 32:-1 33:-1 34:-1 35:-1 36:-1 37:-1 38:-1 39:-1 40:-1 41:-1 42:-1 43:-1 44:-1 45:-1 46:-1 47:-1 48:-1 49:-1 50:-1 51:-1 52:-0.984543 53:-1 54:-1 55:-0.995661 56:-0.997797 57:-0.994444 
436.2396317018903 1:-1 2:-1 3:-1 4:-1 5:-1 6:-1 7:-1 8:-1 9:-1 10:-1 11:-1 12:-1 13:-1 14:-1 15:-1 16:-1 17:-1 18:-1 19:-0.537067 20:-1 21:-1 22:-1 23:-1 24:-1 25:-1 26:-1 27:-1 28:-0.0451045 29:-1 30:-1 31:-1 32:-1 33:-1 34:-1 35:-1 36:-1 37:-1 38:-1 39:-1 40:-1 41:-1 42:-1 43:-1 44:-1 45:-1 46:-1 47:-1 48:-1 49:-1 50:-0.849262 51:-1 52:-0.954739 53:-1 54:-1 55:-0.996921 56:-0.998198 57:-0.997854 
1024 1:-1 2:-1 3:-1 4:-1 5:-1 6:-1 7:-1 8:-1 9:-1 10:-1 11:-1 12:-1 13:-1 14:-1 15:-1 16:-1 17:-1 18:-1 19:-1 20:-1 21:-1 22:-1 23:-1 24:-1 25:-1 26:-1 27:-1 28:-1 29:-1 30:-1 31:-1 32:-1 33:-1 34:-1 35:-1 36:-1 37:-1 38:-1 39:-1 40:-1 41:-1 42:-1 43:-1 44:-1 45:-1 46:-1 47:-1 48:-1 49:-1 50:-1 51:-1 52:-1 53:-1 54:-1 55:-0.996735 56:-0.998999 57:-0.999116 
1024 1:-1 2:-1 3:-1 4:-1 5:-1 6:-1 7:-0.389271 8:-0.267327 9:-1 10:-1 11:-1 12:-1 13:-1 14:-1 15:-1 16:-1 17:-1 18:-1 19:-1 20:-1 21:-1 22:-1 23:-1 24:-1 25:-1 26:-1 27:-1 28:-1 29:-1 30:-1 31:-1 32:-1 33:-1 34:-1 35:-1 36:-1 37:-1 38:-1 39:-1 40:-1 41:-1 42:-1 43:-1 44:-1 45:-1 46:-1 47:-1 48:-1 49:-1 50:-0.863618 51:-1 52:-1 53:-0.778444 54:-1 55:-0.993001 56:-0.995194 57:-0.992045 
1024 1:-1 2:-1 3:-1 4:-1 5:-1 6:-0.85034 7:-1 8:-1 9:-1 10:-1 11:-1 12:-1 13:-1 14:-1 15:-1 16:-0.956 17:-1 18:-0.90319 19:-0.953067 20:-1 21:-0.917834 22:-1 23:-1 24:-1 25:-1 26:-1 27:-1 28:-1 29:-1 30:-1 31:-1 32:-1 33:-1 34:-1 35:-1 36:-1 37:-0.872279 38:-1 39:-1 40:-1 41:-1 42:-1 43:-1 44:-1 45:-0.958917 46:-0.960091 47:-1 48:-1 49:-1 50:-0.96411 51:-0.971576 52:-1 53:-1 54:-0.984339 55:-0.985344 56:-0.975771 57:-0.950884 
193.7836139860856 1:-0.387665 2:-1 3:-0.180392 4:-1 5:-1 6:-1 7:-1 8:-1 9:-1 10:-1 11:-1 12:0.300931 13:-1 14:-1 15:-1 16:-0.931 17:-1 18:-1 19:-0.553067 20:-0.924092 21:-0.871148 22:-1 23:-1 24:-1 25:-1 26:-1 27:-1 28:-1 29:-1 30:-1 31:-1 32:-1 33:-1 34:-1 35:-1 36:-1 37:-1 38:-1 39:-0.858462 40:-1 41:-1 42:-1 43:-1 44:-1 45:-1 46:-1 47:-1 48:-1 49:-1 50:-1 51:-1 52:-0.984359 53:-1 54:-1 55:-0.99804 56:-0.997597 57:-0.992045 
1024 1:-1 2:-0.729692 3:-0.698039 4:-1 5:-0.830583 6:-1 7:-1 8:-0.874587 9:-1 10:-1 11:-0.708812 12:-1 13:-0.445045 14:-1 15:-1 16:-0.962 17:-0.893557 18:-0.746975 19:-0.547733 20:-1 21:0.152194 22:-1 23:-1 24:-1 25:-1 26:-1 27:-0.977198 28:-1 29:-1 30:-1 31:-1 32:-1 33:-1 34:-1 35:-1 36:-1 37:-1 38:-1 39:-1 40:-1 41:-1 42:-1 43:-1 44:-1 45:-1 46:-1 47:-1 48:-1 49:-1 50:-1 51:-1 52:-0.993288 53:-1 54:-1 55:-0.999916 56:-0.999399 57:-0.988131 
1014.085982846223 1:-1 2:-0.809524 3:-0.647059 4:-1 5:-1 6:-1 7:-1 8:-1 9:-1 10:-0.80088 11:-1 12:-0.906929 13:-1 14:-1 15:-1 16:-1 17:-1 18:-0.60176 19:-1 20:-1 21:-0.406162 22:-1 23:-1 24:-1 25:-0.956793 26:-1 27:-1 28:-1 29:-1 30:-1 31:-1 32:-1 33:-0.783914 34:-1 35:-1 36:-1 37:-1 38:-1 39:-1 40:-1 41:-1 42:-1 43:-1 44:-1 45:-1 46:-1 47:-1 48:-1 49:-1 50:-0.959188 51:-1 52:-1 53:-1 54:-1 55:-0.995332 56:-0.989588 57:-0.980051 
1024 1:-0.92511 2:-1 3:-0.733333 4:-1 5:-0.925193 6:-0.884354 7:-1 8:-1 9:-1 10:-1 11:-1 12:-1 13:-1 14:-1 15:-1 16:-1 17:-1 18:-0.925193 19:-0.488 20:-1 21:-0.648926 22:-1 23:-1 24:-1 25:-1 26:-1 27:-1 28:-1 29:-1 30:-1 31:-1 32:-1 33:-1 34:-1 35:-1 36:-1 37:-1 38:-1 39:-1 40:-1 41:-1 42:-1 43:-1 44:-1 45:-0.952381 46:-0.98458 47:-1 48:-1 49:-1 50:-0.993437 51:-1 52:-0.995997 53:-1 54:-1 55:-0.99963 56:-0.999199 57:-0.991414 
1024 1:-0.845815 2:-1 3:-0.721569 4:-1 5:-1 6:-1 7:-1 8:-1 9:-1 10:-0.961496 11:-1 12:-0.853154 13:-1 14:-1 15:-1 16:-1 17:-1 18:-1 19:-0.2032 20:-1 21:-0.802054 22:-1 23:-1 24:-1 25:-1 26:-1 27:-1 28:-1 29:-1 30:-1 31:-1 32:-1 33:-1 34:-1 35:-1 36:-1 37:-1 38:-1 39:-1 40:-1 41:-1 42:-1 43:-1 44:-1 45:-0.96732 46:-1 47:-1 48:-1 49:-1 50:-0.986259 51:-1 52:-1 53:-1 54:-1 55:-1 56:-1 57:-0.995076 
1024 1:-1 2:-1 3:-1 4:-1 5:-0.808581 6:-1 7:-0.76066 8:-1 9:-1 10:-1 11:-1 12:-1 13:-1 14:-1 15:-1 16:-0.737 17:-1 18:-0.808581 19:-0.719467 20:-1 21:-1 22:-1 23:-1 24:-1 25:-1 26:-1 27:-1 28:-1 29:-1 30:-1 31:-1 32:-1 33:-1 34:-1 35:-1 36:-1 37:-1 38:-1 39:-1 40:-1 41:-1 42:-1 43:-1 44:-1 45:-1 46:-1 47:-1 48:-1 49:-1 50:-1 51:-1 52:-0.950859 53:-0.947026 54:-1 55:-0.965793 56:-0.972968 57:-0.974495 
17.77401480423868 1:-1 2:-1 3:-1 4:-1 5:-1 6:-1 7:-1 8:-1 9:-1 10:-1 11:-1 12:-1 13:-1 14:-1 15:-1 16:-1 17:-1 18:-1 19:-1 20:-1 21:-1 22:-1 23:-1 24:-1 25:-1 26:-1 27:-1 28:-1 29:-1 30:-1 31:-1 32:-1 33:-1 34:-1 35:-1 36:-1 37:-1 38:-1 39:-1 40:-1 41:-1 42:-1 43:-1 44:-1 45:-1 46:-1 47:-1 48:-1 49:-1 50:-1 51:0.360941 52:-1 53:-1 54:-1 55:-0.99804 56:-0.999399 57:-0.999369 
0.6350785829355393 1:-1 2:1 3:-1 4:-1 5:-1 6:-1 7:-1 8:-1 9:-1 10:-1 11:-1 12:-1 13:-1 14:-1 15:-1 16:-1 17:-1 18:-1 19:-1 20:-1 21:-1 22:-1 23:-1 24:-1 25:-1 26:-1 27:-1 28:-1 29:-1 30:-1 31:-1 32:-1 33:-1 34:-1 35:-1 36:-1 37:-1 38:-1 39:-1 40:-1 41:-1 42:-1 43:-1 44:-1 45:-1 46:-1 47:-1 48:-1 49:-1 50:-1 51:-1 52:-1 53:-1 54:-1 55:-0.998432 56:-0.999199 57:-0.99899 
1024 1:-1 2:-1 3:-1 4:-1 5:-1 6:-0.738095 7:-1 8:-1 9:-1 10:-1 11:-1 12:-1 13:-1 14:-1 15:-1 16:-1 17:-1 18:-1 19:-0.173333 20:-1 21:-1 22:-1 23:-1 24:-1 25:-1 26:-1 27:-1 28:-1 29:-1 30:-1 31:-1 32:-1 33:-1 34:-1 35:-1 36:-1 37:-1 38:-1 39:-1 40:-1 41:-1 42:-1 43:-1 44:-1 45:-1 46:-1 47:-1 48:-1 49:-1 50:-0.968007 51:-1 52:-0.980787 53:-1 54:-1 55:-0.999843 56:-0.9998 57:-0.996717 
1024 1:-0.674009 2:-1 3:-1 4:-1 5:-1 6:-1 7:-1 8:-1 9:-1 10:-1 11:-1 12:-1 13:-1 14:-1 15:-1 16:-1 17:-1 18:-1 19:-1 20:-1 21:-1 22:-1 23:-0.72844 24:-1 25:-1 26:-1 27:-1 28:-1 29:-1 30:-1 31:-1 32:-1 33:-1 34:-1 35:-1 36:-1 37:-0.785196 38:-1 39:-1 40:-1 41:-1 42:-1 43:-1 44:-1 45:-0.930906 46:-1 47:-1 48:-1 49:-0.938883 50:-0.862182 51:-1 52:-1 53:-1 54:-1 55:-0.998309 56:-0.999199 57:-0.994949 
1024 1:-1 2:-1 3:-0.917647 4:-1 5:-0.953795 6:-1 7:-1 8:-0.930693 9:-1 10:-1 11:-1 12:-1 13:-1 14:-1 15:-1 16:-1 17:-1 18:-1 19:-0.793067 20:-1 21:-0.919701 22:-1 23:-1 24:-1 25:-1 26:-1 27:-1 28:-1 29:-1 30:-1 31:-1 32:-1 33:-1 34:-1 35:-1 36:-1 37:-1 38:-1 39:-1 40:-1 41:-1 42:-1 43:-1 44:-1 45:-1 46:-1 47:-1 48:-1 49:-0.963968 50:-1 51:-0.980887 52:-0.992672 53:-1 54:-0.989469 55:-0.999831 56:-0.9996 57:-0.987374 
1024 1:-1 2:-1 3:-0.854902 4:-1 5:-0.751375 6:-1 7:-1 8:-1 9:-1 10:-0.917492 11:-1 12:-0.766287 13:-1 14:-1 15:-1 16:-1 17:-1 18:-1 19:-0.717333 20:-1 21:-1 22:-1 23:-1 24:-1 25:-1 26:-1 27:-1 28:-1 29:-1 30:-1 31:-1 32:-1 33:-1 34:-1 35:-1 36:-1 37:-1 38:-1 39:-1 40:-1 41:-1 42:-1 43:-1 44:-0.963 45:-1 46:-1 47:-1 48:-1 49:-1 50:-1 51:-1 52:-1 53:-1 54:-1 55:-0.999483 56:-0.999399 57:-0.994697 
42.36363179021465 1:-1 2:-1 3:-1 4:-1 5:-1 6:-1 7:-1 8:-1 9:-0.684411 10:-0.817382 11:-1 12:-1 13:-1 14:-1 15:-1 16:-1 17:-1 18:-1 19:-0.911467 20:-1 21:-0.533147 22:-1 23:-1 24:-1 25:-1 26:-1 27:-1 28:-1 29:-1 30:-1 31:-1 32:-1 33:-1 34:-1 35:-1 36:-1 37:-1 38:-1 39:-1 40:0.747899 41:-1 42:-1 43:-1 44:-1 45:-1 46:-1 47:-1 48:-1 49:-1 50:-0.9758 51:-1 52:-1 53:-1 54:-1 55:-0.999069 56:-0.997998 57:-0.992677 
1024 1:-1 2:-0.960784 3:-0.835294 4:-1 5:-1 6:-1 7:-1 8:-1 9:-1 10:-1 11:-1 12:-0.942089 13:-1 14:-1 15:-1 16:-0.986 17:-1 18:-0.969197 19:-0.985067 20:-1 21:-0.973856 22:-1 23:-1 24:-1 25:-1 26:-1 27:-1 28:-1 29:-1 30:-1 31:-1 32:-1 33:-1 34:-1 35:-1 36:-1 37:-1 38:-1 39:-1 40:-1 41:-1 42:-1 43:-0.921569 44:-0.986 45:-0.986928 46:-1 47:-1 48:-1 49:-1 50:-0.972929 51:-1 52:-0.998645 53:-1 54:-1 55:-0.996823 56:-0.986183 57:-0.946843 
1024 1:-1 2:-0.946779 3:-0.85098 4:-1 5:-1 6:-0.870748 7:-1 8:-1 9:-1 10:-0.958196 11:-1 12:-0.840745 13:-1 14:-1 15:-1 16:-1 17:-1 18:-1 19:-0.626667 20:-1 21:-0.78338 22:-1 23:-1 24:-1 25:-1 26:-1 27:-1 28:-1 29:-0.946779 30:-1 31:-1 32:-1 33:-1 34:-1 35:-1 36:-1 37:-1 38:-1 39:-1 40:-1 41:-1 42:-1 43:-1 44:-1 45:-1 46:-1 47:-1 48:-1 49:-1 50:-0.973134 51:-0.968145 52:-1 53:-1 54:-1 55:-0.998348 56:-0.997998 57:-0.985227 
733.6087301190981 1:-1 2:-1 3:-0.741176 4:-1 5:-1 6:-0.77551 7:-1 8:-1 9:-1 10:-1 11:-1 12:-0.863495 13:-1 14:-1 15:-1 16:-1 17:-1 18:-1 19:-0.822933 20:-1 21:-0.876751 22:-1 23:-1 24:-1 25:-1 26:-1 27:-1 28:-1 29:-1 30:-1 31:-1 32:-1 33:-1 34:-1 35:-1 36:-1 37:-1 38:-1 39:-1 40:-1 41:-1 42:-1 43:-1 44:-0.967 45:-0.969188 46:-1 47:-1 48:-1 49:-1 50:-1 51:-1 52:-1 53:-1 54:-1 55:-0.999722 56:-0.999399 57:-0.993056 
1024 1:-1 2:-1 3:-0.784314 4:-1 5:-1 6:-1 7:-1 8:-1 9:-0.790875 10:-1 11:-1 12:-1 13:-0.801802 14:-1 15:-1 16:-0.945 17:-1 18:-0.878988 19:-1 20:-1 21:-0.897292 22:-1 23:-1 24:-1 25:-1 26:-1 27:-1 28:-1 29:-1 30:-1 31:-1 32:-1 33:-1 34:-1 35:-1 36:-1 37:-1 38:-1 39:-1 40:-1 41:-1 42:-1 43:-1 44:-1 45:-1 46:-1 47:-1 48:-1 49:-1 50:-0.980927 51:-1 52:-0.96533 53:-1 54:-1 55:-0.996221 56:-0.989187 57:-0.989773 
1024 1:-0.92511 2:-0.984594 3:-0.980392 4:-1 5:-0.911991 6:-0.962585 7:-1 8:-0.867987 9:-1 10:-1 11:-1 12:-0.929679 13:-0.96036 14:-1 15:-1 16:-1 17:-1 18:-1 19:-0.877333 20:-1 21:-0.893557 22:-1 23:-0.981651 24:-1 25:-0.950072 26:-1 27:-1 28:-1 29:-1 30:-1 31:-1 32:-1 33:-0.944778 34:-1 35:-0.983 36:-1 37:-0.817126 38:-1 39:-1 40:-1 41:-1 42:-1 43:-1 44:-0.995 45:-1 46:-1 47:-1 48:-1 49:-0.996807 50:-0.937654 51:-1 52:-0.996736 53:-0.990005 54:-1 55:-0.996966 56:-0.990388 57:-0.856944 
1024 1:-1 2:-1 3:-0.537255 4:-1 5:-1 6:-1 7:-1 8:-1 9:-0.775665 10:-1 11:-1 12:-1 13:-1 14:-1 15:-1 16:-1 17:-1 18:-1 19:-0.8112 20:-1 21:-0.669468 22:-1 23:-1 24:-1 25:-1 26:-1 27:-1 28:-1 29:-1 30:-1 31:-1 32:-1 33:-1 34:-1 35:-1 36:-1 37:-0.828737 38:-1 39:-1 40:-1 41:-1 42:-1 43:-1 44:-1 45:-1 46:-1 47:-1 48:-1 49:-1 50:-1 51:-1 52:-0.980725 53:-0.895719 54:-1 55:-0.987089 56:-0.986984 57:-0.983838 
0.1048600398449516 1:-1 2:1 3:-1 4:-1 5:-1 6:-1 7:-1 8:-1 9:-1 10:-1 11:-1 12:-1 13:-1 14:-1 15:-1 16:-1 17:-1 18:-1 19:-1 20:-1 21:-1 22:-1 23:-1 24:-1 25:-1 26:-1 27:-1 28:-1 29:-1 30:-1 31:-1 32:-1 33:-1 34:-1 35:-1 36:-1 37:-1 38:-1 39:-1 40:-1 41:-1 42:-1 43:-1 44:-1 45:-1 46:-1 47:-1 48:-1 49:-1 50:-1 51:-1 52:-1 53:-1 54:-1 55:-0.998432 56:-0.999199 57:-0.99899 
1024 1:-0.973568 2:-1 3:-0.87451 4:-1 5:-1 6:-1 7:-1 8:-1 9:-1 10:-0.993399 11:-1 12:-0.98759 13:-0.978378 14:-1 15:-1 16:-1 17:-1 18:-0.986799 19:-0.7024 20:-1 21:-0.794585 22:-0.97076 23:-1 24:-1 25:-1 26:-1 27:-1 28:-1 29:-1 30:-1 31:-1 32:-1 33:-1 34:-1 35:-1 36:-1 37:-1 38:-1 39:-1 40:-1 41:-1 42:-0.991597 43:-1 44:-1 45:-0.994398 46:-0.982766 47:-1 48:-1 49:-0.855416 50:-0.992822 51:-1 52:-0.994273 53:-1 54:-1 55:-0.999784 56:-0.998398 57:-0.967172 
1024 1:-1 2:-1 3:-0.635294 4:-1 5:-0.931793 6:-1 7:-1 8:-1 9:-0.882129 10:-1 11:-0.762452 12:-0.807653 13:-1 14:-1 15:-1 16:-1 17:-0.826331 18:-1 19:-0.6 20:-1 21:-0.359477 22:-1 23:-1 24:-1 25:-1 26:-1 27:-1 28:-1 29:-1 30:-1 31:-1 32:-1 33:-1 34:-1 35:-1 36:-1 37:-0.910015 38:-1 39:-1 40:-1 41:-1 42:-1 43:-1 44:-1 45:-1 46:-1 47:-1 48:-1 49:-0.975371 50:-0.977851 51:-1 52:-0.996675 53:-1 54:-0.985419 55:-0.9966 56:-0.997397 57:-0.981818 
1024 1:-1 2:-1 3:-1 4:-1 5:-1 6:-1 7:-1 8:-1 9:-1 10:-1 11:-1 12:-1 13:-1 14:-1 15:-1 16:-1 17:-1 18:-1 19:-1 20:-1 21:-1 22:-1 23:-1 24:-1 25:-1 26:-1 27:-0.9958 28:-1 29:-0.990196 30:-1 31:-1 32:-1 33:-0.983193 34:-1 35:-1 36:-1 37:-1 38:-1 39:-1 40:-0.970588 41:-1 42:-1 43:-1 44:-1 45:-1 46:-1 47:-1 48:-1 49:-1 50:-0.978671 51:-0.841215 52:-1 53:-1 54:-0.99703 55:-0.993315 56:-0.994594 57:-0.76452 
162.8427547226693 1:-1 2:-1 3:-1 4:-1 5:-1 6:-0.921769 7:-1 8:-1 9:-1 10:-0.974697 11:-1 12:-0.755946 13:-1 14:-1 15:-1 16:-1 17:-0.935574 18:-1 19:-0.874133 20:-1 21:-0.912232 22:-1 23:-1 24:-1 25:-1 26:-1 27:-1 28:-1 29:-1 30:-1 31:-1 32:-1 33:-1 34:-1 35:-1 36:-1 37:-0.793904 38:-1 39:-1 40:-1 41:-1 42:-1 43:-1 44:-1 45:-1 46:-1 47:-1 48:-0.858 49:-1 50:-1 51:-1 52:-1 53:-0.977011 54:-1 55:-0.997617 56:-0.99139 57:-0.97298 
1024 1:-1 2:-1 3:-1 4:-1 5:-1 6:-1 7:-1 8:-1 9:-1 10:-0.421342 11:-1 12:-1 13:-1 14:-1 15:-1 16:-1 17:-1 18:-1 19:-0.438933 20:-1 21:-1 22:-1 23:-1 24:-1 25:-1 26:-1 27:-1 28:-1 29:-1 30:-1 31:-1 32:-1 33:-1 34:-1 35:-1 36:-1 37:-1 38:-1 39:-1 40:-1 41:-1 42:-1 43:-1 44:-1 45:-1 46:-1 47:-1 48:-1 49:-1 50:-1 51:-1 52:-1 53:-1 54:-1 55:-0.998695 56:-0.9996 57:-0.999495 
1024 1:-1 2:-1 3:-1 4:-1 5:-1 6:-1 7:-1 8:-1 9:-1 10:-1 11:-1 12:-1 13:-1 14:-1 15:-1 16:-0.973 17:-1 18:-0.940594 19:-0.941333 20:-1 21:-0.897292 22:-1 23:-1 24:-1 25:-1 26:-1 27:-1 28:-1 29:-1 30:-1 31:-1 32:-1 33:-1 34:-1 35:-1 36:-1 37:-1 38:-1 39:-1 40:-1 41:-1 42:-1 43:-1 44:-1 45:-0.948646 46:-0.97551 47:-1 48:-1 49:-1 50:-0.974979 51:-0.960304 52:-1 53:-1 54:-0.989199 55:-0.994334 56:-0.986183 57:-0.959343 
1024 1:-0.933921 2:-0.985994 3:-1 4:-1 5:-0.933993 6:-0.94898 7:-1 8:-0.90099 9:-1 10:-1 11:-1 12:-0.875905 13:-1 14:-1 15:-1 16:-1 17:-1 18:-1 19:-0.780267 20:-1 21:-0.84127 22:-1 23:-0.981651 24:-1 25:-0.980797 26:-1 27:-1 28:-1 29:-1 30:-1 31:-1 32:-1 33:-0.939976 34:-1 35:-0.985 36:-1 37:-0.898403 38:-1 39:-1 40:-1 41:-1 42:-1 43:-1 44:-0.995 45:-1 46:-1 47:-1 48:-1 49:-0.966705 50:-0.95201 51:-1 52:-0.995505 53:-1 54:-1 55:-0.997636 56:-0.990388 57:-0.870581 
1024 1:-0.929515 2:-0.977591 3:-0.937255 4:-1 5:-0.817382 6:-0.945578 7:-1 8:-0.947195 9:-1 10:-1 11:-1 12:-0.896587 13:-0.942342 14:-1 15:-1 16:-1 17:-1 18:-1 19:-0.7504 20:-1 21:-0.874883 22:-1 23:-1 24:-1 25:-1 26:-1 27:-1 28:-1 29:-1 30:-1 31:-1 32:-1 33:-1 34:-1 35:-1 36:-1 37:-1 38:-1 39:-1 40:-1 41:-1 42:-1 43:-1 44:-0.984 45:-0.969188 46:-0.985488 47:-1 48:-1 49:-0.960319 50:-0.988105 51:-1 52:-1 53:-1 54:-1 55:-0.998234 56:-0.996996 57:-0.983081 
1024 1:-1 2:-1 3:-0.662745 4:-1 5:-1 6:-1 7:-1 8:-1 9:-1 10:-1 11:-1 12:-1 13:-1 14:-1 15:-1 16:-0.943 17:-1 18:-1 19:-0.661867 20:-1 21:-0.947712 22:-1 23:-1 24:-1 25:-0.945271 26:-1 27:-1 28:-1 29:-1 30:-1 31:-1 32:-1 33:-1 34:-1 35:-1 36:-1 37:-1 38:-1 39:-1 40:-1 41:-1 42:-1 43:-1 44:-1 45:-0.919701 46:-1 47:-1 48:-1 49:-1 50:-0.959803 51:-1 52:-0.996983 53:-0.951024 54:-1 55:-0.999804 56:-0.9998 57:-0.993182 
1024 1:-1 2:-1 3:-0.901961 4:-1 5:-0.944994 6:-1 7:-1 8:-1 9:-1 10:-1 11:-1 12:-1 13:-1 14:-1 15:-1 16:-1 17:-1 18:-1 19:-0.781333 20:-1 21:-0.904762 22:-1 23:-1 24:-1 25:-1 26:-1 27:-1 28:-1 29:-1 30:-1 31:-1 32:-1 33:-1 34:-1 35:-1 36:-1 37:-1 38:-1 39:-1 40:-1 41:-1 42:-1 43:-1 44:-1 45:-0.929038 46:-0.977324 47:-1 48:-1 49:-1 50:-0.980722 51:-1 52:-0.997106 53:-1 54:-1 55:-0.998268 56:-0.989988 57:-0.981566 
1024 1:-1 2:-1 3:-1 4:-1 5:-1 6:-1 7:-1 8:-1 9:-1 10:-1 11:-1 12:-1 13:-1 14:-1 15:-1 16:-0.928 17:-1 18:-0.841584 19:-0.767467 20:-1 21:-0.865546 22:-1 23:-1 24:-1 25:-1 26:-1 27:-1 28:-1 29:-1 30:-1 31:-1 32:-1 33:-1 34:-1 35:-1 36:-1 37:-1 38:-1 39:-1 40:-1 41:-1 42:-1 43:-1 44:-1 45:-0.932773 46:-1 47:-1 48:-1 49:-1 50:-0.938884 51:-1 52:-0.987807 53:-1 54:-0.973269 55:-0.994121 56:-0.988386 57:-0.983965 
1024 1:-1 2:-1 3:-1 4:-1 5:-1 6:-1 7:-0.389271 8:-0.267327 9:-1 10:-1 11:-1 12:-1 13:-1 14:-1 15:-1 16:-1 17:-1 18:-1 19:-1 20:-1 21:-1 22:-1 23:-1 24:-1 25:-1 26:-1 27:-1 28:-1 29:-1 30:-1 31:-1 32:-1 33:-1 34:-1 35:-1 36:-1 37:-1 38:-1 39:-1 40:-1 41:-1 42:-1 43:-1 44:-1 45:-1 46:-1 47:-1 48:-1 49:-1 50:-0.863618 51:-1 52:-1 53:-0.778444 54:-1 55:-0.993001 56:-0.995194 57:-0.992045 
1024 1:-1 2:-1 3:-1 4:-1 5:-1 6:-1 7:-1 8:-1 9:-1 10:-1 11:-1 12:-1 13:-1 14:-1 15:-1 16:-0.959 17:-1 18:-0.909791 19:-0.8688 20:-1 21:-0.923436 22:-1 23:-1 24:-1 25:-1 26:-1 27:-1 28:-1 29:-1 30:-1 31:-1 32:-1 33:-1 34:-1 35:-1 36:-1 37:-1 38:-1 39:-1 40:-1 41:-1 42:-1 43:-1 44:-1 45:-0.923436 46:-1 47:-1 48:-1 49:-1 50:-0.953035 51:-1 52:-0.99298 53:-1 54:-0.984609 55:-0.991777 56:-0.986183 57:-0.966667 
389.4743992733089 1:-1 2:-1 3:-1 4:-1 5:-1 6:-1 7:-0.661623 8:-1 9:-1 10:-1 11:-1 12:-0.745605 13:-1 14:-1 15:-1 16:-1 17:-0.655462 18:-1 19:-1 20:-1 21:-1 22:-1 23:-1 24:-1 25:-0.763802 26:-1 27:-1 28:-1 29:-1 30:-0.483193 31:-1 32:-1 33:-1 34:-1 35:-1 36:-1 37:-1 38:-1 39:-1 40:-1 41:-1 42:-1 43:-1 44:-1 45:-1 46:-1 47:-1 48:-1 49:-1 50:-1 51:-1 52:-0.975183 53:-1 54:-1 55:-0.997952 56:-0.998999 57:-0.994444 
1024 1:-1 2:-1 3:-0.901961 4:-1 5:-1 6:-0.914966 7:-0.862448 8:-0.917492 9:-1 10:-1 11:-1 12:-1 13:-1 14:-1 15:-1 16:-1 17:-1 18:-1 19:-0.866667 20:-1 21:-0.953315 22:-1 23:-1 24:-1 25:-1 26:-1 27:-1 28:-1 29:-1 30:-1 31:-1 32:-1 33:-1 34:-1 35:-1 36:-1 37:-1 38:-1 39:-1 40:-1 41:-1 42:-1 43:-1 44:-1 45:-0.976657 46:-1 47:-1 48:-1 49:-1 50:-0.963084 51:-1 52:-0.997229 53:-1 54:-1 55:-0.999365 56:-0.999199 57:-0.987753 
1024 1:-0.955947 2:-0.985994 3:-0.960784 4:-1 5:-0.953795 6:-0.965986 7:-1 8:-1 9:-0.961977 10:-0.965897 11:-1 12:-0.826267 13:-0.924324 14:-1 15:-1 16:-0.99 17:-1 18:-0.953795 19:-0.810133 20:-1 21:-0.882353 22:-1 23:-1 24:-0.979487 25:-1 26:-1 27:-1 28:-1 29:-1 30:-1 31:-1 32:-1 33:-1 34:-1 35:-1 36:-1 37:-1 38:-1 39:-1 40:-1 41:-1 42:-1 43:-1 44:-1 45:-1 46:-0.980952 47:-1 48:-1 49:-0.984036 50:-0.9637 51:-0.982847 52:-0.995689 53:-0.982342 54:-1 55:-0.998542 56:-0.994393 57:-0.947475 
1024 1:-1 2:-1 3:-0.709804 4:-1 5:-1 6:-1 7:-1 8:-1 9:-1 10:-0.918592 11:-1 12:-1 13:-0.866667 14:-0.852 15:-1 16:-1 17:-0.896359 18:-1 19:-0.960533 20:-1 21:-0.930906 22:-1 23:-1 24:-1 25:-1 26:-1 27:-1 28:-1 29:-1 30:-1 31:-1 32:-1 33:-1 34:-1 35:-1 36:-1 37:-0.677794 38:-1 39:-1 40:-1 41:-1 42:-1 43:-1 44:-0.963 45:-1 46:-1 47:-1 48:-1 49:-1 50:-0.949754 51:-1 52:-1 53:-1 54:-1 55:-0.992815 56:-0.987385 57:-0.975379 
1024 1:-0.581498 2:-1 3:-1 4:-1 5:-1 6:-1 7:-1 8:-1 9:-1 10:-1 11:-1 12:-1 13:-1 14:-1 15:-1 16:-1 17:-1 18:-1 19:-0.797333 20:-1 21:-0.822596 22:-1 23:-1 24:-1 25:-1 26:-1 27:-1 28:-1 29:-1 30:-1 31:-1 32:-1 33:-1 34:-1 35:-1 36:-1 37:-1 38:-1 39:-1 40:-1 41:-1 42:-1 43:-1 44:-1 45:-0.911298 46:-0.913832 47:-1 48:-1 49:-1 50:-0.970468 51:-1 52:-0.644067 53:-1 54:-1 55:-0.997785 56:-0.997197 57:-0.993939 
310.5792619286008 1:-0.995595 2:-0.998599 3:-0.972549 4:-1 5:-0.988999 6:-1 7:-1 8:-0.9967 9:-0.988593 10:-0.985699 11:-0.961686 12:-1 13:-1 14:-0.99 15:-1 16:-1 17:-0.997199 18:-0.984598 19:-0.998933 20:-1 21:-0.998133 22:-1 23:-1 24:-1 25:-1 26:-1 27:-1 28:-1 29:-1 30:-1 31:-1 32:-1 33:-0.983193 34:-1 35:-1 36:-0.945378 37:-1 38:-1 39:-1 40:-0.995798 41:-0.871148 42:-1 43:-1 44:-0.997 45:-1 46:-0.927438 47:-0.990566 48:-0.986 49:-0.977195 50:-0.938269 51:-0.9358 52:-0.999877 53:-0.970015 54:-0.99946 55:-0.996909 56:-0.983781 57:-0.318939 
1006.842423838116 1:-1 2:-1 3:-1 4:-1 5:0.375138 6:-1 7:-1 8:-1 9:-1 10:-1 11:-1 12:-1 13:-1 14:-1 15:-1 16:-1 17:-1 18:-1 19:-1 20:-1 21:-1 22:-1 23:-1 24:-1 25:-1 26:-1 27:-1 28:-1 29:-1 30:-1 31:-1 32:-1 33:-1 34:-1 35:-1 36:-1 37:-1 38:-1 39:-1 40:-1 41:-1 42:-1 43:-1 44:-1 45:-1 46:-1 47:-1 48:-1 49:-1 50:-1 51:-1 52:-1 53:-1 54:-1 55:-0.99804 56:-0.998999 57:-0.998864 
1024 1:-1 2:-1 3:-0.415686 4:-1 5:-1 6:-1 7:-1 8:-1 9:-1 10:-1 11:-1 12:-1 13:-1 14:-1 15:-1 16:-1 17:-1 18:-1 19:-0.841067 20:-1 21:-0.443511 22:-1 23:-1 24:-1 25:-1 26:-1 27:-1 28:-1 29:-1 30:-1 31:-1 32:-1 33:-1 34:-1 35:-1 36:-1 37:-1 38:-1 39:-1 40:-1 41:-1 42:-1 43:-1 44:-1 45:-0.860878 46:-1 47:-1 48:-1 49:-1 50:-1 51:-1 52:-0.934171 53:-1 54:-1 55:-1 56:-1 57:-0.998485 
1024 1:-1 2:-1 3:-0.556863 4:-1 5:-0.918592 6:-1 7:-1 8:-1 9:-1 10:-1 11:-1 12:-1 13:-1 14:-1 15:-1 16:-0.963 17:-1 18:-0.918592 19:-0.879467 20:-1 21:-0.930906 22:-1 23:-1 24:-1 25:-1 26:-1 27:-1 28:-1 29:-1 30:-1 31:-1 32:-1 33:-1 34:-1 35:-1 36:-1 37:-1 38:-1 39:-1 40:-1 41:-1 42:-1 43:-1 44:-1 45:-1 46:-1 47:-1 48:-1 49:-1 50:-0.970263 51:-1 52:-0.973151 53:-1 54:-1 55:-0.998448 56:-0.989187 57:-0.981566 
1024 1:-1 2:-1 3:-1 4:-1 5:-1 6:-1 7:-1 8:-1 9:-1 10:-1 11:-1 12:-1 13:-1 14:-1 15:-1 16:-0.853 17:-1 18:-1 19:-1 20:-1 21:-1 22:-1 23:-1 24:-1 25:-1 26:-1 27:-1 28:-0.676568 29:-1 30:-1 31:-1 32:-1 33:-1 34:-1 35:-1 36:-1 37:-1 38:-1 39:-1 40:-1 41:-1 42:-1 43:-1 44:-1 45:-1 46:-1 47:-1 48:-1 49:-1 50:-0.948113 51:-0.876011 52:-1 53:-1 54:-1 55:-0.99735 56:-0.996796 57:-0.995076 
1024 1:-0.929515 2:-1 3:-0.87451 4:-1 5:-0.977998 6:-0.965986 7:-1 8:-1 9:-1 10:-1 11:-1 12:-0.956567 13:-0.654054 14:-1 15:-1 16:-0.995 17:-0.985994 18:-1 19:-0.931733 20:-1 21:-1 22:-1 23:-0.963303 24:-1 25:-1 26:-1 27:-1 28:-1 29:-1 30:-1 31:-1 32:-1 33:-1 34:-1 35:-1 36:-1 37:-1 38:-1 39:-1 40:-1 41:-1 42:-1 43:-1 44:-1 45:-0.990663 46:-1 47:-1 48:-1 49:-0.988597 50:-0.996514 51:-0.996079 52:-1 53:-0.997335 54:-0.99784 55:-0.999377 56:-0.997797 57:-0.969318 
1024 1:-1 2:-0.890756 3:-0.388235 4:-1 5:-1 6:-1 7:-1 8:-1 9:-1 10:-1 11:-1 12:-0.838676 13:-1 14:-1 15:-1 16:-1 17:-1 18:-0.656766 19:-0.4176 20:-1 21:-0.271709 22:-1 23:-1 24:-1 25:-1 26:-1 27:-1 28:-1 29:-1 30:-1 31:-1 32:-1 33:-1 34:-1 35:-1 36:-1 37:-1 38:-1 39:-1 40:-1 41:-1 42:-1 43:-1 44:-1 45:-1 46:-1 47:-1 48:-1 49:-1 50:-0.971903 51:-1 52:-0.983065 53:-1 54:-1 55:-0.998775 56:-0.998398 57:-0.995202 
278.3066763760909 1:-1 2:-1 3:0.34902 4:-1 5:-1 6:-1 7:-1 8:-1 9:-1 10:-1 11:-1 12:-1 13:-1 14:-1 15:-1 16:-1 17:-1 18:-0.243124 19:-1 20:-1 21:-0.35761 22:-1 23:-1 24:-1 25:-1 26:-1 27:-1 28:-1 29:-1 30:-1 31:-1 32:-1 33:-1 34:-1 35:-1 36:-1 37:-1 38:-1 39:-1 40:-1 41:-1 42:-1 43:-1 44:-1 45:-1 46:-1 47:-1 48:-1 49:-1 50:-1 51:-1 52:-1 53:-1 54:-1 55:-0.998575 56:-0.999399 57:-0.997727 
1024 1:-1 2:-1 3:-1 4:-1 5:-1 6:-1 7:-1 8:-1 9:-0.897338 10:-1 11:-1 12:-0.830403 13:-0.902703 14:-1 15:-1 16:-1 17:-0.540616 18:-1 19:-0.854933 20:-1 21:-0.89916 22:-1 23:-1 24:-1 25:-0.974076 26:-1 27:-1 28:-1 29:-1 30:-1 31:-1 32:-1 33:-1 34:-1 35:-1 36:-0.773109 37:-0.921626 38:-1 39:-1 40:-1 41:-1 42:-1 43:-1 44:-1 45:-1 46:-1 47:-1 48:-1 49:-1 50:-0.981542 51:-1 52:-0.997229 53:-1 54:-1 55:-0.999089 56:-0.998598 57:-0.989394 
1024 1:-0.687225 2:-1 3:-1 4:-1 5:-1 6:-1 7:-1 8:-1 9:-1 10:-1 11:-1 12:-1 13:-1 14:-1 15:-1 16:-1 17:-1 18:-1 19:-0.847467 20:-1 21:-0.867414 22:-1 23:-1 24:-1 25:-1 26:-1 27:-1 28:-1 29:-1 30:-1 31:-1 32:-1 33:-1 34:-1 35:-1 36:-1 37:-1 38:-1 39:-1 40:-1 41:-1 42:-1 43:-1 44:-1 45:-1 46:-1 47:-1 48:-1 49:-1 50:-1 51:-1 52:-1 53:-1 54:-1 55:-0.996 56:-0.994994 57:-0.990909 
1024 1:-1 2:-1 3:-0.8 4:-1 5:-0.962596 6:-1 7:-1 8:-1 9:-1 10:-1 11:-1 12:-0.929679 13:-1 14:-1 15:-1 16:-1 17:-1 18:-1 19:-0.7088 20:-1 21:-1 22:-1 23:-1 24:-1 25:-1 26:-1 27:-1 28:-1 29:-1 30:-1 31:-1 32:-1 33:-1 34:-1 35:-1 36:-1 37:-1 38:-1 39:-1 40:-1 41:-1 42:-1 43:-1 44:-1 45:-1 46:-1 47:-1 48:-1 49:-1 50:-0.986874 51:-1 52:-0.996059 53:-1 54:-1 55:-0.99493 56:-0.989187 57:-0.971591 
1024 1:-1 2:-1 3:-1 4:-1 5:-1 6:-1 7:-1 8:-1 9:-1 10:-1 11:-1 12:-1 13:-1 14:-1 15:-1 16:-1 17:-1 18:-1 19:-1 20:-1 21:-1 22:-1 23:-1 24:-1 25:-1 26:-1 27:-1 28:-1 29:-1 30:-1 31:-1 32:-1 33:-1 34:-1 35:-1 36:-1 37:-1 38:-1 39:-1 40:-1 41:-1 42:-1 43:-1 44:-1 45:-1 46:-1 47:-1 48:-1 49:-1 50:-1 51:-1 52:-0.780097 53:-1 54:-1 55:-1 56:-1 57:-0.999621 
1024 1:-1 2:-1 3:-0.976471 4:-1 5:-0.80418 6:-0.955782 7:-1 8:-0.933993 9:-1 10:-1 11:-1 12:-0.973113 13:-0.978378 14:-1 15:-1 16:-1 17:-0.731092 18:-1 19:-1 20:-1 21:-1 22:-1 23:-1 24:-1 25:-0.894383 26:-1 27:-1 28:-1 29:-1 30:-1 31:-1 32:-1 33:-1 34:-1 35:-1 36:-1 37:-0.962264 38:-0.985594 39:-1 40:-1 41:-1 42:-0.991597 43:-1 44:-1 45:-0.968254 46:-1 47:-1 48:-1 49:-0.99179 50:-0.990361 51:-1 52:-1 53:-0.971681 54:-1 55:-0.996229 56:-0.989788 57:-0.922222 
1024 1:-1 2:-1 3:-1 4:-1 5:-1 6:-1 7:-1 8:-1 9:-1 10:-1 11:-1 12:-1 13:-1 14:-1 15:-1 16:-1 17:-1 18:-1 19:-1 20:-1 21:-1 22:-1 23:-1 24:-1 25:-1 26:-1 27:-1 28:-1 29:-1 30:-1 31:-1 32:-1 33:-1 34:-1 35:-1 36:-1 37:-1 38:-1 39:-1 40:-1 41:-1 42:-1 43:-1 44:-1 45:-1 46:-1 47:-1 48:-1 49:-1 50:-0.806604 51:-1 52:-0.94193 53:-1 54:-1 55:-0.997715 56:-0.999199 57:-0.998485 
43.20327048660035 1:-1 2:-1 3:-0.862745 4:-1 5:-0.922992 6:-0.758503 7:-1 8:-1 9:-1 10:-1 11:-1 12:-0.853154 13:-1 14:-1 15:-1 16:-1 17:-1 18:-1 19:-0.924267 20:-1 21:-0.934641 22:-1 23:-1 24:-1 25:-1 26:-1 27:-1 28:-1 29:-1 30:-1 31:-1 32:-1 33:-0.915966 34:-1 35:-1 36:-1 37:-0.898403 38:-1 39:-0.928205 40:-1 41:-1 42:-1 43:-0.803922 44:-1 45:-0.96732 46:-1 47:-1 48:-1 49:-1 50:-0.974569 51:-1 52:-0.977092 53:-1 54:-1 55:-0.998744 56:-0.997797 57:-0.986237 
334.703029166842 1:-1 2:-1 3:-0.290196 4:-1 5:-1 6:-1 7:-1 8:-1 9:-1 10:-1 11:-1 12:-0.813857 13:-0.675676 14:-1 15:-1 16:-1 17:-1 18:-1 19:-0.515733 20:-1 21:-0.492063 22:-1 23:-1 24:-1 25:-1 26:-1 27:-1 28:-1 29:-1 30:-1 31:-1 32:-1 33:-1 34:-1 35:-1 36:-1 37:-1 38:-1 39:-1 40:-1 41:-1 42:-1 43:-1 44:-1 45:-1 46:-1 47:-1 48:-1 49:-1 50:-1 51:-1 52:-0.989901 53:-1 54:-1 55:-0.999234 56:-0.998598 57:-0.996086 
20.32397416441966 1:-0.995595 2:-0.995798 3:-0.921569 4:-1 5:-0.980198 6:-0.989796 7:-1 8:-1 9:-0.980989 10:-0.994499 11:-1 12:-0.902792 13:-0.989189 14:-0.966 15:-1 16:-0.991 17:-0.94958 18:-0.971397 19:-0.962667 20:-0.9967 21:-0.971989 22:-1 23:-1 24:-0.993846 25:-1 26:-1 27:-0.997 28:-0.993399 29:-0.998599 30:-1 31:-1 32:-1 33:-0.647059 34:-1 35:-1 36:-0.953782 37:-0.738752 38:-1 39:-1 40:-0.987395 41:-1 42:-0.990196 43:-1 44:-0.987 45:-0.995331 46:-0.983673 47:-1 48:-0.97 49:-0.982668 50:-0.946062 51:-0.99755 52:-0.999015 53:-1 54:-0.99865 55:-0.997589 56:-0.979776 57:-0.600126 
1024 1:-1 2:-1 3:-0.607843 4:-1 5:-0.669967 6:-1 7:-1 8:-1 9:-1 10:-0.889989 11:-0.616858 12:-0.58635 13:-1 14:-1 15:-1 16:-1 17:-1 18:-1 19:-0.306667 20:-1 21:-0.439776 22:-1 23:-1 24:-1 25:-1 26:-1 27:-1 28:-1 29:-1 30:-1 31:-1 32:-1 33:-1 34:-1 35:-1 36:-1 37:-1 38:-1 39:-1 40:-1 41:-1 42:-1 43:-1 44:-1 45:-1 46:-1 47:-1 48:-1 49:-1 50:-1 51:-1 52:-0.991071 53:-1 54:-1 55:-0.99933 56:-0.997397 57:-0.993687 
1024 1:-1 2:-1 3:-1 4:-1 5:-1 6:-0.829932 7:-1 8:-1 9:-1 10:-1 11:-1 12:-1 13:-1 14:-1 15:-1 16:-1 17:-1 18:-0.889989 19:-0.786667 20:-1 21:-0.906629 22:-1 23:-1 24:-1 25:-1 26:-1 27:-1 28:-1 29:-1 30:-1 31:-1 32:-1 33:-1 34:-1 35:-1 36:-1 37:-1 38:-1 39:-1 40:-1 41:-1 42:-1 43:-1 44:-1 45:-1 46:-1 47:-1 48:-1 49:-1 50:-1 51:-1 52:-0.983312 53:-1 54:-1 55:-0.999888 56:-0.9998 57:-0.995455 
1024 1:-1 2:-1 3:-1 4:-1 5:-1 6:-1 7:-1 8:-1 9:-1 10:-1 11:-1 12:-1 13:-1 14:-1 15:-1 16:-1 17:-1 18:-1 19:-1 20:-1 21:-1 22:-1 23:-1 24:-1 25:-1 26:-1 27:-1 28:-1 29:-1 30:-1 31:-1 32:-1 33:-1 34:-1 35:-1 36:-1 37:-1 38:-1 39:-1 40:-1 41:-1 42:-1 43:-1 44:-1 45:-1 46:-1 47:-1 48:-1 49:-1 50:-0.82178 51:-1 52:-0.892912 53:-1 54:-1 55:-1 56:-1 57:-0.999369 
426.8885227352741 1:-1 2:-1 3:-1 4:-1 5:-1 6:-1 7:-1 8:-1 9:-1 10:-1 11:-1 12:-0.391934 13:-1 14:-1 15:-1 16:-0.706 17:-1 18:-1 19:-1 20:-1 21:-1 22:-1 23:-1 24:-1 25:-1 26:-1 27:-1 28:-1 29:-1 30:-1 31:-1 32:-1 33:-1 34:-1 35:-1 36:-1 37:-1 38:-1 39:-0.396923 40:-1 41:-1 42:-1 43:-1 44:-1 45:-1 46:-1 47:-1 48:-1 49:-1 50:-1 51:-1 52:-1 53:-1 54:-1 55:-0.999441 56:-0.9996 57:-0.99899 
1024 1:-1 2:-1 3:-1 4:-1 5:-0.551155 6:-1 7:-1 8:-1 9:-1 10:-1 11:-1 12:-0.789038 13:-0.632432 14:-1 15:-1 16:-0.898 17:-1 18:-1 19:-0.8912 20:-1 21:-1 22:-1 23:-1 24:-1 25:-1 26:-1 27:-1 28:-1 29:-1 30:-1 31:-1 32:-1 33:-1 34:-1 35:-1 36:-1 37:-1 38:-1 39:-0.790769 40:-1 41:-1 42:-1 43:-1 44:-1 45:-1 46:-1 47:-1 48:-1 49:-1 50:-1 51:-1 52:-1 53:-1 54:-1 55:-0.998742 56:-0.999399 57:-0.997222 
1024 1:-1 2:-1 3:-1 4:-1 5:-1 6:-1 7:-1 8:-1 9:-1 10:-1 11:-1 12:-1 13:-1 14:-1 15:-1 16:-1 17:-1 18:-1 19:-1 20:-1 21:-1 22:-1 23:-1 24:-1 25:-1 26:-1 27:-0.994599 28:-1 29:-0.973389 30:-1 31:-1 32:-1 33:-0.978391 34:-1 35:-1 36:-1 37:-1 38:-1 39:-1 40:-0.962185 41:-1 42:-1 43:-1 44:-1 45:-1 46:-1 47:-1 48:-1 49:-1 50:-0.990566 51:-0.832884 52:-1 53:-1 54:-0.99163 55:-0.993311 56:-0.994594 57:-0.823485 
71.99617113924739 1:0.762115 2:-1 3:-0.607843 4:-1 5:-0.779978 6:-1 7:-1 8:-1 9:-1 10:-1 11:-1 12:-0.793175 13:-1 14:-1 15:-1 16:-1 17:-1 18:-1 19:-1 20:-1 21:-1 22:-1 23:-1 24:-1 25:-1 26:-1 27:-1 28:-1 29:-1 30:-1 31:-1 32:-1 33:-1 34:-1 35:-1 36:-1 37:-1 38:-1 39:-1 40:-1 41:-1 42:-1 43:-1 44:-1 45:-1 46:-1 47:-1 48:-1 49:-1 50:-0.965546 51:-1 52:-0.989655 53:-1 54:-1 55:-0.9991 56:-0.998198 57:-0.993308 
571.8321117531283 1:-1 2:-1 3:-1 4:-1 5:-1 6:-1 7:-1 8:-1 9:-1 10:-0.936194 11:-1 12:-0.518097 13:-1 14:-1 15:-1 16:-0.942 17:-1 18:-1 19:-0.813333 20:-1 21:-0.346405 22:-1 23:-1 24:-1 25:-1 26:-0.930372 27:-1 28:-1 29:-1 30:-1 31:-1 32:-1 33:-1 34:-1 35:-1 36:-1 37:-1 38:-1 39:-1 40:-1 41:-1 42:-1 43:-1 44:-0.942 45:-1 46:-1 47:-1 48:-1 49:-1 50:-0.960008 51:-1 52:-0.994027 53:-1 54:-1 55:-0.997732 56:-0.997998 57:-0.994949 
396.4683608257072 1:-1 2:-1 3:-1 4:-1 5:-1 6:-1 7:-1 8:-1 9:-1 10:-1 11:-1 12:-1 13:-1 14:-1 15:-1 16:-1 17:-1 18:-1 19:-0.719467 20:-1 21:-0.50887 22:-1 23:-1 24:-1 25:-1 26:-1 27:-1 28:-1 29:-1 30:-1 31:-1 32:-1 33:-1 34:-1 35:-1 36:-1 37:-1 38:-1 39:-1 40:-1 41:-1 42:-1 43:-1 44:-1 45:-1 46:-1 47:-1 48:-1 49:-1 50:-0.89274 51:-1 52:-1 53:-1 54:-1 55:-0.998824 56:-0.999399 57:-0.998106 
1024 1:-1 2:-0.837535 3:-1 4:-1 5:-1 6:-1 7:-1 8:-0.617162 9:-1 10:-0.872387 11:-1 12:-1 13:-1 14:-1 15:-1 16:-1 17:-1 18:-1 19:-1 20:-1 21:-0.78338 22:-1 23:-1 24:-1 25:-1 26:-1 27:-1 28:-1 29:-1 30:-1 31:-1 32:-1 33:-1 34:-1 35:-1 36:-1 37:-1 38:-1 39:-1 40:-1 41:-1 42:-1 43:-1 44:-1 45:-0.89169 46:-1 47:-1 48:-1 49:-1 50:-1 51:-1 52:-1 53:-1 54:-1 55:-0.99951 56:-0.9996 57:-0.997601 
1024 1:-1 2:-1 3:-0.682353 4:-1 5:-0.940594 6:-1 7:-1 8:-1 9:-1 10:-0.970297 11:-1 12:-0.944157 13:-0.902703 14:-1 15:-1 16:-1 17:-1 18:-1 19:-0.7696 20:-1 21:-0.89916 22:-1 23:-1 24:-1 25:-1 26:-1 27:-1 28:-1 29:-1 30:-1 31:-1 32:-1 33:-1 34:-1 35:-1 36:-1 37:-1 38:-1 39:-1 40:-1 41:-1 42:-1 43:-1 44:-1 45:-0.94958 46:-0.97551 47:-1 48:-1 49:-0.979475 50:-0.981337 51:-1 52:-0.997229 53:-1 54:-1 55:-0.997887 56:-0.990789 57:-0.986742 
1024 1:-1 2:-1 3:-1 4:-1 5:-1 6:-1 7:-0.81293 8:-1 9:-1 10:-0.925193 11:-1 12:-1 13:-1 14:-1 15:-1 16:-1 17:-1 18:-1 19:-0.853867 20:-1 21:-0.615313 22:-1 23:-1 24:-1 25:-1 26:-1 27:-0.959196 28:-1 29:-1 30:-1 31:-1 32:-0.714286 33:-1 34:-0.714286 35:-1 36:-1 37:-1 38:-1 39:-1 40:-1 41:-1 42:-1 43:-1 44:-1 45:-1 46:-1 47:-1 48:-1 49:-1 50:-0.970468 51:-1 52:-1 53:-1 54:-0.980559 55:-0.995357 56:-0.996396 57:-0.980556 
1024 1:-1 2:-1 3:-1 4:-1 5:-1 6:-1 7:-1 8:-1 9:-1 10:-1 11:-1 12:-1 13:-1 14:-1 15:-1 16:-1 17:-1 18:-1 19:-0.605333 20:-1 21:-0.654528 22:-1 23:-1 24:-1 25:-1 26:-1 27:-1 28:-1 29:-1 30:-1 31:-1 32:-1 33:-1 34:-1 35:-1 36:-1 37:-1 38:-1 39:-1 40:-1 41:-1 42:-1 43:-1 44:-1 45:-0.914099 46:-0.916553 47:-1 48:-1 49:-1 50:-1 51:-1 52:-1 53:-0.714476 54:-1 55:-0.996241 56:-0.990789 57:-0.98649 
1024 1:-0.665198 2:-1 3:-1 4:-1 5:-1 6:-0.741497 7:-1 8:-1 9:-1 10:-1 11:-1 12:-1 13:-1 14:-1 15:-1 16:-1 17:-1 18:-1 19:-0.672533 20:-1 21:-0.426704 22:-1 23:-1 24:-1 25:-1 26:-1 27:-1 28:-1 29:-1 30:-1 31:-1 32:-1 33:-1 34:-1 35:-1 36:-1 37:-1 38:-1 39:-1 40:-1 41:-1 42:-1 43:-1 44:-1 45:-1 46:-1 47:-1 48:-1 49:-1 50:-0.948113 51:-1 52:-0.98442 53:-1 54:-1 55:-0.997703 56:-0.998398 57:-0.992172 
361.7755381759281 1:-1 2:-1 3:-0.380392 4:-1 5:-1 6:-1 7:-1 8:-1 9:-1 10:-1 11:-1 12:-1 13:-1 14:-1 15:-1 16:-1 17:-1 18:-1 19:-1 20:-1 21:-1 22:-1 23:-1 24:-1 25:-1 26:-1 27:-1 28:-1 29:-1 30:-1 31:-1 32:-1 33:-1 34:-1 35:-1 36:-0.336134 37:-1 38:-1 39:-0.675897 40:-1 41:-1 42:-1 43:-1 44:-1 45:-1 46:-1 47:-1 48:-1 49:-1 50:-1 51:-1 52:-1 53:-1 54:-1 55:-0.999091 56:-0.998799 57:-0.994949 
383.0817498067721 1:-1 2:-1 3:-0.27451 4:-1 5:-1 6:-1 7:-1 8:-1 9:-1 10:-0.79648 11:-1 12:-0.617373 13:-0.333333 14:-1 15:-1 16:-1 17:-1 18:-1 19:-0.408 20:-1 21:-1 22:-1 23:-1 24:-1 25:-1 26:-1 27:-1 28:-1 29:-1 30:-1 31:-1 32:-1 33:-1 34:-1 35:-1 36:-1 37:-1 38:-1 39:-1 40:-1 41:-1 42:-1 43:-1 44:-1 45:-1 46:-1 47:-1 48:-1 49:-1 50:-1 51:-1 52:-0.957387 53:-1 54:-1 55:-0.998575 56:-0.999199 57:-0.997727 
834.2113617909555 1:-1 2:-1 3:-1 4:-1 5:-1 6:-1 7:-1 8:-1 9:-0.714829 10:-1 11:-1 12:-0.844881 13:-1 14:-1 15:-1 16:-1 17:-1 18:-1 19:-0.76 20:-1 21:-1 22:-1 23:-1 24:-1 25:-1 26:-1 27:-1 28:-1 29:-1 30:-1 31:-1 32:-1 33:-1 34:-1 35:-1 36:-1 37:-1 38:-1 39:-1 40:-1 41:-1 42:-1 43:-1 44:-1 45:-0.929972 46:-1 47:-1 48:-1 49:-1 50:-0.946062 51:-1 52:-1 53:-1 54:-1 55:-0.999655 56:-0.9996 57:-0.997601 
1024 1:-1 2:-0.984594 3:-0.956863 4:-1 5:-0.925193 6:-1 7:-1 8:-1 9:-0.958175 10:-0.924092 11:-0.739464 12:-0.95243 13:-0.96036 14:-1 15:-1 16:-1 17:-1 18:-0.975798 19:-0.9136 20:-1 21:-0.914099 22:-1 23:-0.875229 24:-1 25:-1 26:-1 27:-1 28:-1 29:-1 30:-1 31:-1 32:-1 33:-1 34:-1 35:-1 36:-0.953782 37:-0.933237 38:-1 39:-0.977436 40:-1 41:-1 42:-1 43:-1 44:-1 45:-1 46:-0.916553 47:-1 48:-1 49:-0.992246 50:-0.968622 51:-1 52:-0.998953 53:-0.977345 54:-0.99541 55:-0.995216 56:-0.993192 57:-0.937121 
1024 1:-1 2:-1 3:-0.384314 4:-1 5:-0.951595 6:-0.92517 7:-1 8:-1 9:-1 10:-1 11:-1 12:-1 13:-0.920721 14:-1 15:-1 16:-1 17:-1 18:-1 19:-0.784533 20:-1 21:-0.958917 22:-1 23:-1 24:-1 25:-1 26:-1 27:-1 28:-1 29:-1 30:-1 31:-1 32:-1 33:-1 34:-1 35:-1 36:-1 37:-1 38:-1 39:-0.954872 40:-1 41:-1 42:-1 43:-1 44:-1 45:-0.9169 46:-1 47:-1 48:-1 49:-1 50:-0.981337 51:-1 52:-0.997229 53:-1 54:-1 55:-0.999459 56:-0.996996 57:-0.987879 
1024 1:-0.933921 2:-1 3:-0.752941 4:-1 5:-0.984598 6:-0.962585 7:-1 8:-1 9:-1 10:-0.9967 11:-1 12:-0.985522 13:-0.866667 14:-1 15:-1 16:-1 17:-0.991597 18:-0.993399 19:-0.876267 20:-1 21:-0.958917 22:-1 23:-1 24:-1 25:-0.99712 26:-1 27:-1 28:-1 29:-1 30:-1 31:-1 32:-1 33:-1 34:-1 35:-1 36:-1 37:-1 38:-0.983193 39:-1 40:-1 41:-1 42:-0.995798 43:-1 44:-1 45:-0.979458 46:-0.997279 47:-1 48:-1 49:-0.993615 50:-0.989746 51:-1 52:-0.999138 53:-1 54:-1 55:-0.999782 56:-0.998799 57:-0.95101 
1024 1:-1 2:-1 3:-1 4:-1 5:-1 6:-1 7:-1 8:-1 9:-1 10:-1 11:-0.708812 12:-0.960703 13:-1 14:-1 15:-1 16:-1 17:-1 18:-1 19:-0.858133 20:-1 21:-0.929038 22:-1 23:-1 24:-1 25:-0.981757 26:-1 27:-1 28:-1 29:-1 30:-1 31:-1 32:-1 33:-1 34:-1 35:-1 36:-1 37:-1 38:-1 39:-1 40:-0.920168 41:-1 42:-1 43:-1 44:-1 45:-1 46:-1 47:-1 48:-1 49:-1 50:-0.968417 51:-1 52:-0.998153 53:-1 54:-0.9919 55:-0.99637 56:-0.997797 57:-0.951136 
1024 1:-0.969163 2:-1 3:-0.941176 4:-1 5:-0.663366 6:-0.94898 7:-1 8:-0.848185 9:-1 10:-1 11:-0.94636 12:-0.90486 13:-0.834234 14:-1 15:-1 16:-1 17:-0.980392 18:-1 19:-0.918933 20:-1 21:-0.929038 22:-1 23:-1 24:-1 25:-0.933749 26:-1 27:-1 28:-1 29:-1 30:-1 31:-1 32:-1 33:-1 34:-1 35:-1 36:-1 37:-0.956459 38:-1 39:-1 40:-1 41:-1 42:-0.990196 43:-1 44:-1 45:-0.943044 46:-1 47:-1 48:-1 49:-1 50:-0.995488 51:-1 52:-1 53:-0.989005 54:-1 55:-0.998618 56:-0.992992 57:-0.972348 
1024 1:-1 2:-1 3:-1 4:-1 5:-0.768977 6:-1 7:-1 8:-1 9:-1 10:-1 11:-1 12:-1 13:-1 14:-1 15:-1 16:-1 17:-1 18:-1 19:-1 20:-1 21:-1 22:-1 23:-1 24:-1 25:-1 26:-1 27:-1 28:-1 29:-1 30:-1 31:-1 32:-1 33:-0.620648 34:-1 35:-1 36:-1 37:-1 38:-1 39:-1 40:-1 41:-1 42:-1 43:-1 44:-1 45:-1 46:-1 47:-1 48:-1 49:-1 50:-0.985234 51:-1 52:-1 53:-1 54:-1 55:-0.999048 56:-0.998198 57:-0.993182 
568.4132010321572 1:-1 2:-0.95098 3:-0.862745 4:-1 5:-1 6:-0.880952 7:-1 8:-1 9:-1 10:-0.961496 11:-1 12:-0.853154 13:-1 14:-1 15:-1 16:-1 17:-1 18:-1 19:-0.618133 20:-1 21:-0.800187 22:-1 23:-1 24:-1 25:-1 26:-1 27:-1 28:-1 29:-0.95098 30:-1 31:-1 32:-1 33:-1 34:-1 35:-1 36:-1 37:-1 38:-1 39:-0.928205 40:-1 41:-1 42:-1 43:-1 44:-1 45:-1 46:-1 47:-1 48:-1 49:-1 50:-0.97539 51:-0.970595 52:-1 53:-1 54:-1 55:-0.998458 56:-0.997998 57:-0.985227 
1024 1:-1 2:-1 3:-0.768627 4:-1 5:-0.958196 6:-1 7:-1 8:-1 9:-1 10:-1 11:-1 12:-0.919338 13:-0.931532 14:-1 15:-1 16:-0.981 17:-0.946779 18:-0.958196 19:-0.7664 20:-1 21:-0.889823 22:-1 23:-1 24:-1 25:-1 26:-1 27:-1 28:-1 29:-1 30:-1 31:-1 32:-1 33:-1 34:-1 35:-1 36:-1 37:-1 38:-1 39:-1 40:-1 41:-1 42:-1 43:-1 44:-1 45:-0.963585 46:-0.982766 47:-1 48:-1 49:-1 50:-0.95242 51:-1 52:-1 53:-0.98734 54:-1 55:-0.999747 56:-0.999399 57:-0.988005 
1024 1:-1 2:-1 3:-1 4:-1 5:-0.641364 6:-1 7:-1 8:-1 9:-1 10:-1 11:-1 12:-1 13:-1 14:-1 15:-1 16:-1 17:-1 18:-1 19:-0.476267 20:-1 21:-1 22:-1 23:-1 24:-1 25:-1 26:-1 27:-1 28:-1 29:-1 30:-1 31:-1 32:-1 33:-1 34:-1 35:-1 36:-1 37:-1 38:-1 39:-1 40:-1 41:-1 42:-1 43:-1 44:-1 45:-1 46:-1 47:-1 48:-1 49:-1 50:-1 51:-1 52:-1 53:-1 54:-1 55:-0.998493 56:-0.999199 57:-0.994318 
1024 1:-1 2:-1 3:-0.94902 4:-1 5:-1 6:-1 7:-1 8:-1 9:-0.95057 10:-1 11:-1 12:-0.944157 13:-1 14:-1 15:-1 16:-1 17:-1 18:-1 19:-1 20:-1 21:-1 22:-1 23:-1 24:-0.973333 25:-1 26:-1 27:-1 28:-1 29:-1 30:-0.945378 31:-1 32:-1 33:-1 34:-1 35:-1 36:-1 37:-1 38:-1 39:-1 40:-1 41:-1 42:-1 43:-1 44:-1 45:-0.961718 46:-1 47:-1 48:-1 49:-1 50:-0.985234 51:-1 52:-0.998522 53:-1 54:-1 55:-0.998695 56:-0.998598 57:-0.976136 
4.085785078226294 1:-1 2:1 3:-1 4:-1 5:-1 6:-1 7:-1 8:-1 9:-1 10:-1 11:-1 12:-1 13:-1 14:-1 15:-1 16:-1 17:-1 18:-1 19:-1 20:-1 21:-1 22:-1 23:-1 24:-1 25:-1 26:-1 27:-1 28:-1 29:-1 30:-1 31:-1 32:-1 33:-1 34:-1 35:-1 36:-1 37:-1 38:-1 39:-1 40:-1 41:-1 42:-1 43:-1 44:-1 45:-1 46:-1 47:-1 48:-1 49:-1 50:-1 51:-1 52:-1 53:-1 54:-1 55:-0.998432 56:-0.999199 57:-0.99899 
164.740636204913 1:-1 2:-1 3:-1 4:-1 5:-1 6:-1 7:-1 8:-1 9:-1 10:-0.69527 11:-1 12:-1 13:-1 14:-1 15:-1 16:-1 17:-1 18:-1 19:-0.704533 20:-1 21:0.0364146 22:-1 23:-1 24:-1 25:-1 26:-1 27:-1 28:-1 29:-1 30:-1 31:-1 32:-1 33:-1 34:-1 35:-1 36:-1 37:-1 38:-1 39:-1 40:-1 41:-1 42:-1 43:-1 44:-1 45:-0.741363 46:-1 47:-1 48:-1 49:-1 50:-1 51:-1 52:-0.973028 53:-1 54:-1 55:-0.999581 56:-0.9996 57:-0.99798 
1024 1:-1 2:-0.904762 3:-0.866667 4:-1 5:-1 6:-1 7:-1 8:-0.887789 9:-1 10:-1 11:-0.739464 12:-1 13:-1 14:-1 15:-1 16:-0.828 17:-1 18:-1 19:-0.890133 20:-1 21:-0.615313 22:-1 23:-1 24:-1 25:-1 26:-1 27:-1 28:-1 29:-1 30:-1 31:-1 32:-1 33:-1 34:-1 35:-1 36:-1 37:-1 38:-1 39:-1 40:-0.857143 41:-1 42:-1 43:-1 44:-1 45:-0.968254 46:-1 47:-1 48:-1 49:-1 50:-0.990566 51:-1 52:-1 53:-1 54:-1 55:-0.995406 56:-0.978775 57:-0.975631 
1024 1:-1 2:-1 3:-1 4:-1 5:-0.788779 6:-0.836735 7:-1 8:-1 9:-0.81749 10:-1 11:-0.632184 12:-0.900724 13:-1 14:-1 15:-1 16:-0.856 17:-1 18:-0.577558 19:-0.8976 20:-1 21:-0.731092 22:-1 23:-0.823853 24:-1 25:-1 26:-1 27:-1 28:-1 29:-1 30:-1 31:-1 32:-1 33:-1 34:-1 35:-1 36:-1 37:-1 38:-1 39:-1 40:-1 41:-1 42:-1 43:-0.731092 44:-1 45:-1 46:-1 47:-1 48:-1 49:-1 50:-1 51:-1 52:-0.958988 53:-1 54:-1 55:-0.993264 56:-0.994794 57:-0.982197 
912.7025546535945 1:-1 2:-1 3:-1 4:-1 5:-1 6:-0.588435 7:-1 8:-1 9:-1 10:-1 11:-1 12:-1 13:-1 14:-1 15:-1 16:-1 17:-1 18:-1 19:-0.870933 20:-1 21:-1 22:-1 23:-1 24:-1 25:-1 26:-1 27:-1 28:-1 29:-1 30:-1 31:-1 32:-1 33:-1 34:-1 35:-1 36:-1 37:-0.648766 38:-1 39:-1 40:-1 41:-1 42:-1 43:-1 44:-1 45:-0.887021 46:-1 47:-1 48:-1 49:-1 50:-0.956522 51:-1 52:-1 53:-1 54:-1 55:-0.999204 56:-0.999199 57:-0.994444 
1024 1:-1 2:-1 3:-1 4:-1 5:-1 6:-1 7:-1 8:-1 9:-1 10:-1 11:-1 12:-1 13:-1 14:-1 15:-1 16:-0.962 17:-1 18:-0.916392 19:-0.7536 20:-1 21:-0.856209 22:-1 23:-1 24:-1 25:-1 26:-1 27:-1 28:-1 29:-1 30:-1 31:-1 32:-1 33:-1 34:-1 35:-1 36:-1 37:-1 38:-1 39:-1 40:-1 41:-1 42:-1 43:-1 44:-1 45:-0.964519 46:-1 47:-1 48:-1 49:-1 50:-0.955701 51:-1 52:-0.990024 53:-1 54:-0.985419 55:-0.992024 56:-0.986183 57:-0.963636 
991.9486961634917 1:-0.951542 2:-1 3:-0.909804 4:-1 5:-0.949395 6:-0.962585 7:-1 8:-1 9:-0.562738 10:-1 11:-1 12:-0.929679 13:-1 14:-1 15:-1 16:-0.989 17:-1 18:-1 19:-0.950933 20:-1 21:-0.957049 22:-1 23:-1 24:-1 25:-0.945271 26:-0.917167 27:-0.993399 28:-1 29:-1 30:-1 31:-1 32:-1 33:-0.918367 34:-1 35:-1 36:-0.857143 37:-0.933237 38:-1 39:-1 40:-1 41:-1 42:-1 43:-1 44:-1 45:-1 46:-1 47:-1 48:-1 49:-0.978107 50:-0.960213 51:-0.984318 52:-1 53:-0.989339 54:-1 55:-0.995541 56:-0.993592 57:-0.935606 
140.2589797529954 1:-1 2:-1 3:-1 4:-1 5:-1 6:-1 7:-1 8:-1 9:-1 10:-1 11:-1 12:-1 13:-1 14:-1 15:-1 16:-1 17:-1 18:-1 19:-1 20:-1 21:-1 22:-1 23:-1 24:-1 25:-1 26:-1 27:-1 28:-1 29:-1 30:-1 31:-1 32:-1 33:-1 34:-1 35:-1 36:-1 37:-1 38:-1 39:-1 40:-1 41:-1 42:-1 43:-1 44:-1 45:-1 46:-1 47:-1 48:-1 49:-1 50:-1 51:-1 52:-1 53:-1 54:-1 55:-0.997388 56:-0.999199 57:-0.999242 
1024 1:-1 2:-1 3:-0.686275 4:-1 5:-0.467547 6:-1 7:-1 8:-1 9:-1 10:-1 11:-1 12:-0.91727 13:-1 14:-1 15:-1 16:-1 17:-1 18:-0.911991 19:-0.438933 20:-1 21:-0.699346 22:-1 23:-1 24:-1 25:-0.961594 26:-0.951981 27:-1 28:-1 29:-1 30:-1 31:-1 32:-1 33:-1 34:-1 35:-1 36:-1 37:-1 38:-1 39:-1 40:-1 41:-1 42:-1 43:-1 44:-1 45:-0.849673 46:-1 47:-1 48:-1 49:-1 50:-1 51:-1 52:-0.983373 53:-1 54:-1 55:-0.997335 56:-0.993192 57:-0.992677 
1024 1:-1 2:-1 3:-1 4:-1 5:-1 6:-1 7:-1 8:-1 9:-1 10:-1 11:-1 12:-1 13:-1 14:-1 15:-1 16:-1 17:-1 18:-1 19:-1 20:-1 21:-1 22:-1 23:-1 24:-1 25:-1 26:-1 27:-1 28:-1 29:-1 30:-1 31:-1 32:-1 33:-1 34:-1 35:-1 36:-1 37:-1 38:-1 39:-1 40:-1 41:-1 42:-1 43:-1 44:-1 45:-1 46:-1 47:-1 48:-1 49:-1 50:-1 51:-1 52:-0.86009 53:-1 54:-1 55:-0.99853 56:-0.998799 57:-0.998359 
1024 1:-1 2:-1 3:-1 4:-1 5:-0.691969 6:-1 7:-1 8:-1 9:-1 10:-1 11:-1 12:-0.418821 13:-1 14:-1 15:-1 16:-1 17:-1 18:-1 19:-1 20:-1 21:-1 22:-1 23:-1 24:-1 25:-1 26:-1 27:-1 28:-1 29:-1 30:-1 31:-1 32:-1 33:-1 34:-1 35:-1 36:-1 37:-1 38:-1 39:-1 40:-1 41:-1 42:-1 43:-1 44:-1 45:-1 46:-1 47:-1 48:-1 49:-1 50:-1 51:-1 52:-0.985282 53:-1 54:-1 55:-0.998191 56:-0.998799 57:-0.993813 
1024 1:-1 2:-1 3:-1 4:-1 5:-0.872387 6:-1 7:-1 8:-1 9:-1 10:-1 11:-1 12:-1 13:-1 14:-1 15:-1 16:-1 17:-1 18:-1 19:-0.9072 20:-1 21:-0.945845 22:-1 23:-1 24:-1 25:-0.972156 26:-0.965186 27:-0.982598 28:-0.872387 29:-1 30:-1 31:-1 32:-1 33:-1 34:-0.878151 35:-0.942 36:-1 37:-1 38:-1 39:-1 40:-1 41:-1 42:-1 43:-1 44:-1 45:-1 46:-1 47:-1 48:-1 49:-1 50:-0.954881 51:-1 52:-1 53:-0.321006 54:-1 55:-0.975381 56:-0.929916 57:-0.945328 
1024 1:-1 2:-1 3:-0.509804 4:-1 5:-0.863586 6:-1 7:-1 8:-1 9:-1 10:-1 11:-1 12:-0.741468 13:-1 14:-1 15:-1 16:-0.812 17:-1 18:-1 19:-0.530667 20:-1 21:-1 22:-1 23:-1 24:-0.74359 25:-1 26:-1 27:-1 28:-1 29:-1 30:-1 31:-1 32:-1 33:-1 34:-1 35:-1 36:-1 37:-1 38:-1 39:-1 40:-1 41:-1 42:-1 43:-1 44:-1 45:-1 46:-1 47:-1 48:-1 49:-1 50:-0.932937 51:-1 52:-1 53:-0.963685 54:-0.970568 55:-0.998618 56:-0.998398 57:-0.992803 
0.1610538232080891 1:-1 2:1 3:-1 4:-1 5:-1 6:-1 7:-1 8:-1 9:-1 10:-1 11:-1 12:-1 13:-1 14:-1 15:-1 16:-1 17:-1 18:-1 19:-1 20:-1 21:-1 22:-1 23:-1 24:-1 25:-1 26:-1 27:-1 28:-1 29:-1 30:-1 31:-1 32:-1 33:-1 34:-1 35:-1 36:-1 37:-1 38:-1 39:-1 40:-1 41:-1 42:-1 43:-1 44:-1 45:-1 46:-1 47:-1 48:-1 49:-1 50:-1 51:-1 52:-1 53:-1 54:-1 55:-0.998432 56:-0.999199 57:-0.99899 
1024 1:-1 2:-1 3:-0.862745 4:-1 5:-0.922992 6:-1 7:-1 8:-1 9:-0.86692 10:-1 11:-1 12:-1 13:-1 14:-1 15:-1 16:-1 17:-1 18:-1 19:-0.850667 20:-1 21:-0.346405 22:-0.877193 23:-1 24:-1 25:-1 26:-1 27:-1 28:-1 29:-1 30:-1 31:-1 32:-1 33:-1 34:-1 35:-1 36:-1 37:-0.898403 38:-1 39:-1 40:-1 41:-1 42:-1 43:-1 44:-1 45:-1 46:-0.968254 47:-1 48:-1 49:-1 50:-0.866694 51:-1 52:-1 53:-1 54:-0.986499 55:-0.997094 56:-0.996796 57:-0.971591 
292.059017759275 1:-1 2:-1 3:-1 4:-1 5:-1 6:-1 7:-1 8:-1 9:1 10:-1 11:-1 12:-1 13:-1 14:-1 15:-1 16:-1 17:-0.263305 18:-1 19:-0.719467 20:-1 21:-0.0177404 22:-1 23:-1 24:-1 25:-1 26:-1 27:-1 28:-1 29:-1 30:-1 31:-1 32:-1 33:-1 34:-1 35:-1 36:-1 37:-1 38:-1 39:-1 40:-1 41:-1 42:-1 43:-1 44:-1 45:-1 46:-1 47:-1 48:-1 49:-1 50:-1 51:-1 52:-1 53:-1 54:-1 55:-0.997927 56:-0.997998 57:-0.995707 
1024 1:-1 2:-1 3:-1 4:-1 5:-1 6:-1 7:-1 8:-1 9:-1 10:-0.937294 11:-1 12:-1 13:-1 14:-1 15:-1 16:-0.943 17:-1 18:-1 19:-0.693867 20:-1 21:-0.2493 22:-1 23:-1 24:-1 25:-1 26:-1 27:-1 28:-1 29:-1 30:-1 31:-1 32:-1 33:-1 34:-1 35:-1 36:-1 37:-1 38:-1 39:-1 40:-1 41:-1 42:-1 43:-1 44:-1 45:-0.893557 46:-1 47:-1 48:-1 49:-1 50:-0.827728 51:-1 52:-1 53:-1 54:-0.979479 55:-0.994938 56:-0.993993 57:-0.983838 
1024 1:-0.960352 2:-0.987395 3:-0.890196 4:-1 5:-0.938394 6:-1 7:-1 8:-0.907591 9:-1 10:-1 11:-1 12:-0.981386 13:-0.935135 14:-1 15:-1 16:-1 17:-0.94958 18:-0.938394 19:-0.869867 20:-1 21:-0.930906 22:-1 23:-0.966972 24:-1 25:-1 26:-1 27:-1 28:-1 29:-1 30:-1 31:-1 32:-1 33:-1 34:-1 35:-1 36:-0.962185 37:-0.918723 38:-1 39:-1 40:-0.962185 41:-1 42:-1 43:-1 44:-0.972 45:-0.965453 46:-0.991837 47:-1 48:-1 49:-0.993615 50:-0.982773 51:-1 52:-0.997414 53:-1 54:-0.988659 55:-0.998281 56:-0.996596 57:-0.930429 
1024 1:-1 2:-1 3:-1 4:-1 5:-1 6:-1 7:-1 8:-1 9:-1 10:-1 11:-1 12:-1 13:-1 14:-1 15:-1 16:-1 17:-1 18:-1 19:-1 20:-1 21:-1 22:-1 23:-0.222018 24:-1 25:-1 26:-1 27:-1 28:-1 29:-1 30:-1 31:-1 32:-1 33:-1 34:-1 35:-1 36:-1 37:-1 38:-1 39:-1 40:-1 41:-1 42:-1 43:-1 44:-1 45:-1 46:-1 47:-1 48:-1 49:-1 50:-0.745898 51:-1 52:-1 53:-1 54:-1 55:-0.997715 56:-0.999199 57:-0.998485 
0.1071405692278602 1:-1 2:1 3:-1 4:-1 5:-1 6:-1 7:-1 8:-1 9:-1 10:-1 11:-1 12:-1 13:-1 14:-1 15:-1 16:-1 17:-1 18:-1 19:-1 20:-1 21:-1 22:-1 23:-1 24:-1 25:-1 26:-1 27:-1 28:-1 29:-1 30:-1 31:-1 32:-1 33:-1 34:-1 35:-1 36:-1 37:-1 38:-1 39:-1 40:-1 41:-1 42:-1 43:-1 44:-1 45:-1 46:-1 47:-1 48:-1 49:-1 50:-1 51:-1 52:-1 53:-1 54:-1 55:-0.998432 56:-0.999199 57:-0.99899 
1024 1:-1 2:-1 3:-1 4:-1 5:-1 6:-1 7:-0.757909 8:-1 9:-1 10:-1 11:-1 12:-0.817994 13:-1 14:-1 15:-1 16:-1 17:-1 18:-1 19:-0.906133 20:-1 21:-1 22:-1 23:-1 24:-1 25:-1 26:-1 27:-1 28:-1 29:-1 30:-1 31:-1 32:-1 33:-0.577431 34:-1 35:-1 36:-1 37:-1 38:-1 39:-1 40:-1 41:-1 42:-1 43:-1 44:-1 45:-1 46:-1 47:-1 48:-1 49:-1 50:-0.972724 51:-1 52:-1 53:-1 54:-1 55:-0.998767 56:-0.998398 57:-0.994571 
736.8331229636935 1:-1 2:-1 3:0.32549 4:-1 5:-1 6:-1 7:-1 8:-1 9:-1 10:-1 11:-1 12:-1 13:-1 14:-1 15:-1 16:-1 17:-1 18:-1 19:-1 20:-1 21:-0.684407 22:-1 23:-1 24:-1 25:-1 26:-1 27:-1 28:-1 29:-1 30:-1 31:-1 32:-1 33:-1 34:-1 35:-1 36:-1 37:-1 38:-1 39:-1 40:-1 41:-1 42:-1 43:-1 44:-1 45:-1 46:-1 47:-1 48:-1 49:-1 50:-1 51:-1 52:-1 53:-1 54:-1 55:-0.999565 56:-0.9996 57:-0.998737 
1024 1:-1 2:-1 3:-1 4:-1 5:-1 6:-1 7:-1 8:-1 9:-1 10:-1 11:-1 12:-0.880041 13:-1 14:-1 15:-1 16:-0.942 17:-1 18:-1 19:-0.690667 20:-1 21:-0.89169 22:-0.932164 23:-1 24:-1 25:-1 26:-1 27:-1 28:-1 29:-1 30:-1 31:-1 32:-1 33:-1 34:-1 35:-1 36:-1 37:-1 38:-1 39:-1 40:-1 41:-1 42:-1 43:-1 44:-1 45:-1 46:-0.947392 47:-1 48:-1 49:-1 50:-0.962059 51:-1 52:-1 53:-1 54:-0.975159 55:-0.997123 56:-0.997998 57:-0.990152 
1024 1:-1 2:-1 3:-0.713725 4:-1 5:-0.920792 6:-0.877551 7:-1 8:-1 9:-1 10:-1 11:-1 12:-1 13:-1 14:-1 15:-1 16:-1 17:-1 18:-1 19:-0.7664 20:-1 21:-1 22:-1 23:-1 24:-1 25:-1 26:-1 27:-1 28:-1 29:-1 30:-1 31:-1 32:-1 33:-1 34:-1 35:-1 36:-1 37:-1 38:-1 39:-1 40:-1 41:-1 42:-1 43:-1 44:-1 45:-1 46:-1 47:-1 48:-1 49:-1 50:-1 51:-1 52:-0.606688 53:-1 54:-1 55:-0.999743 56:-0.999399 57:-0.991414 
1024 1:-1 2:-1 3:-1 4:-1 5:-1 6:-1 7:-1 8:-1 9:-1 10:-1 11:-1 12:-1 13:-1 14:-1 15:-1 16:-1 17:-1 18:-0.421342 19:-0.438933 20:-1 21:-1 22:-1 23:-1 24:-1 25:-1 26:-1 27:-1 28:-1 29:-1 30:-1 31:-1 32:-1 33:-1 34:-1 35:-1 36:-1 37:-1 38:-1 39:-1 40:-1 41:-1 42:-1 43:-1 44:-1 45:-1 46:-1 47:-1 48:-1 49:-1 50:-1 51:-1 52:-1 53:-1 54:-1 55:-0.998775 56:-0.9996 57:-0.998485 
151.2017382554118 1:-1 2:-1 3:-1 4:-1 5:-1 6:-1 7:-1 8:-1 9:-1 10:-1 11:-1 12:-1 13:-1 14:-1 15:-1 16:-1 17:-1 18:-1 19:-0.2896 20:-1 21:-1 22:-1 23:-1 24:-1 25:-1 26:-1 27:-1 28:-1 29:-1 30:-1 31:-1 32:-1 33:-1 34:-1 35:-1 36:-1 37:-1 38:-1 39:-1 40:-1 41:-1 42:-1 43:-1 44:-1 45:-0.378151 46:-1 47:-1 48:-1 49:-1 50:-1 51:-1 52:1 53:-1 54:-1 55:-0.998695 56:-0.9996 57:-0.999495 
1024 1:-1 2:-1 3:-1 4:-1 5:-1 6:-1 7:-1 8:-1 9:-1 10:-1 11:-1 12:-1 13:-1 14:-1 15:-1 16:-1 17:-1 18:-1 19:-1 20:-1 21:-1 22:-1 23:-1 24:-1 25:-1 26:-1 27:-1 28:-1 29:-1 30:-1 31:-1 32:-1 33:-1 34:-1 35:-1 36:-1 37:-1 38:-1 39:-1 40:-1 41:-1 42:-1 43:-1 44:-1 45:-1 46:-1 47:-1 48:-1 49:-1 50:-1 51:-1 52:-0.919022 53:-1 54:-1 55:-1 56:-1 57:-0.999242 
1024 1:-0.823789 2:-1 3:-0.682353 4:-1 5:-1 6:-1 7:-1 8:-1 9:-1 10:-1 11:-1 12:-1 13:-1 14:-1 15:-1 16:-0.96 17:-1 18:-0.821782 19:-0.869867 20:-1 21:-0.848739 22:-1 23:-1 24:-1 25:-1 26:-1 27:-1 28:-1 29:-1 30:-1 31:-1 32:-1 33:-1 34:-1 35:-1 36:-1 37:-1 38:-1 39:-1 40:-1 41:-1 42:-1 43:-1 44:-1 45:-0.886088 46:-1 47:-1 48:-1 49:-1 50:-0.954266 51:-1 52:-1 53:-1 54:-0.985149 55:-0.992651 56:-0.986183 57:-0.96654 
1024 1:-1 2:-1 3:-0.870588 4:-1 5:-1 6:-0.833333 7:-1 8:-0.564356 9:-0.939163 10:-0.436744 11:-1 12:-1 13:-1 14:-0.868 15:-1 16:-1 17:-0.907563 18:-1 19:-0.9648 20:-1 21:-1 22:-1 23:-1 24:-1 25:-1 26:-1 27:-1 28:-1 29:-1 30:-1 31:-1 32:-1 33:-1 34:-1 35:-0.984 36:-1 37:-1 38:-1 39:-1 40:-1 41:-1 42:-0.977591 43:-1 44:-1 45:-1 46:-0.970068 47:-1 48:-1 49:-1 50:-0.985644 51:-0.988728 52:-1 53:-1 54:-0.99379 55:-0.998918 56:-0.998198 57:-0.981313 
1024 1:-1 2:-1 3:-0.776471 4:-1 5:-0.812981 6:-1 7:-1 8:-1 9:-0.893536 10:-1 11:-0.563218 12:-0.942089 13:-1 14:-1 15:-1 16:-0.915 17:-1 18:-0.874587 19:-0.848533 20:-1 21:-0.84127 22:-1 23:-1 24:-1 25:-1 26:-1 27:-1 28:-1 29:-1 30:-1 31:-1 32:-1 33:-1 34:-1 35:-1 36:-1 37:-1 38:-1 39:-1 40:-1 41:-1 42:-1 43:-1 44:-1 45:-1 46:-1 47:-1 48:-1 49:-0.963512 50:-1 51:-1 52:-0.982634 53:-0.919374 54:-1 55:-0.997139 56:-0.994994 57:-0.965025 
1024 1:-1 2:-1 3:-1 4:-1 5:-1 6:-1 7:-1 8:-1 9:-1 10:-1 11:-1 12:-1 13:-1 14:-1 15:-1 16:-1 17:-1 18:-1 19:-0.220267 20:-1 21:-1 22:-1 23:-1 24:-1 25:-1 26:-1 27:-1 28:-1 29:-1 30:-1 31:-1 32:-1 33:-1 34:-1 35:-1 36:-1 37:-1 38:-1 39:-1 40:-1 41:-1 42:-1 43:-1 44:-1 45:-1 46:-1 47:-1 48:-1 49:-1 50:-1 51:-1 52:-1 53:-1 54:-1 55:-0.998601 56:-0.999399 57:-0.998611 
0.9347002808903033 1:-1 2:1 3:-1 4:-1 5:-1 6:-1 7:-1 8:-1 9:-1 10:-1 11:-1 12:-1 13:-1 14:-1 15:-1 16:-1 17:-1 18:-1 19:-1 20:-1 21:-1 22:-1 23:-1 24:-1 25:-1 26:-1 27:-1 28:-1 29:-1 30:-1 31:-1 32:-1 33:-1 34:-1 35:-1 36:-1 37:-1 38:-1 39:-1 40:-1 41:-1 42:-1 43:-1 44:-1 45:-1 46:-1 47:-1 48:-1 49:-1 50:-1 51:-1 52:-1 53:-1 54:-1 55:-0.998432 56:-0.999199 57:-0.99899 
1024 1:-0.828194 2:-1 3:-1 4:-1 5:-0.742574 6:-1 7:-1 8:-1 9:-1 10:-0.957096 11:-1 12:-0.758014 13:-1 14:-1 15:-1 16:-1 17:-1 18:-0.914191 19:-0.6672 20:-0.957096 21:-0.781513 22:-1 23:-1 24:-1 25:-1 26:-1 27:-0.976598 28:-0.828383 29:-1 30:-1 31:-1 32:-1 33:-1 34:-1 35:-1 36:-1 37:-1 38:-1 39:-1 40:-0.836134 41:-1 42:-1 43:-1 44:-1 45:-1 46:-1 47:-1 48:-1 49:-0.968073 50:-0.985644 51:-1 52:-0.995689 53:-1 54:-1 55:-0.997905 56:-0.997597 57:-0.988889 
141.969120770355 1:-1 2:-1 3:-1 4:-1 5:-1 6:-1 7:-1 8:0.940594 9:-1 10:-1 11:-1 12:-1 13:-1 14:-1 15:-1 16:-1 17:-1 18:-1 19:-1 20:-1 21:-1 22:-1 23:-1 24:-1 25:-1 26:-1 27:-1 28:-1 29:-1 30:-1 31:-1 32:-1 33:-1 34:-1 35:-1 36:-1 37:-1 38:-1 39:-1 40:-1 41:-1 42:-1 43:-1 44:-1 45:-1 46:-1 47:-1 48:-1 49:-1 50:-1 51:-1 52:-1 53:-1 54:-1 55:-1 56:-1 57:-0.998864 
1024 1:-0.757709 2:-1 3:-1 4:-1 5:-1 6:-1 7:-1 8:-1 9:-1 10:-1 11:-1 12:-1 13:-1 14:-1 15:-1 16:-1 17:-1 18:-1 19:-0.765333 20:-1 21:-0.897292 22:-1 23:-1 24:-1 25:-1 26:-1 27:-1 28:-1 29:-1 30:-1 31:-1 32:-1 33:-1 34:-1 35:-1 36:-1 37:-1 38:-1 39:-1 40:-1 41:-1 42:-1 43:-1 44:-1 45:-0.897292 46:-1 47:-1 48:-1 49:-1 50:-1 51:-1 52:-0.96102 53:-1 54:-1 55:-0.999244 56:-0.997998 57:-0.992424 
1024 1:-1 2:-0.952381 3:-1 4:-1 5:-0.850385 6:-1 7:-0.81293 8:-1 9:-1 10:-0.962596 11:-0.739464 12:-1 13:-1 14:-1 15:-1 16:-0.966 17:-1 18:-0.70077 19:-0.6352 20:-1 21:-0.490196 22:-1 23:-1 24:-1 25:-0.967355 26:-0.959184 27:-1 28:-1 29:-1 30:-1 31:-1 32:-1 33:-0.918367 34:-1 35:-1 36:-1 37:-1 38:-1 39:-1 40:-1 41:-1 42:-1 43:-1 44:-1 45:-1 46:-1 47:-1 48:-1 49:-1 50:-1 51:-1 52:-0.997044 53:-0.984008 54:-1 55:-0.999195 56:-0.997197 57:-0.988005 
1024 1:-0.977974 2:-1 3:-0.960784 4:-1 5:-1 6:-0.965986 7:-1 8:-0.983498 9:-0.813688 10:-1 11:-1 12:-0.944157 13:-1 14:-1 15:-1 16:-1 17:-0.893557 18:-1 19:-0.9776 20:-1 21:-0.981326 22:-1 23:-1 24:-1 25:-0.952952 26:-0.935174 27:-0.997 28:-1 29:-1 30:-1 31:-1 32:-1 33:-0.908764 34:-1 35:-1 36:-0.840336 37:-0.939042 38:-1 39:-1 40:-1 41:-1 42:-1 43:-1 44:-1 45:-1 46:-1 47:-1 48:-1 49:-0.859521 50:-0.972108 51:-0.961774 52:-1 53:-0.995336 54:-1 55:-0.994679 56:-0.978775 57:-0.825126 
681.065506855069 1:-0.352423 2:-0.794118 3:-1 4:-1 5:-1 6:-1 7:-1 8:-1 9:-1 10:-0.838284 11:-1 12:-1 13:-1 14:-1 15:-1 16:-1 17:-1 18:-1 19:-0.8432 20:-1 21:-1 22:-1 23:-1 24:-1 25:-1 26:-1 27:-1 28:-1 29:-1 30:-1 31:-1 32:-1 33:-1 34:-1 35:-1 36:-1 37:-1 38:-1 39:-1 40:-1 41:-1 42:-1 43:-1 44:-1 45:-1 46:-1 47:-1 48:-1 49:-1 50:-1 51:-1 52:-1 53:-1 54:-1 55:-0.997274 56:-0.995995 57:-0.993182 
1024 1:-1 2:-1 3:-0.737255 4:-1 5:-1 6:-1 7:-1 8:-1 9:-1 10:-1 11:-1 12:-0.791107 13:-0.881081 14:-1 15:-1 16:-1 17:-1 18:-1 19:-0.856 20:-1 21:-0.938375 22:-1 23:-0.878899 24:-1 25:-1 26:-1 27:-1 28:-1 29:-1 30:-1 31:-1 32:-1 33:-1 34:-1 35:-1 36:-1 37:-1 38:-1 39:-1 40:-1 41:-1 42:-1 43:-1 44:-1 45:-0.969188 46:-0.970068 47:-1 48:-1 49:-1 50:-1 51:-1 52:-0.989285 53:-1 54:-1 55:-0.997901 56:-0.990789 57:-0.98548 
1024 1:-1 2:-0.914566 3:-1 4:-1 5:-0.731573 6:-1 7:-1 8:-1 9:-1 10:-0.59516 11:-1 12:-1 13:-1 14:-1 15:-0.723356 16:-1 17:-1 18:-1 19:-0.803733 20:-1 21:-0.656396 22:-1 23:-1 24:-1 25:-0.941431 26:-0.926771 27:-1 28:-1 29:-1 30:0.0294118 31:-1 32:-1 33:-1 34:-1 35:-1 36:-1 37:-0.822932 38:-1 39:-1 40:-1 41:-1 42:-1 43:-1 44:-1 45:-1 46:-1 47:-1 48:-1 49:-1 50:-1 51:-1 52:-1 53:-1 54:-1 55:-0.999067 56:-0.998598 57:-0.992298 
1024 1:-1 2:-1 3:-1 4:-1 5:-0.828383 6:-1 7:-1 8:-1 9:-0.703422 10:-0.914191 11:-1 12:-0.838676 13:-1 14:-1 15:-1 16:-0.922 17:-1 18:-1 19:-0.8336 20:-1 21:-1 22:-1 23:-1 24:-1 25:-0.925108 26:-0.906363 27:-1 28:-0.656766 29:-1 30:-1 31:-1 32:-1 33:-1 34:-1 35:-1 36:-1 37:-1 38:-1 39:-1 40:-1 41:-1 42:-1 43:-1 44:-1 45:-1 46:-1 47:-1 48:-1 49:-1 50:-0.888433 51:-1 52:-1 53:-0.954689 54:-1 55:-0.996825 56:-0.997998 57:-0.99053 
1024 1:-1 2:-1 3:-1 4:-1 5:-1 6:-1 7:-1 8:-1 9:-1 10:-1 11:-1 12:-0.667011 13:-1 14:-1 15:-1 16:-1 17:-1 18:-0.645765 19:-0.656533 20:-1 21:-0.699346 22:-1 23:-1 24:-1 25:-1 26:-1 27:-1 28:-1 29:-1 30:-1 31:-1 32:-1 33:-1 34:-1 35:-1 36:-1 37:-1 38:-1 39:-1 40:-1 41:-1 42:-1 43:-1 44:-1 45:-1 46:-1 47:-1 48:-1 49:-1 50:-1 51:-1 52:-1 53:-1 54:-1 55:-0.999645 56:-0.9996 57:-0.998485 
275.0919643108359 1:-1 2:-1 3:-1 4:-1 5:-1 6:-0.748299 7:-1 8:-1 9:-1 10:-1 11:-1 12:-0.846949 13:-0.463063 14:-1 15:-1 16:-1 17:-1 18:-1 19:-0.841067 20:-1 21:-0.721755 22:-1 23:-1 24:-1 25:-1 26:-1 27:-1 28:-1 29:-1 30:-1 31:-1 32:-1 33:-1 34:-1 35:-1 36:-1 37:-1 38:-1 39:-1 40:-1 41:-1 42:-1 43:-1 44:-1 45:-0.930906 46:-1 47:-1 48:-1 49:-1 50:-1 51:-1 52:-1 53:-1 54:-1 55:-0.999294 56:-0.9996 57:-0.995833 
895.2745647279079 1:-1 2:-1 3:-1 4:-1 5:-1 6:-1 7:-1 8:-1 9:-1 10:-0.911991 11:-1 12:-1 13:-1 14:-1 15:-1 16:-0.839 17:-1 18:-1 19:-0.914667 20:-1 21:-0.850607 22:-1 23:-1 24:-1 25:-0.923188 26:-1 27:-1 28:-1 29:-1 30:-1 31:-0.872 32:-1 33:-0.807923 34:-1 35:-1 36:-1 37:-1 38:-1 39:-1 40:-1 41:-1 42:-1 43:-1 44:-1 45:-1 46:-1 47:-1 48:-1 49:-1 50:-0.981747 51:-1 52:-1 53:-1 54:-1 55:-0.997246 56:-0.994594 57:-0.988889 
15.92810063435929 1:-0.118943 2:-1 3:-1 4:-1 5:-1 6:-1 7:-1 8:-1 9:-1 10:-1 11:0.532567 12:-0.58635 13:-1 14:-1 15:-1 16:-1 17:-1 18:-1 19:-0.786667 20:-1 21:0.493931 22:-1 23:-1 24:-1 25:-1 26:-1 27:-1 28:-1 29:-1 30:-1 31:-1 32:-1 33:-1 34:-1 35:-1 36:-1 37:-1 38:-1 39:-1 40:-1 41:-1 42:-1 43:-1 44:-1 45:-1 46:-1 47:-1 48:-1 49:-1 50:-1 51:-1 52:-1 53:-1 54:-1 55:-0.99042 56:-0.994393 57:-0.993434 
1024 1:-1 2:-1 3:-0.772549 4:-1 5:-1 6:-0.802721 7:-1 8:-1 9:-1 10:-1 11:-1 12:-1 13:-1 14:-1 15:-1 16:-1 17:-1 18:-1 19:-0.812267 20:-1 21:-0.781513 22:-1 23:-1 24:-1 25:-1 26:-1 27:-1 28:-1 29:-1 30:-1 31:-1 32:-1 33:-1 34:-1 35:-1 36:-1 37:-1 38:-1 39:-1 40:-1 41:-1 42:-1 43:-1 44:-1 45:-1 46:-1 47:-1 48:-1 49:-1 50:-0.977851 51:-0.947072 52:-0.973397 53:-1 54:-1 55:-1 56:-1 57:-0.995707 
1024 1:-0.9163 2:-1 3:-0.847059 4:-1 5:-0.727173 6:-0.955782 7:-1 8:-0.980198 9:-0.878327 10:-1 11:-1 12:-0.906929 13:-0.906306 14:-1 15:-1 16:-1 17:-0.963585 18:-1 19:-0.867733 20:-1 21:-0.927171 22:-1 23:-0.977982 24:-1 25:-0.900144 26:-1 27:-1 28:-1 29:-1 30:-1 31:-1 32:-1 33:-1 34:-1 35:-1 36:-0.97479 37:-1 38:-1 39:-1 40:-1 41:-1 42:-1 43:-1 44:-1 45:-0.963585 46:-1 47:-1 48:-1 49:-1 50:-0.993847 51:-1 52:-1 53:-0.990005 54:-1 55:-0.998881 56:-0.99179 57:-0.962626 
1024 1:-1 2:-1 3:-1 4:-1 5:-1 6:-1 7:-1 8:-1 9:-1 10:-1 11:-1 12:-1 13:-1 14:-1 15:-1 16:-1 17:-1 18:-1 19:-1 20:-1 21:-1 22:-1 23:-1 24:-1 25:-1 26:-1 27:-1 28:-1 29:-1 30:-1 31:-1 32:-1 33:-1 34:-1 35:-1 36:-1 37:-1 38:-1 39:-1 40:-1 41:-1 42:-1 43:-1 44:-1 45:-1 46:-1 47:-1 48:-1 49:-1 50:-1 51:-1 52:-0.88386 53:-1 54:-1 55:-0.999265 56:-0.999399 57:-0.998737 
1024 1:-1 2:-0.922969 3:-1 4:-1 5:-1 6:-1 7:-1 8:-1 9:-1 10:-1 11:-1 12:-0.654602 13:-1 14:-1 15:-1 16:-1 17:-1 18:-1 19:-0.7024 20:-1 21:-0.688142 22:-1 23:-1 24:-1 25:-1 26:-1 27:-1 28:-1 29:-1 30:-1 31:-1 32:-1 33:-0.867947 34:-1 35:-1 36:-1 37:-1 38:-1 39:-1 40:-1 41:-1 42:-1 43:-1 44:-1 45:-1 46:-1 47:-1 48:-1 49:-1 50:-0.982978 51:-1 52:-1 53:-1 54:-1 55:-0.999232 56:-0.999399 57:-0.995202 
2.090160366995642 1:-1 2:1 3:-1 4:-1 5:-1 6:-1 7:-1 8:-1 9:-1 10:-1 11:-1 12:-1 13:-1 14:-1 15:-1 16:-1 17:-1 18:-1 19:-1 20:-1 21:-1 22:-1 23:-1 24:-1 25:-1 26:-1 27:-1 28:-1 29:-1 30:-1 31:-1 32:-1 33:-1 34:-1 35:-1 36:-1 37:-1 38:-1 39:-1 40:-1 41:-1 42:-1 43:-1 44:-1 45:-1 46:-1 47:-1 48:-1 49:-1 50:-1 51:-1 52:-1 53:-1 54:-1 55:-0.998432 56:-0.999199 57:-0.99899 
1024 1:-1 2:-1 3:-1 4:-1 5:-1 6:-1 7:-1 8:-1 9:-1 10:-1 11:-1 12:-1 13:-1 14:-1 15:-1 16:-1 17:-1 18:-1 19:-1 20:-1 21:-1 22:-1 23:-1 24:-1 25:-1 26:-1 27:-1 28:-1 29:-1 30:-1 31:-1 32:-1 33:-1 34:-1 35:-1 36:-1 37:-1 38:-1 39:-1 40:-1 41:-1 42:-1 43:-1 44:-1 45:-1 46:-1 47:-1 48:-1 49:-1 50:-1 51:-1 52:-1 53:-1 54:-1 55:-0.993631 56:-0.998198 57:-0.99798 
1024 1:-1 2:-0.960784 3:-0.890196 4:-1 5:-0.810781 6:-1 7:-1 8:-1 9:-1 10:-0.969197 11:-0.785441 12:-1 13:-1 14:-1 15:-1 16:-1 17:-1 18:-1 19:-0.693867 20:-1 21:-0.678805 22:-1 23:-1 24:-1 25:-0.973116 26:-0.966387 27:-1 28:-1 29:-1 30:-1 31:-1 32:-1 33:-1 34:-1 35:-1 36:-1 37:-1 38:-1 39:-1 40:-1 41:-1 42:-1 43:-1 44:-1 45:-0.946779 46:-1 47:-1 48:-1 49:-1 50:-0.971903 51:-1 52:-1 53:-1 54:-1 55:-0.998138 56:-0.997197 57:-0.980429 
0.2403121522577905 1:-1 2:1 3:-1 4:-1 5:-1 6:-1 7:-1 8:-1 9:-1 10:-1 11:-1 12:-1 13:-1 14:-1 15:-1 16:-1 17:-1 18:-1 19:-1 20:-1 21:-1 22:-1 23:-1 24:-1 25:-1 26:-1 27:-1 28:-1 29:-1 30:-1 31:-1 32:-1 33:-1 34:-1 35:-1 36:-1 37:-1 38:-1 39:-1 40:-1 41:-1 42:-1 43:-1 44:-1 45:-1 46:-1 47:-1 48:-1 49:-1 50:-1 51:-1 52:-1 53:-1 54:-1 55:-0.998432 56:-0.999199 57:-0.99899 
1024 1:-0.625551 2:-0.880952 3:-1 4:-1 5:-0.625963 6:-1 7:-1 8:-1 9:-1 10:-0.906491 11:-1 12:-0.824199 13:-1 14:-1 15:-1 16:-1 17:-1 18:-1 19:-1 20:-1 21:-0.84127 22:-1 23:-1 24:-1 25:-1 26:-0.897959 27:-1 28:-1 29:-1 30:-1 31:-1 32:-1 33:-1 34:-1 35:-1 36:-1 37:-1 38:-1 39:-1 40:-1 41:-1 42:-1 43:-1 44:-1 45:-1 46:-1 47:-1 48:-1 49:-1 50:-0.943601 51:-1 52:-1 53:-1 54:-1 55:-0.998922 56:-0.999199 57:-0.996212 
1024 1:-1 2:-1 3:-0.666667 4:-1 5:-0.70077 6:-1 7:-1 8:-1 9:-1 10:-0.981298 11:-1 12:-0.929679 13:-0.938739 14:-1 15:-1 16:-1 17:-1 18:-1 19:-0.909333 20:-1 21:-1 22:-1 23:-1 24:-1 25:-1 26:-1 27:-1 28:-1 29:-1 30:-1 31:-1 32:-1 33:-1 34:-1 35:-1 36:-1 37:-1 38:-1 39:-1 40:-1 41:-1 42:-1 43:-1 44:-1 45:-1 46:-1 47:-1 48:-1 49:-0.984493 50:-1 51:-1 52:-1 53:-1 54:-1 55:-0.999833 56:-0.9996 57:-0.988889 
1024 1:-1 2:-1 3:-1 4:-1 5:-1 6:-1 7:-1 8:-1 9:-1 10:-0.784378 11:-1 12:-1 13:-1 14:-1 15:-1 16:-1 17:-1 18:-0.568757 19:-0.790933 20:-1 21:-1 22:-1 23:-1 24:-1 25:-1 26:-1 27:-1 28:-0.568757 29:-1 30:-1 31:-1 32:-1 33:-1 34:-1 35:-1 36:-1 37:-1 38:-1 39:-1 40:-1 41:-1 42:-1 43:-1 44:-1 45:-1 46:-1 47:-1 48:-1 49:-1 50:-0.923503 51:-1 52:-1 53:-1 54:-1 55:-0.99832 56:-0.997998 57:-0.996843 
436.9453909566979 1:-1 2:-1 3:-0.866667 4:-1 5:-0.925193 6:-1 7:-1 8:-1 9:-1 10:-1 11:-1 12:-0.716649 13:-0.506306 14:-1 15:-1 16:-1 17:-1 18:-0.925193 19:-0.707733 20:-1 21:-0.807656 22:-1 23:-1 24:-1 25:-1 26:-1 27:-1 28:-1 29:-1 30:-1 31:-1 32:-1 33:-1 34:-1 35:-1 36:-1 37:-1 38:-1 39:-1 40:-1 41:-1 42:-1 43:-1 44:-1 45:-1 46:-0.969161 47:-1 48:-1 49:-1 50:-0.95242 51:-1 52:-0.974998 53:-1 54:-1 55:-0.999167 56:-0.998999 57:-0.990404 
877.2477554308294 1:-1 2:-1 3:-1 4:-1 5:-0.768977 6:-1 7:-1 8:-1 9:-1 10:-1 11:-1 12:-1 13:-1 14:-1 15:-1 16:-1 17:-1 18:-1 19:-0.774933 20:-1 21:-0.475257 22:-1 23:-1 24:-1 25:-1 26:-1 27:-0.957996 28:-1 29:-1 30:-1 31:-1 32:-0.852941 33:-1 34:-0.852941 35:-1 36:-1 37:-1 38:-1 39:-1 40:-1 41:-1 42:-1 43:-1 44:-1 45:-1 46:-1 47:-1 48:-1 49:-1 50:-0.990361 51:-1 52:-1 53:-1 54:-0.987309 55:-0.997585 56:-0.997797 57:-0.979545 
1024 1:-1 2:-0.981793 3:-0.741176 4:-1 5:-1 6:-1 7:-1 8:-1 9:-1 10:-0.985699 11:-1 12:-0.973113 13:-1 14:-1 15:-1 16:-0.974 17:-1 18:-0.971397 19:-0.717333 20:-1 21:-0.927171 22:-1 23:-1 24:-1 25:-1 26:-1 27:-1 28:-1 29:-1 30:-1 31:-1 32:-1 33:-1 34:-1 35:-1 36:-1 37:-0.924528 38:-1 39:-1 40:-1 41:-1 42:-1 43:-1 44:-1 45:-0.975724 46:-1 47:-1 48:-1 49:-0.991334 50:-0.924733 51:-1 52:-0.988115 53:-1 54:-0.989739 55:-0.995841 56:-0.986183 57:-0.929545 
17.36638292763856 1:-0.118943 2:-1 3:-1 4:-1 5:-1 6:-1 7:-1 8:-1 9:-1 10:-1 11:0.532567 12:-0.58635 13:-1 14:-1 15:-1 16:-1 17:-1 18:-1 19:-0.786667 20:-1 21:0.493931 22:-1 23:-1 24:-1 25:-1 26:-1 27:-1 28:-1 29:-1 30:-1 31:-1 32:-1 33:-1 34:-1 35:-1 36:-1 37:-1 38:-1 39:-1 40:-1 41:-1 42:-1 43:-1 44:-1 45:-1 46:-1 47:-1 48:-1 49:-1 50:-1 51:-1 52:-1 53:-1 54:-1 55:-0.99042 56:-0.994393 57:-0.993434 
1006.224978455512 1:-1 2:-1 3:-1 4:-1 5:-1 6:-1 7:-1 8:-1 9:-1 10:-1 11:-1 12:-0.667011 13:-1 14:-1 15:-1 16:-1 17:-1 18:-1 19:-1 20:-1 21:-0.699346 22:-1 23:-1 24:-1 25:-1 26:-1 27:-1 28:-1 29:-1 30:-1 31:-1 32:-1 33:-1 34:-1 35:-1 36:-1 37:-0.532656 38:-1 39:-1 40:-1 41:-1 42:-1 43:-1 44:-1 45:-1 46:-1 47:-1 48:-1 49:-1 50:-0.945447 51:-1 52:-0.967178 53:-1 54:-1 55:-0.993141 56:-0.993993 57:-0.992172 
537.7853167105214 1:-1 2:-1 3:-1 4:-1 5:-0.405941 6:-1 7:-1 8:-1 9:-1 10:-1 11:-1 12:-1 13:-1 14:-1 15:-1 16:-1 17:-1 18:-1 19:-1 20:-0.70297 21:-1 22:-1 23:-1 24:-1 25:-1 26:-1 27:-1 28:-1 29:-1 30:-1 31:-1 32:-1 33:-1 34:-1 35:-1 36:-1 37:-1 38:-1 39:-1 40:-1 41:-1 42:-1 43:-1 44:-0.73 45:-1 46:-1 47:-1 48:-1 49:-1 50:-1 51:-1 52:-1 53:-1 54:-1 55:-0.999216 56:-0.999199 57:-0.998359 
1024 1:-1 2:-1 3:-0.843137 4:-1 5:-1 6:-1 7:-1 8:-1 9:-1 10:-1 11:-1 12:-1 13:-1 14:-1 15:-1 16:-1 17:-1 18:-1 19:-0.914667 20:-1 21:-1 22:-1 23:-1 24:-0.917949 25:-1 26:-1 27:-1 28:-1 29:-1 30:-1 31:-1 32:-1 33:-1 34:-1 35:-1 36:-1 37:-1 38:-1 39:-1 40:-1 41:-1 42:-1 43:-1 44:-1 45:-0.962652 46:-0.963719 47:-1 48:-1 49:-1 50:-1 51:-0.928939 52:-1 53:-1 54:-1 55:-0.999271 56:-0.999199 57:-0.991288 
1024 1:-1 2:-1 3:-0.643137 4:-1 5:-1 6:-0.846939 7:-1 8:-1 9:-1 10:-1 11:-1 12:-0.906929 13:-1 14:-1 15:-1 16:-1 17:-1 18:-0.90099 19:-0.7568 20:-1 21:-0.746032 22:-1 23:-1 24:-1 25:-0.956793 26:-1 27:-1 28:-1 29:-1 30:-1 31:-1 32:-1 33:-1 34:-1 35:-1 36:-1 37:-1 38:-1 39:-1 40:-1 41:-1 42:-1 43:-1 44:-1 45:-1 46:-1 47:-1 48:-1 49:-1 50:-0.914684 51:-1 52:-0.970072 53:-1 54:-1 55:-0.994548 56:-0.993993 57:-0.989141 
1024 1:-0.709251 2:-0.907563 3:-0.741176 4:-1 5:-1 6:-1 7:-1 8:-1 9:-1 10:-0.853685 11:-1 12:-1 13:-1 14:-1 15:-1 16:-0.934 17:-1 18:-1 19:-0.6448 20:-1 21:-0.503268 22:-1 23:-1 24:-1 25:-1 26:-1 27:-1 28:-1 29:-1 30:-1 31:-1 32:-1 33:-1 34:-1 35:-1 36:-1 37:-1 38:-1 39:-1 40:-1 41:-1 42:-1 43:-1 44:-1 45:-1 46:-1 47:-1 48:-1 49:-1 50:-1 51:-1 52:-0.992795 53:-1 54:-1 55:-0.997086 56:-0.996796 57:-0.987879 
1024 1:-0.837004 2:-1 3:-0.752941 4:-1 5:-0.944994 6:-0.959184 7:-1 8:-1 9:-1 10:-1 11:-1 12:-0.975181 13:-0.956757 14:-1 15:-1 16:-1 17:-1 18:-0.973597 19:-0.838933 20:-1 21:-0.953315 22:-1 23:-1 24:-1 25:-1 26:-1 27:-1 28:-1 29:-0.983193 30:-1 31:-1 32:-1 33:-1 34:-1 35:-1 36:-1 37:-1 38:-1 39:-1 40:-1 41:-1 42:-1 43:-1 44:-1 45:-0.965453 46:-1 47:-1 48:-1 49:-1 50:-0.978056 51:-1 52:-0.988115 53:-1 54:-1 55:-0.999645 56:-0.999399 57:-0.986995 
1024 1:-0.444934 2:-1 3:-1 4:-1 5:-1 6:-1 7:-1 8:-1 9:-1 10:-1 11:-1 12:-1 13:-1 14:-1 15:-1 16:-1 17:-1 18:-1 19:-0.8656 20:-1 21:-0.764706 22:-1 23:-1 24:-1 25:-1 26:-1 27:-1 28:-1 29:-1 30:-1 31:-1 32:-1 33:-1 34:-1 35:-1 36:-1 37:-1 38:-1 39:-1 40:-1 41:-1 42:-1 43:-1 44:-1 45:-1 46:-1 47:-1 48:-1 49:-1 50:-1 51:-1 52:-0.989039 53:-1 54:-1 55:-0.999467 56:-0.9996 57:-0.998359 
1024 1:-1 2:-1 3:-0.921569 4:-1 5:-0.867987 6:-0.931973 7:-1 8:-1 9:-0.961977 10:-1 11:-1 12:-0.896587 13:-1 14:-1 15:-1 16:-1 17:-0.971989 18:-1 19:-0.978667 20:-1 21:-1 22:-1 23:-1 24:-1 25:-1 26:-1 27:-1 28:-1 29:-1 30:-1 31:-1 32:-1 33:-1 34:-1 35:-1 36:-1 37:-0.970972 38:-1 39:-1 40:-1 41:-1 42:-1 43:-1 44:-1 45:-1 46:-1 47:-1 48:-1 49:-1 50:-0.989951 51:-1 52:-1 53:-1 54:-1 55:-0.999739 56:-0.998198 57:-0.966919 
7.755291547671096 1:-1 2:1 3:-1 4:-1 5:-1 6:-1 7:-1 8:-1 9:-1 10:-1 11:-1 12:-1 13:-1 14:-1 15:-1 16:-1 17:-1 18:-1 19:-1 20:-1 21:-1 22:-1 23:-1 24:-1 25:-1 26:-1 27:-1 28:-1 29:-1 30:-1 31:-1 32:-1 33:-1 34:-1 35:-1 36:-1 37:-1 38:-1 39:-1 40:-1 41:-1 42:-1 43:-1 44:-1 45:-1 46:-1 47:-1 48:-1 49:-1 50:-1 51:-1 52:-1 53:-1 54:-1 55:-0.998432 56:-0.999199 57:-0.99899 
1024 1:-1 2:-0.964986 3:-0.705882 4:-1 5:-0.779978 6:-0.914966 7:-1 8:-1 9:-1 10:-1 11:-0.808429 12:-0.948294 13:-0.54955 14:-1 15:-1 16:-0.975 17:-1 18:-0.724972 19:-0.732267 20:-1 21:-0.673203 22:-1 23:-0.908257 24:-1 25:-1 26:-1 27:-0.984998 28:-1 29:-1 30:-1 31:-1 32:-1 33:-1 34:-1 35:-1 36:-1 37:-1 38:-1 39:-1 40:-1 41:-1 42:-1 43:-1 44:-1 45:-1 46:-1 47:-1 48:-1 49:-1 50:-1 51:-1 52:-0.997414 53:-1 54:-1 55:-0.9996 56:-0.998799 57:-0.985227 
1024 1:-1 2:-1 3:-1 4:-1 5:-1 6:-0.897959 7:-1 8:-1 9:-1 10:-1 11:-0.770115 12:-0.499483 13:-1 14:-1 15:-1 16:-0.97 17:-1 18:-0.80198 19:-0.6128 20:-1 21:-0.887955 22:-1 23:-1 24:-1 25:-1 26:-1 27:-1 28:-1 29:-1 30:-1 31:-1 32:-1 33:-1 34:-1 35:-1 36:-1 37:-1 38:-1 39:-1 40:-1 41:-1 42:-1 43:-1 44:-1 45:-1 46:-1 47:-1 48:-1 49:-1 50:-1 51:-1 52:-0.994643 53:-1 54:-1 55:-0.99659 56:-0.987385 57:-0.981439 
1024 1:-1 2:-1 3:-0.854902 4:-1 5:-0.938394 6:-0.904762 7:-1 8:-1 9:-0.965779 10:-1 11:-1 12:-0.962771 13:-0.899099 14:-1 15:-1 16:-1 17:-1 18:-0.89879 19:-0.710933 20:-1 21:-0.826331 22:-1 23:-1 24:-1 25:-1 26:-1 27:-1 28:-1 29:-1 30:-1 31:-1 32:-1 33:-1 34:-1 35:-1 36:-1 37:-1 38:-1 39:-1 40:-1 41:-1 42:-1 43:-1 44:-1 45:-0.947712 46:-0.991837 47:-0.915094 48:-1 49:-1 50:-0.996514 51:-1 52:-1 53:-1 54:-1 55:-0.999953 56:-0.9996 57:-0.983965 
504.6794278857883 1:-1 2:-1 3:-1 4:-1 5:-1 6:-1 7:-1 8:-1 9:-1 10:-1 11:-1 12:-1 13:-1 14:-1 15:-1 16:-1 17:-1 18:-1 19:-1 20:-1 21:-1 22:-1 23:-1 24:-1 25:-1 26:-1 27:-1 28:-1 29:-1 30:-1 31:-1 32:-1 33:-1 34:-1 35:-1 36:-1 37:-1 38:-1 39:-1 40:-1 41:-1 42:-1 43:-1 44:-1 45:-1 46:-1 47:-1 48:-1 49:-1 50:-0.823216 51:-1 52:-0.946918 53:-1 54:-1 55:-1 56:-1 57:-0.999747 
1024 1:-1 2:-0.967787 3:-1 4:-1 5:-0.949395 6:-1 7:-1 8:-1 9:-1 10:-0.948295 11:-1 12:-0.95243 13:-1 14:-0.666 15:-1 16:-1 17:-1 18:-1 19:-0.873067 20:-1 21:-1 22:-1 23:-1 24:-1 25:-0.954873 26:-1 27:-0.986199 28:-1 29:-1 30:-1 31:-0.9632 32:-1 33:-1 34:-1 35:-0.977 36:-1 37:-1 38:-1 39:-1 40:-1 41:-1 42:-1 43:-1 44:-1 45:-1 46:-1 47:-1 48:-1 49:-1 50:-1 51:-1 52:-1 53:-0.94736 54:-1 55:-0.982291 56:-0.953144 57:-0.861995 
0.2339974145832974 1:-0.118943 2:-1 3:-1 4:-1 5:-1 6:-1 7:-1 8:-1 9:-1 10:-1 11:0.532567 12:-0.58635 13:-1 14:-1 15:-1 16:-1 17:-1 18:-1 19:-0.786667 20:-1 21:0.493931 22:-1 23:-1 24:-1 25:-1 26:-1 27:-1 28:-1 29:-1 30:-1 31:-1 32:-1 33:-1 34:-1 35:-1 36:-1 37:-1 38:-1 39:-1 40:-1 41:-1 42:-1 43:-1 44:-1 45:-1 46:-1 47:-1 48:-1 49:-1 50:-1 51:-1 52:-1 53:-1 54:-1 55:-0.99042 56:-0.994393 57:-0.993434 
1024 1:-1 2:-1 3:-1 4:-1 5:-1 6:-1 7:-1 8:-1 9:-1 10:-1 11:-1 12:-1 13:-0.592793 14:-1 15:-1 16:-1 17:-1 18:-1 19:-0.879467 20:-1 21:-1 22:-1 23:-1 24:-1 25:-1 26:-1 27:-1 28:-1 29:-1 30:-1 31:-1 32:-1 33:-1 34:-1 35:-1 36:-1 37:-1 38:-1 39:-1 40:-1 41:-1 42:-1 43:-1 44:-1 45:-0.894491 46:-1 47:-1 48:-1 49:-0.710832 50:-1 51:-0.896594 52:-1 53:-0.929702 54:-1 55:-0.99932 56:-0.999399 57:-0.996212 
1024 1:-1 2:-0.635854 3:-1 4:-1 5:-1 6:-1 7:-1 8:-1 9:-1 10:-1 11:-1 12:-1 13:-1 14:-1 15:-1 16:-1 17:-1 18:-1 19:-0.629867 20:-1 21:-0.676937 22:-1 23:-1 24:-1 25:-1 26:-1 27:-1 28:-1 29:-1 30:-1 31:-1 32:-1 33:-1 34:-1 35:-1 36:-1 37:-1 38:-1 39:-1 40:-1 41:-1 42:-1 43:-1 44:-1 45:-1 46:-1 47:-1 48:-1 49:-1 50:-0.968417 51:-1 52:-0.952399 53:-1 54:-1 55:-1 56:-1 57:-0.99798 
1024 1:-1 2:-1 3:-0.764706 4:-1 5:-1 6:-1 7:-1 8:-1 9:-1 10:-1 11:-1 12:-0.911065 13:-0.971171 14:-1 15:-1 16:-1 17:-1 18:-1 19:-0.677867 20:-1 21:-0.807656 22:-1 23:-1 24:-1 25:-1 26:-1 27:-1 28:-1 29:-1 30:-1 31:-1 32:-1 33:-1 34:-1 35:-1 36:-1 37:-1 38:-1 39:-0.98359 40:-1 41:-1 42:-1 43:-1 44:-1 45:-0.952381 46:-1 47:-1 48:-1 49:-1 50:-0.982978 51:-1 52:-0.993904 53:-1 54:-1 55:-0.999355 56:-0.996596 57:-0.973106 
1024 1:-1 2:-1 3:-1 4:-1 5:-1 6:-1 7:-1 8:-1 9:-1 10:-1 11:-1 12:-1 13:-1 14:-1 15:-1 16:-1 17:-1 18:-1 19:-0.832533 20:-1 21:-1 22:-1 23:-1 24:-1 25:-1 26:-1 27:-1 28:-1 29:-1 30:-1 31:-1 32:-1 33:-1 34:-1 35:-1 36:-0.672269 37:-1 38:-1 39:-1 40:-1 41:-1 42:-1 43:-1 44:-1 45:-1 46:-1 47:-1 48:-1 49:-1 50:-1 51:-1 52:-1 53:-1 54:-1 55:-1 56:-1 57:-0.998106 
1024 1:-1 2:-1 3:-1 4:-1 5:-1 6:-0.908163 7:-1 8:-1 9:-1 10:-0.970297 11:-1 12:-0.944157 13:-1 14:-1 15:-1 16:-0.973 17:-1 18:-1 19:-0.767467 20:-1 21:-0.490196 22:-1 23:-1 24:-1 25:-0.974076 26:-1 27:-1 28:-1 29:-1 30:-1 31:-0.9568 32:-1 33:-1 34:-1 35:-1 36:-1 37:-1 38:-1 39:-1 40:-1 41:-1 42:-1 43:-1 44:-1 45:-1 46:-1 47:-1 48:-1 49:-1 50:-1 51:-1 52:-1 53:-1 54:-1 55:-0.996878 56:-0.996596 57:-0.979167 
1024 1:-1 2:-1 3:-0.262745 4:-1 5:-0.793179 6:-1 7:-1 8:-1 9:-1 10:-1 11:-1 12:-1 13:-1 14:-1 15:-1 16:-1 17:-1 18:-1 19:-0.698133 20:-1 21:-1 22:-1 23:-1 24:-1 25:-1 26:-1 27:-1 28:-1 29:-1 30:-1 31:-1 32:-1 33:-1 34:-1 35:-1 36:-1 37:-1 38:-1 39:-1 40:-1 41:-1 42:-1 43:-1 44:-1 45:-0.912232 46:-1 47:-1 48:-1 49:-1 50:-1 51:-1 52:-0.953445 53:-1 54:-1 55:-1 56:-1 57:-0.997348 
1024 1:-1 2:-1 3:-0.360784 4:-1 5:-1 6:-1 7:-1 8:-1 9:-1 10:-1 11:-1 12:-0.662875 13:-1 14:-1 15:-1 16:-0.837 17:-1 18:-1 19:-0.826133 20:-1 21:-0.695612 22:-1 23:-1 24:-1 25:-1 26:-1 27:-1 28:-1 29:-1 30:-1 31:-1 32:-1 33:-1 34:-1 35:-1 36:-1 37:-1 38:-1 39:-1 40:-1 41:-1 42:-1 43:-1 44:-1 45:-1 46:-1 47:-1 48:-1 49:-1 50:-1 51:-1 52:-1 53:-1 54:-1 55:-0.999645 56:-0.9996 57:-0.998485 
95.08011084122772 1:-1 2:-1 3:-1 4:-1 5:-1 6:-1 7:-1 8:-1 9:-1 10:-1 11:-1 12:-1 13:-1 14:-1 15:-1 16:-1 17:-1 18:-1 19:-1 20:-1 21:-1 22:-1 23:-1 24:-1 25:-0.669707 26:-0.587035 27:-1 28:-1 29:-1 30:-1 31:-1 32:-1 33:-1 34:-1 35:-1 36:-1 37:1 38:-1 39:-1 40:-1 41:-1 42:-1 43:-1 44:-1 45:-0.678805 46:-1 47:-1 48:-1 49:-1 50:-1 51:-1 52:-1 53:-1 54:-1 55:-0.996437 56:-0.998598 57:-0.996212 
1024 1:-1 2:-1 3:-1 4:-1 5:-1 6:-1 7:-1 8:-1 9:-1 10:-1 11:-1 12:-0.931748 13:-1 14:-1 15:-1 16:-1 17:-1 18:-1 19:-0.5424 20:-1 21:-0.507003 22:-1 23:-1 24:-1 25:-1 26:-1 27:-1 28:-1 29:-1 30:-1 31:-1 32:-1 33:-1 34:-1 35:-1 36:-1 37:-1 38:-1 39:-1 40:-1 41:-1 42:-1 43:-1 44:-1 45:-0.938375 46:-1 47:-1 48:-1 49:-1 50:-0.988105 51:-1 52:-1 53:-1 54:-1 55:-0.9997 56:-0.9996 57:-0.998232 
1024 1:-1 2:-1 3:-0.917647 4:-1 5:-1 6:-0.928571 7:-1 8:-1 9:-1 10:-0.976898 11:-0.83908 12:-0.735264 13:-1 14:-1 15:-1 16:-1 17:-0.941176 18:-1 19:-0.863467 20:-1 21:-0.880486 22:-1 23:-1 24:-1 25:-1 26:-1 27:-1 28:-1 29:-1 30:-1 31:-1 32:-1 33:-1 34:-1 35:-1 36:-1 37:-0.814224 38:-1 39:-1 40:-1 41:-1 42:-1 43:-1 44:-1 45:-1 46:-1 47:-1 48:-0.872 49:-1 50:-1 51:-1 52:-1 53:-0.967683 54:-1 55:-0.997156 56:-0.989187 57:-0.967929 
1024 1:-1 2:-1 3:-1 4:-1 5:-0.79758 6:-1 7:-1 8:-1 9:-1 10:-1 11:-1 12:-0.809721 13:-1 14:-1 15:-1 16:-1 17:-1 18:-1 19:-0.901867 20:-1 21:-0.828198 22:-1 23:-1 24:-1 25:-1 26:-1 27:-1 28:-1 29:-1 30:-1 31:-1 32:-1 33:-1 34:-1 35:-1 36:-1 37:-1 38:-1 39:-1 40:-1 41:-1 42:-1 43:-1 44:-1 45:-1 46:-1 47:-1 48:-1 49:-1 50:-1 51:-1 52:-1 53:-1 54:-1 55:-0.99902 56:-0.998799 57:-0.99596 
1024 1:-1 2:-0.887955 3:-1 4:-1 5:-0.867987 6:-1 7:-1 8:-0.933993 9:-1 10:-0.977998 11:-1 12:-1 13:-1 14:-1 15:-1 16:-0.82 17:-1 18:-0.515952 19:-0.808 20:-1 21:-0.475257 22:-1 23:-1 24:-1 25:-1 26:-1 27:-1 28:-1 29:-1 30:-1 31:-1 32:-1 33:-1 34:-1 35:-1 36:-1 37:-1 38:-1 39:-1 40:-1 41:-0.943978 42:-1 43:-1 44:-1 45:-0.981326 46:-0.981859 47:-1 48:-1 49:-1 50:-1 51:-1 52:-0.996305 53:-1 54:-1 55:-0.996962 56:-0.99159 57:-0.971465 
1024 1:-1 2:-1 3:-0.937255 4:-1 5:-0.859186 6:-1 7:-1 8:-0.947195 9:-1 10:-1 11:-1 12:-0.604964 13:-1 14:-1 15:-1 16:-0.984 17:-1 18:-1 19:-0.675733 20:-1 21:-0.671335 22:-1 23:-1 24:-1 25:-1 26:-0.961585 27:-0.980798 28:-1 29:-1 30:-1 31:-0.9744 32:-1 33:-1 34:-1 35:-1 36:-0.932773 37:-1 38:-1 39:-1 40:-0.932773 41:-1 42:-1 43:-1 44:-1 45:-0.970121 46:-1 47:-1 48:-1 49:-1 50:-0.98872 51:-1 52:-1 53:-0.981676 54:-1 55:-0.998436 56:-0.998799 57:-0.975379 
1024 1:-1 2:-1 3:-1 4:-1 5:0.10011 6:-1 7:-1 8:-1 9:-1 10:-1 11:-1 12:-1 13:-1 14:-1 15:-1 16:-1 17:-1 18:-1 19:-1 20:-1 21:-1 22:-1 23:-1 24:-1 25:-1 26:-1 27:-1 28:-1 29:-1 30:-1 31:-1 32:-1 33:-1 34:-1 35:-1 36:-1 37:-1 38:-1 39:-1 40:-1 41:-1 42:-1 43:-1 44:-1 45:-1 46:-1 47:-1 48:-1 49:-1 50:-1 51:-1 52:-1 53:-1 54:-1 55:-0.9951 56:-0.998398 57:-0.997475 
1024 1:-1 2:-1 3:-1 4:-0.985517 5:-0.793179 6:-1 7:-1 8:-0.89769 9:-1 10:-0.930693 11:-1 12:-0.7394 13:-1 14:-1 15:-1 16:-1 17:-1 18:-1 19:-0.899733 20:-1 21:-0.764706 22:-1 23:-1 24:-1 25:-1 26:-1 27:-1 28:-0.861386 29:-1 30:-1 31:-1 32:-1 33:-1 34:-1 35:-1 36:-0.869748 37:-1 38:-1 39:-1 40:-1 41:-1 42:-1 43:-1 44:-1 45:-1 46:-1 47:-1 48:-1 49:-1 50:-0.992412 51:-1 52:-0.995443 53:-1 54:-1 55:-0.994309 56:-0.992391 57:-0.969066 
1024 1:-1 2:-1 3:-1 4:-1 5:-1 6:-1 7:-1 8:-1 9:-0.714829 10:-1 11:-1 12:-1 13:-1 14:-1 15:-1 16:-1 17:-1 18:-1 19:-0.838933 20:-1 21:-1 22:-1 23:-1 24:-1 25:-1 26:-1 27:-1 28:-1 29:-1 30:-1 31:-1 32:-1 33:-1 34:-1 35:-1 36:-1 37:-1 38:-1 39:-1 40:-1 41:-1 42:-1 43:-1 44:-1 45:-0.929972 46:-1 47:-1 48:-1 49:-1 50:-0.947703 51:-1 52:-1 53:-1 54:-1 55:-0.99835 56:-0.998999 57:-0.995707 
1024 1:-1 2:-1 3:-0.87451 4:-1 5:-1 6:-0.945578 7:-1 8:-1 9:-1 10:-1 11:-1 12:-0.867632 13:-1 14:-1 15:-1 16:-1 17:-0.865546 18:-1 19:-0.8976 20:-1 21:-0.820728 22:-1 23:-1 24:-1 25:-0.953913 26:-1 27:-1 28:-1 29:-1 30:-1 31:-1 32:-1 33:-1 34:-1 35:-1 36:-0.932773 37:-1 38:-1 39:-1 40:-1 41:-1 42:-1 43:-1 44:-1 45:-1 46:-1 47:-1 48:-1 49:-0.990422 50:-0.978466 51:-1 52:-0.998707 53:-0.97901 54:-0.982989 55:-0.994534 56:-0.992391 57:-0.945581 
213.8992733854673 1:-1 2:-1 3:-0.913725 4:-1 5:-1 6:-1 7:-1 8:-1 9:-1 10:-1 11:-1 12:-0.954498 13:-1 14:-1 15:-1 16:-1 17:-1 18:-1 19:-0.8816 20:-1 21:-0.958917 22:-0.167251 23:-1 24:-1 25:-1 26:-1 27:-1 28:-1 29:-1 30:-1 31:-1 32:-1 33:-1 34:-1 35:-1 36:-1 37:-1 38:-1 39:-0.954872 40:-1 41:-1 42:-1 43:-1 44:-1 45:-1 46:-1 47:-1 48:-1 49:0.425314 50:-1 51:-1 52:-0.985221 53:-1 54:-0.924396 55:-0.991383 56:-0.99159 57:-0.943561 
1024 1:-1 2:-1 3:-1 4:-1 5:-1 6:-1 7:-1 8:-1 9:-1 10:-1 11:-1 12:-1 13:-1 14:-1 15:-1 16:-1 17:-1 18:-1 19:-0.7376 20:-1 21:-1 22:-1 23:-1 24:-1 25:-1 26:-1 27:-1 28:-1 29:-1 30:-1 31:-1 32:-1 33:-1 34:-1 35:-1 36:-1 37:-0.822932 38:-1 39:-1 40:-1 41:-1 42:-1 43:-1 44:-1 45:-0.943044 46:-1 47:-1 48:-1 49:-1 50:-0.9758 51:-1 52:-1 53:-0.960686 54:-1 55:-0.998844 56:-0.999199 57:-0.995707 
1024 1:-1 2:-1 3:-1 4:-1 5:-1 6:-1 7:-1 8:-1 9:-1 10:-0.724972 11:-1 12:-1 13:-1 14:-1 15:-1 16:-1 17:-1 18:-1 19:-0.733333 20:-1 21:-0.533147 22:-1 23:-1 24:-1 25:-1 26:-1 27:-1 28:-1 29:-1 30:-1 31:-1 32:-1 33:-1 34:-1 35:-1 36:-1 37:-1 38:-1 39:-1 40:-1 41:-1 42:-1 43:-1 44:-1 45:-1 46:-1 47:-1 48:-1 49:-1 50:-1 51:-1 52:-1 53:-1 54:-1 55:-0.999185 56:-0.9996 57:-0.99798 
1024 1:-1 2:-0.952381 3:-1 4:-1 5:-0.850385 6:-1 7:-0.81293 8:-1 9:-1 10:-0.962596 11:-0.739464 12:-1 13:-1 14:-1 15:-1 16:-0.966 17:-1 18:-0.70077 19:-0.6352 20:-1 21:-0.490196 22:-1 23:-1 24:-1 25:-1 26:-1 27:-1 28:-1 29:-1 30:-1 31:-1 32:-1 33:-0.918367 34:-1 35:-1 36:-1 37:-1 38:-1 39:-1 40:-1 41:-1 42:-1 43:-1 44:-1 45:-1 46:-0.969161 47:-1 48:-1 49:-1 50:-1 51:-1 52:-0.997044 53:-0.984008 54:-1 55:-0.999206 56:-0.997197 57:-0.987879 
100.636601292212 1:-0.118943 2:-1 3:-1 4:-1 5:-1 6:-1 7:-1 8:-1 9:-1 10:-1 11:0.532567 12:-0.58635 13:-1 14:-1 15:-1 16:-1 17:-1 18:-1 19:-0.786667 20:-1 21:0.493931 22:-1 23:-1 24:-1 25:-1 26:-1 27:-1 28:-1 29:-1 30:-1 31:-1 32:-1 33:-1 34:-1 35:-1 36:-1 37:-1 38:-1 39:-1 40:-1 41:-1 42:-1 43:-1 44:-1 45:-1 46:-1 47:-1 48:-1 49:-1 50:-1 51:-1 52:-1 53:-1 54:-1 55:-0.99042 56:-0.994393 57:-0.993434 
97.79687967874619 1:-1 2:-1 3:-1 4:-1 5:-1 6:-1 7:-1 8:-1 9:-1 10:-1 11:-1 12:-1 13:-1 14:-1 15:-1 16:-1 17:-1 18:-1 19:-0.111467 20:-1 21:-1 22:-1 23:-1 24:-1 25:-1 26:-1 27:-1 28:-1 29:-1 30:-1 31:-1 32:-1 33:-1 34:-1 35:-1 36:-1 37:-1 38:-1 39:-1 40:-1 41:-1 42:-1 43:-1 44:-1 45:-1 46:-1 47:-1 48:-1 49:-1 50:-1 51:-1 52:-1 53:-1 54:-1 55:-1 56:-1 57:-0.999116 
614.6148450395605 1:-1 2:-1 3:-0.109804 4:-1 5:-1 6:-1 7:-1 8:-1 9:-1 10:-1 11:-1 12:-0.530507 13:-1 14:-1 15:-1 16:-0.887 17:-1 18:-0.751375 19:-0.757867 20:-1 21:-1 22:-1 23:-1 24:-1 25:-1 26:-1 27:-1 28:-1 29:-1 30:-1 31:-1 32:-1 33:-1 34:-1 35:-1 36:-1 37:-1 38:-1 39:-1 40:-1 41:-1 42:-1 43:-1 44:-1 45:-1 46:-0.897506 47:-1 48:-1 49:-1 50:-0.970673 51:-1 52:-1 53:-1 54:-1 55:-0.98479 56:-0.984782 57:-0.976894 
1024 1:-1 2:-1 3:-1 4:-1 5:-1 6:-1 7:-1 8:-1 9:-1 10:-1 11:-1 12:-1 13:-1 14:-1 15:-1 16:-1 17:-1 18:-1 19:-1 20:-1 21:-1 22:-1 23:-1 24:-1 25:-1 26:-1 27:-1 28:-1 29:-1 30:-1 31:-1 32:-1 33:-1 34:-1 35:-1 36:-1 37:-1 38:-1 39:-1 40:-1 41:-1 42:-1 43:-1 44:-1 45:-1 46:-1 47:-1 48:-1 49:-1 50:-1 51:-1 52:-1 53:-1 54:-1 55:-0.99706 56:-0.999399 57:-0.999495 
1024 1:-1 2:-1 3:-1 4:-1 5:-1 6:-1 7:-1 8:-1 9:-1 10:-1 11:-1 12:-1 13:-1 14:-0.84 15:-1 16:-1 17:-1 18:-1 19:-0.402667 20:-1 21:-0.253035 22:-1 23:-1 24:-0.671795 25:-1 26:-1 27:-1 28:-1 29:-1 30:-1 31:-1 32:-1 33:-1 34:-1 35:-1 36:-1 37:-1 38:-1 39:-1 40:-1 41:-1 42:-1 43:-1 44:-1 45:-1 46:-1 47:-1 48:-1 49:-0.944356 50:-0.949959 51:-1 52:-1 53:-1 54:-1 55:-0.998219 56:-0.998999 57:-0.997475 
1024 1:-1 2:-1 3:-1 4:-1 5:-1 6:-1 7:-1 8:-1 9:-1 10:-1 11:-1 12:-1 13:-1 14:-1 15:-1 16:-1 17:-1 18:-1 19:-0.925333 20:-1 21:-1 22:-1 23:-1 24:-1 25:-1 26:-1 27:-1 28:-1 29:-1 30:-1 31:-1 32:-1 33:-1 34:-1 35:-1 36:-1 37:-1 38:-1 39:-1 40:-1 41:-1 42:-1 43:-1 44:-1 45:-1 46:-1 47:-1 48:-1 49:-1 50:-0.960829 51:-1 52:-1 53:-0.968349 54:-0.974349 55:-0.998652 56:-0.997998 57:-0.987121 
1024 1:-0.991189 2:-1 3:-0.941176 4:-1 5:-0.947195 6:-0.894558 7:-1 8:-0.986799 9:-0.91635 10:-1 11:-0.984674 12:-0.983454 13:-1 14:-1 15:-0.99093 16:-1 17:-1 18:-0.9956 19:-0.991467 20:-1 21:-0.988796 22:-1 23:-1 24:-1 25:-0.957753 26:-0.943577 27:-0.9988 28:-1 29:-1 30:-1 31:-1 32:-1 33:-0.973589 34:-1 35:-1 36:-1 37:-1 38:-0.995198 39:-1 40:-1 41:-1 42:-0.997199 43:-1 44:-1 45:-1 46:-1 47:-1 48:-1 49:-0.915621 50:-0.969237 51:-0.978437 52:-1 53:-0.998001 54:-1 55:-0.996398 56:-0.989788 57:-0.737753 
1024 1:-1 2:-1 3:-0.537255 4:-1 5:-0.964796 6:-1 7:-1 8:-1 9:-1 10:-0.982398 11:-1 12:-0.966908 13:-0.942342 14:-1 15:-1 16:-1 17:-0.955182 18:-1 19:-0.6928 20:-1 21:-0.906629 22:-1 23:-1 24:-1 25:-1 26:-1 27:-1 28:-1 29:-1 30:-1 31:-1 32:-1 33:-1 34:-1 35:-1 36:-1 37:-1 38:-1 39:-1 40:-1 41:-1 42:-1 43:-1 44:-1 45:-0.969188 46:-1 47:-1 48:-1 49:-0.985861 50:-0.923298 51:-1 52:-0.965454 53:-1 54:-1 55:-0.999095 56:-0.998198 57:-0.982955 
1024 1:-1 2:-1 3:-0.643137 4:-1 5:-1 6:-1 7:-1 8:-1 9:-1 10:-1 11:-1 12:-0.811789 13:-0.672072 14:-1 15:-1 16:-1 17:-1 18:-1 19:-0.413333 20:-1 21:-0.830065 22:-1 23:-1 24:-0.624615 25:-1 26:-1 27:-1 28:-1 29:-1 30:-1 31:-1 32:-1 33:-1 34:-1 35:-1 36:-1 37:-1 38:-1 39:-1 40:-1 41:-1 42:-1 43:-1 44:-1 45:-0.915033 46:-0.91746 47:-1 48:-1 49:-1 50:-1 51:-1 52:-0.991995 53:-1 54:-1 55:-0.997145 56:-0.990789 57:-0.989268 
87.92210351611122 1:-1 2:-1 3:-0.368627 4:-1 5:-1 6:-1 7:-1 8:-1 9:-0.387833 10:-1 11:-1 12:-1 13:-1 14:-1 15:-1 16:-1 17:-1 18:-1 19:-0.4848 20:-1 21:-1 22:-1 23:-1 24:-1 25:-1 26:-1 27:-1 28:-1 29:-1 30:0.352941 31:-1 32:-1 33:-1 34:-1 35:-1 36:-1 37:-1 38:-1 39:-1 40:-1 41:-1 42:-1 43:-1 44:-1 45:-1 46:-1 47:-1 48:-1 49:-1 50:-1 51:-1 52:-1 53:-1 54:-1 55:-0.998493 56:-0.998598 57:-0.997222 
1024 1:-0.907489 2:-1 3:-0.917647 4:-0.990189 5:-0.861386 6:-1 7:-1 8:-1 9:-1 10:-1 11:-0.678161 12:-1 13:-0.924324 14:-1 15:-1 16:-0.916 17:-1 18:-0.907591 19:-0.797333 20:-1 21:-1 22:-1 23:-0.922936 24:-1 25:-1 26:-1 27:-1 28:-1 29:-1 30:-1 31:-1 32:-1 33:-1 34:-1 35:-1 36:-1 37:-0.939042 38:-1 39:-1 40:-1 41:-1 42:-1 43:-1 44:-1 45:-1 46:-1 47:-1 48:-1 49:-1 50:-0.993642 51:-1 52:-0.976969 53:-0.979344 54:-1 55:-0.996292 56:-0.985983 57:-0.94899 
1024 1:-1 2:-1 3:-1 4:-1 5:-1 6:-1 7:-1 8:-1 9:-1 10:-1 11:-1 12:-1 13:-1 14:-1 15:-1 16:-1 17:-1 18:-1 19:-0.714133 20:-1 21:-0.749767 22:-1 23:-1 24:-1 25:-1 26:-1 27:-1 28:-1 29:-1 30:-1 31:-1 32:-1 33:-1 34:-1 35:-1 36:-1 37:-1 38:-1 39:-1 40:-1 41:-1 42:-1 43:-1 44:-1 45:-0.937442 46:-1 47:-1 48:-1 49:-1 50:-1 51:-1 52:-0.970996 53:-1 54:-1 55:-0.999935 56:-0.9998 57:-0.996212 
1024 1:-1 2:-1 3:-1 4:-1 5:-1 6:-1 7:-1 8:-1 9:-1 10:-1 11:-1 12:-1 13:-1 14:-1 15:-1 16:-1 17:-1 18:-1 19:-1 20:-1 21:-1 22:-1 23:-1 24:-1 25:-1 26:-1 27:-1 28:-1 29:-1 30:-1 31:-1 32:-1 33:-1 34:-1 35:-1 36:-1 37:-1 38:-1 39:-1 40:-1 41:-1 42:-1 43:-1 44:-1 45:-1 46:-1 47:-1 48:-1 49:-0.989966 50:-0.995488 51:-0.990689 52:-0.998645 53:-0.99267 54:-0.99406 55:-0.995136 56:-0.999199 57:-0.254924 
1024 1:-1 2:-1 3:-1 4:-1 5:-1 6:-1 7:-1 8:-1 9:-1 10:-1 11:-1 12:-1 13:-1 14:-1 15:-1 16:-1 17:-1 18:-1 19:-0.556267 20:-1 21:-1 22:-1 23:-1 24:-1 25:-1 26:-1 27:-1 28:-1 29:-1 30:-1 31:-1 32:-1 33:-1 34:-1 35:-1 36:-1 37:-1 38:-1 39:-1 40:-1 41:-1 42:-1 43:-1 44:-1 45:-1 46:-1 47:-1 48:-1 49:-1 50:-1 51:-1 52:-0.954431 53:-1 54:-1 55:-0.998775 56:-0.998999 57:-0.998485 
1024 1:-1 2:-1 3:-1 4:-1 5:-1 6:-1 7:-1 8:-1 9:-1 10:-1 11:-1 12:-1 13:-1 14:-1 15:-1 16:-0.697 17:-1 18:-0.333333 19:-0.6768 20:-1 21:-0.434174 22:-1 23:-1 24:-1 25:-1 26:-1 27:-1 28:-1 29:-1 30:-1 31:-1 32:-1 33:-1 34:-1 35:-1 36:-1 37:-1 38:-1 39:-1 40:-1 41:-1 42:-1 43:-1 44:-1 45:-1 46:-1 47:-1 48:-1 49:-1 50:-1 51:-1 52:-1 53:-1 54:-1 55:-0.991861 56:-0.989187 57:-0.991667 
1024 1:-1 2:-0.955182 3:-0.87451 4:-1 5:-0.964796 6:-0.945578 7:-1 8:-1 9:-0.939163 10:-0.964796 11:-1 12:-1 13:-1 14:-1 15:-0.854875 16:-1 17:-0.910364 18:-0.929593 19:-0.914667 20:-0.964796 21:-0.611578 22:-1 23:-1 24:-0.967179 25:-1 26:-1 27:-0.990399 28:-0.859186 29:-1 30:-1 31:-1 32:-1 33:-1 34:-1 35:-1 36:-1 37:-1 38:-1 39:-1 40:-1 41:-1 42:-1 43:-1 44:-0.984 45:-1 46:-1 47:-1 48:-1 49:-1 50:-0.731542 51:-1 52:-0.998645 53:-0.874396 54:-1 55:-0.994281 56:-0.968763 57:-0.902652 
1024 1:-1 2:-1 3:-1 4:-1 5:-1 6:-1 7:-1 8:-1 9:-1 10:-1 11:-1 12:-1 13:-1 14:-1 15:-1 16:-1 17:-1 18:-1 19:0.185067 20:-1 21:-1 22:-1 23:-1 24:-1 25:-1 26:-1 27:-1 28:-1 29:-1 30:-1 31:-1 32:-1 33:-1 34:-1 35:-1 36:-1 37:-1 38:-1 39:-1 40:-1 41:-1 42:-1 43:-1 44:-1 45:-1 46:-1 47:-1 48:-1 49:-1 50:-1 51:-1 52:-1 53:-1 54:-1 55:-0.99951 56:-0.9998 57:-0.999495 
1024 1:-1 2:-0.964986 3:-1 4:-1 5:-1 6:-1 7:-1 8:-1 9:-1 10:-0.943894 11:-0.409962 12:-0.948294 13:-1 14:-1 15:-1 16:-1 17:-1 18:-1 19:-0.8912 20:-1 21:-0.904762 22:-1 23:-1 24:-1 25:-0.975996 26:-0.938776 27:-1 28:-1 29:-1 30:-1 31:-1 32:-1 33:-1 34:-1 35:-1 36:-1 37:-1 38:-1 39:-1 40:-1 41:-1 42:-1 43:-1 44:-1 45:-1 46:-1 47:-1 48:-1 49:-1 50:-0.974569 51:-1 52:-0.987253 53:-1 54:-1 55:-0.98156 56:-0.931518 57:-0.919949 
1024 1:-0.964758 2:-1 3:-0.933333 4:-1 5:-1 6:-0.972789 7:-1 8:-1 9:-0.969582 10:-1 11:-1 12:-1 13:-0.971171 14:-1 15:-1 16:-1 17:-1 18:-0.982398 19:-0.553067 20:-1 21:-0.74043 22:-1 23:-1 24:-1 25:-1 26:-1 27:-1 28:-1 29:-1 30:-1 31:-1 32:-1 33:-1 34:-1 35:-1 36:-1 37:-1 38:-1 39:-1 40:-1 41:-1 42:-1 43:-1 44:-1 45:-0.975724 46:-1 47:-1 48:-1 49:-0.985861 50:-0.984003 51:-1 52:-0.995197 53:-1 54:-1 55:-0.999777 56:-0.998398 57:-0.965783 
1024 1:-1 2:-1 3:-0.898039 4:-1 5:-0.942794 6:-0.955782 7:-1 8:-1 9:-1 10:-1 11:-1 12:-0.892451 13:-1 14:-1 15:-1 16:-1 17:-0.890756 18:-1 19:-0.888 20:-1 21:-0.803922 22:-1 23:-1 24:-1 25:-0.962554 26:-1 27:-1 28:-1 29:-1 30:-1 31:-1 32:-1 33:-1 34:-1 35:-1 36:-0.945378 37:-1 38:-1 39:-1 40:-1 41:-1 42:-1 43:-1 44:-1 45:-1 46:-1 47:-1 48:-1 49:-0.992246 50:-0.981747 51:-0.991669 52:-0.997845 53:-0.982342 54:-0.985689 55:-0.99179 56:-0.978775 57:-0.913636 
818.5568479686142 1:-1 2:-1 3:-1 4:-1 5:-1 6:-1 7:-1 8:-1 9:-1 10:-1 11:-1 12:-0.826267 13:-1 14:-1 15:-1 16:-1 17:-1 18:-1 19:-0.4624 20:-1 21:-0.843137 22:-1 23:-1 24:-1 25:-1 26:-1 27:-1 28:-1 29:-1 30:-1 31:-1 32:-1 33:-1 34:-1 35:-1 36:-1 37:-1 38:-1 39:-1 40:-1 41:-1 42:-1 43:-1 44:-1 45:-0.921569 46:-1 47:-1 48:-1 49:-1 50:-0.970673 51:-1 52:-0.991194 53:-1 54:-1 55:-0.999275 56:-0.999399 57:-0.995455 
1024 1:-1 2:-1 3:-1 4:-1 5:-0.155116 6:-1 7:-1 8:-1 9:-1 10:-1 11:-1 12:-1 13:-1 14:-1 15:-1 16:-1 17:-1 18:-1 19:-0.5904 20:-1 21:-1 22:-1 23:-1 24:-1 25:-1 26:-1 27:-1 28:-1 29:-1 30:-1 31:-1 32:-1 33:-1 34:-1 35:-1 36:-1 37:-1 38:-1 39:-1 40:-1 41:-1 42:-1 43:-1 44:-1 45:-1 46:-1 47:-1 48:-1 49:-1 50:-1 51:-1 52:-1 53:-1 54:-1 55:-1 56:-1 57:-0.999242 
1024 1:-1 2:-1 3:-1 4:-1 5:-1 6:-1 7:-1 8:-1 9:-1 10:-1 11:-1 12:-1 13:-1 14:-1 15:-1 16:-1 17:-1 18:-1 19:-0.396267 20:-1 21:-0.648926 22:-1 23:-0.541284 24:-1 25:-1 26:-1 27:-1 28:-1 29:-1 30:-1 31:-1 32:-1 33:-1 34:-1 35:-1 36:-1 37:-1 38:-1 39:-1 40:-1 41:-1 42:-1 43:-1 44:-1 45:-1 46:-1 47:-1 48:-1 49:-1 50:-0.954881 51:-1 52:-1 53:-1 54:-1 55:-0.997746 56:-0.998598 57:-0.994697 
997.1842203452811 1:-1 2:-1 3:-0.415686 4:-1 5:-1 6:-0.87415 7:-1 8:-1 9:-1 10:-1 11:-1 12:-0.846949 13:-0.866667 14:-1 15:-1 16:-1 17:-1 18:-1 19:-0.761067 20:-1 21:-0.861811 22:-1 23:-1 24:-1 25:-1 26:-1 27:-1 28:-1 29:-1 30:-1 31:-1 32:-1 33:-1 34:-1 35:-1 36:-0.37395 37:-1 38:-0.911164 39:-1 40:-1 41:-1 42:-1 43:-1 44:-1 45:-1 46:-1 47:-1 48:-1 49:-1 50:-0.987695 51:-1 52:-1 53:-1 54:-1 55:-0.998452 56:-0.999199 57:-0.986111 
1024 1:-1 2:-1 3:-0.34902 4:-1 5:-1 6:-1 7:-1 8:-1 9:-1 10:-1 11:-1 12:-0.65667 13:-1 14:-1 15:-1 16:-1 17:-1 18:-0.817382 19:-0.733333 20:-1 21:-1 22:-1 23:-1 24:-1 25:-1 26:-1 27:-1 28:-1 29:-1 30:-1 31:-1 32:-1 33:-1 34:-1 35:-1 36:-1 37:-1 38:-1 39:-1 40:-1 41:-1 42:-1 43:-1 44:-1 45:-1 46:-1 47:-1 48:-1 49:-1 50:-1 51:-1 52:-0.990701 53:-1 54:-1 55:-0.998985 56:-0.998598 57:-0.994949 
1024 1:-1 2:-1 3:-1 4:-1 5:-1 6:-1 7:-1 8:-1 9:-1 10:-1 11:-1 12:-0.441572 13:-1 14:-1 15:-1 16:-1 17:-1 18:-1 19:-0.712 20:-1 21:-0.495798 22:-1 23:-1 24:-1 25:-1 26:-1 27:-1 28:-1 29:-1 30:-1 31:-1 32:-1 33:-1 34:-1 35:-1 36:-1 37:-1 38:-1 39:-1 40:-1 41:-1 42:-1 43:-1 44:-1 45:-1 46:-1 47:-1 48:-1 49:-1 50:-1 51:-1 52:-0.972658 53:-1 54:-1 55:-0.996472 56:-0.998799 57:-0.996591 
1024 1:-0.792952 2:-1 3:-0.756863 4:-1 5:-1 6:-1 7:-1 8:-1 9:-0.942966 10:-1 11:-1 12:-0.968976 13:-1 14:-1 15:-1 16:-1 17:-1 18:-1 19:-0.984 20:-0.983498 21:-1 22:-1 23:-0.944954 24:-1 25:-1 26:-1 27:-1 28:-1 29:-0.956583 30:-1 31:-1 32:-1 33:-1 34:-1 35:-1 36:-1 37:-1 38:-1 39:-1 40:-1 41:-1 42:-1 43:-1 44:-1 45:-1 46:-1 47:-1 48:-1 49:-1 50:-0.989336 51:-1 52:-0.993534 53:-0.97368 54:-0.99298 55:-0.998115 56:-0.997597 57:-0.980556 
742.8334480302731 1:-0.964758 2:-0.988796 3:-0.760784 4:-1 5:-1 6:-1 7:-1 8:-1 9:-1 10:-0.952695 11:-1 12:-1 13:-0.971171 14:-1 15:-1 16:-1 17:-1 18:-0.982398 19:-0.9072 20:-1 21:-0.985061 22:-1 23:-1 24:-1 25:-1 26:-1 27:-1 28:-1 29:-1 30:-1 31:-1 32:-1 33:-1 34:-1 35:-1 36:-1 37:-0.924528 38:-1 39:-1 40:-1 41:-1 42:-0.988796 43:-1 44:-1 45:-1 46:-0.929252 47:-1 48:-1 49:-0.987685 50:-0.957342 51:-0.993629 52:-0.998337 53:-1 54:-1 55:-0.992756 56:-0.97537 57:-0.834091 
1024 1:-1 2:-1 3:-0.87451 4:-1 5:-1 6:-1 7:-0.911967 8:-1 9:-0.878327 10:-1 11:-1 12:-0.865564 13:-1 14:-1 15:-1 16:-1 17:-1 18:-0.929593 19:-0.895467 20:-1 21:-0.50887 22:-1 23:-1 24:-1 25:-1 26:-1 27:-0.980798 28:-1 29:-1 30:-1 31:-1 32:-1 33:-1 34:-1 35:-0.902 36:-1 37:-1 38:-1 39:-1 40:-1 41:-1 42:-1 43:-1 44:-1 45:-1 46:-1 47:-1 48:-1 49:-1 50:-1 51:-1 52:-1 53:-1 54:-0.965438 55:-0.99092 56:-0.976572 57:-0.957449 
1024 1:-1 2:-1 3:-1 4:-1 5:-1 6:-1 7:-1 8:-1 9:-1 10:-1 11:-1 12:-1 13:-1 14:-1 15:-1 16:-1 17:-1 18:-1 19:-1 20:-1 21:-1 22:-1 23:-1 24:-1 25:-1 26:-1 27:-1 28:-1 29:-1 30:-1 31:-1 32:-1 33:-1 34:-1 35:-1 36:-1 37:-1 38:-1 39:-1 40:-1 41:-1 42:-1 43:-1 44:-1 45:-1 46:-1 47:-1 48:-1 49:-1 50:-1 51:-1 52:-1 53:-1 54:-1 55:-0.99706 56:-0.999399 57:-0.999495 
1024 1:-1 2:-1 3:-0.917647 4:-1 5:-1 6:-0.928571 7:-1 8:-1 9:-1 10:-1 11:-1 12:-1 13:-1 14:-1 15:-1 16:-1 17:-1 18:-1 19:-0.792 20:-1 21:-0.960784 22:-1 23:-1 24:-1 25:-1 26:-1 27:-1 28:-1 29:-1 30:-1 31:-1 32:-1 33:-1 34:-1 35:-1 36:-1 37:-1 38:-1 39:-1 40:-1 41:-1 42:-1 43:-1 44:-1 45:-1 46:-1 47:-1 48:-1 49:-0.940251 50:-0.96411 51:-1 52:-1 53:-1 54:-1 55:-1 56:-1 57:-0.99154 
1024 1:-1 2:-0.848739 3:-1 4:-1 5:-1 6:-1 7:-1 8:-1 9:-1 10:-0.881188 11:-1 12:-0.32575 13:-1 14:-1 15:-1 16:-1 17:-1 18:-1 19:-0.4208 20:-1 21:-1 22:-1 23:-1 24:-1 25:-1 26:-1 27:-1 28:-1 29:-1 30:-1 31:-1 32:-1 33:-1 34:-1 35:-1 36:-1 37:-1 38:-1 39:-1 40:-1 41:-1 42:-1 43:-1 44:-1 45:-0.89916 46:-1 47:-1 48:-1 49:-1 50:-1 51:-1 52:-0.989593 53:-1 54:-1 55:-0.997938 56:-0.995995 57:-0.995202 
1.058236345594245 1:-1 2:1 3:-1 4:-1 5:-1 6:-1 7:-1 8:-1 9:-1 10:-1 11:-1 12:-1 13:-1 14:-1 15:-1 16:-1 17:-1 18:-1 19:-1 20:-1 21:-1 22:-1 23:-1 24:-1 25:-1 26:-1 27:-1 28:-1 29:-1 30:-1 31:-1 32:-1 33:-1 34:-1 35:-1 36:-1 37:-1 38:-1 39:-1 40:-1 41:-1 42:-1 43:-1 44:-1 45:-1 46:-1 47:-1 48:-1 49:-1 50:-1 51:-1 52:-1 53:-1 54:-1 55:-0.998432 56:-0.999199 57:-0.99899 
1024 1:-1 2:-1 3:-1 4:-1 5:-0.850385 6:-1 7:-1 8:-1 9:-1 10:-1 11:-1 12:-0.929679 13:-1 14:-1 15:-1 16:-1 17:-1 18:-1 19:-0.963733 20:-1 21:-0.619048 22:-1 23:-1 24:-1 25:-1 26:-1 27:-1 28:-1 29:-1 30:-1 31:-1 32:-1 33:-1 34:-1 35:-1 36:-1 37:-1 38:-1 39:-1 40:-1 41:-1 42:-1 43:-0.809524 44:-1 45:-1 46:-1 47:-1 48:-1 49:-1 50:-0.989541 51:-1 52:-1 53:-1 54:-1 55:-0.999878 56:-0.999399 57:-0.982828 
1024 1:-1 2:-0.977591 3:-0.807843 4:-1 5:-1 6:-0.945578 7:-1 8:-1 9:-1 10:-0.946095 11:-1 12:-0.966908 13:-0.884685 14:-1 15:-1 16:-1 17:-1 18:-1 19:-0.861333 20:-1 21:-0.940243 22:-1 23:-1 24:-1 25:-1 26:-1 27:-1 28:-1 29:-1 30:-1 31:-1 32:-1 33:-1 34:-1 35:-1 36:-1 37:-0.953556 38:-1 39:-1 40:-1 41:-1 42:-1 43:-1 44:-1 45:-0.985061 46:-0.985488 47:-1 48:-1 49:-1 50:-0.975595 51:-1 52:-0.990825 53:-1 54:-1 55:-0.997691 56:-0.978775 57:-0.969318 
110.1358941928344 1:-1 2:-1 3:-1 4:-1 5:-1 6:-0.914966 7:-1 8:-0.669967 9:-1 10:-1 11:-1 12:-0.948294 13:-1 14:-1 15:-1 16:-1 17:-1 18:-0.944994 19:-1 20:-1 21:-1 22:-1 23:-1 24:-1 25:-0.927988 26:-0.969988 27:-1 28:-1 29:-1 30:-0.579832 31:-1 32:-1 33:-1 34:-1 35:-1 36:-0.894958 37:-0.637155 38:-1 39:-1 40:-1 41:-1 42:-1 43:-1 44:-1 45:-1 46:-0.954649 47:-1 48:-1 49:-1 50:-0.968622 51:-1 52:-1 53:-1 54:-1 55:-0.998122 56:-0.994994 57:-0.958586 
411.2341593372965 1:-1 2:-1 3:-1 4:-1 5:-1 6:-1 7:-1 8:-1 9:-1 10:-1 11:-1 12:-1 13:-1 14:-1 15:-1 16:-1 17:-1 18:-1 19:-1 20:-1 21:-1 22:-1 23:-1 24:0.864615 25:-1 26:-1 27:-1 28:-1 29:-1 30:-1 31:-1 32:-1 33:-1 34:-1 35:-1 36:-1 37:-1 38:-1 39:-1 40:-1 41:-1 42:-1 43:-1 44:-1 45:-1 46:-1 47:-1 48:-1 49:-1 50:-0.80845 51:-1 52:-1 53:-1 54:-1 55:-0.99608 56:-0.998398 57:-0.997854 
1024 1:-1 2:-1 3:-1 4:-1 5:-1 6:-1 7:-1 8:-1 9:-1 10:-1 11:-1 12:-1 13:-1 14:-1 15:-1 16:-1 17:-1 18:-1 19:-0.533867 20:-1 21:-0.88422 22:-1 23:-1 24:-1 25:-1 26:-1 27:-1 28:-1 29:-1 30:-1 31:-1 32:-1 33:-1 34:-1 35:-1 36:-1 37:-1 38:-1 39:-1 40:-1 41:-1 42:-1 43:-1 44:-1 45:-1 46:-1 47:-1 48:-1 49:-1 50:-1 51:-1 52:-1 53:-0.961353 54:-1 55:-0.999179 56:-0.999199 57:-0.994571 
1024 1:-1 2:-0.928571 3:-1 4:-1 5:-0.775578 6:-1 7:-1 8:-0.831683 9:-1 10:-1 11:-1 12:-1 13:-1 14:-1 15:-1 16:-0.949 17:-0.857143 18:-1 19:-0.9456 20:-1 21:-1 22:-1 23:-1 24:-1 25:-1 26:-1 27:-1 28:-1 29:-1 30:-1 31:-1 32:-1 33:-1 34:-1 35:-1 36:-0.785714 37:-1 38:-1 39:-1 40:-0.785714 41:-1 42:-1 43:-1 44:-0.949 45:-1 46:-1 47:-1 48:-1 49:-1 50:-0.985439 51:-1 52:-1 53:-1 54:-1 55:-0.997891 56:-0.998398 57:-0.98649 
997.8740628049571 1:-1 2:-1 3:-1 4:-1 5:-0.522552 6:-1 7:-1 8:-1 9:-1 10:-1 11:-1 12:-1 13:-1 14:-0.132 15:-1 16:-1 17:-1 18:-1 19:-0.768533 20:-1 21:-1 22:-1 23:-1 24:-1 25:-1 26:-1 27:-1 28:-1 29:-1 30:-1 31:-1 32:-1 33:-1 34:-1 35:-1 36:-1 37:-1 38:-1 39:-1 40:-1 41:-1 42:-1 43:-1 44:-1 45:-1 46:-1 47:-1 48:-1 49:-1 50:-0.924733 51:-1 52:-1 53:-1 54:-1 55:-1 56:-1 57:-0.999116 
1024 1:-1 2:-1 3:-0.835294 4:-1 5:-1 6:-1 7:-0.942228 8:-1 9:-1 10:-0.976898 11:-1 12:-0.913133 13:-1 14:-1 15:-1 16:-1 17:-1 18:-0.953795 19:-0.841067 20:-1 21:-0.921569 22:-1 23:-1 24:-1 25:-0.979837 26:-0.97479 27:-1 28:-1 29:-1 30:-1 31:-1 32:-1 33:-0.94958 34:-1 35:-1 36:-1 37:-1 38:-1 39:-1 40:-1 41:-1 42:-1 43:-1 44:-1 45:-1 46:-1 47:-1 48:-1 49:-0.984493 50:-0.971493 51:-0.983337 52:-1 53:-0.977011 54:-1 55:-0.995784 56:-0.992791 57:-0.960732 
592.4825430366724 1:-1 2:-1 3:-1 4:-1 5:-1 6:-1 7:-1 8:-1 9:-1 10:-1 11:-1 12:-0.300931 13:-1 14:-1 15:-1 16:-1 17:-0.526611 18:-1 19:-1 20:-1 21:-1 22:-1 23:-1 24:-1 25:-1 26:-1 27:-1 28:-1 29:-1 30:-1 31:-1 32:-1 33:-1 34:-1 35:-1 36:-1 37:-1 38:-1 39:-1 40:-1 41:-1 42:-1 43:-1 44:-1 45:-1 46:-1 47:-1 48:-1 49:-1 50:-0.958162 51:-1 52:-0.974875 53:-1 54:-1 55:-0.989834 56:-0.990789 57:-0.987626 
1024 1:-1 2:-1 3:-0.843137 4:-1 5:-1 6:-0.863946 7:-1 8:-1 9:-1 10:-1 11:-1 12:-1 13:-1 14:-1 15:-1 16:-0.96 17:-1 18:-0.911991 19:-0.957333 20:-1 21:-0.925303 22:-1 23:-1 24:-1 25:-1 26:-1 27:-1 28:-1 29:-1 30:-1 31:-1 32:-1 33:-1 34:-1 35:-1 36:-1 37:-0.764877 38:-1 39:-1 40:-1 41:-1 42:-1 43:-1 44:-1 45:-0.962652 46:-0.963719 47:-1 48:-1 49:-1 50:-0.933757 51:-0.974026 52:-1 53:-1 54:-0.985689 55:-0.991645 56:-0.986183 57:-0.962247 
1024 1:-1 2:-1 3:-1 4:-1 5:-1 6:-1 7:-1 8:-1 9:-1 10:-0.633663 11:-1 12:-0.311272 13:-1 14:-1 15:-1 16:-1 17:-1 18:-1 19:-0.6448 20:-1 21:-1 22:-1 23:-1 24:-1 25:-1 26:-1 27:-1 28:-1 29:-1 30:-1 31:-1 32:-1 33:-1 34:-1 35:-1 36:-1 37:-1 38:-1 39:-1 40:-1 41:-1 42:-1 43:-1 44:-1 45:-1 46:-1 47:-1 48:-1 49:-1 50:-1 51:-1 52:-0.928813 53:-1 54:-1 55:-0.997388 56:-0.998198 57:-0.997475 
0.1758108733236296 1:-1 2:1 3:-1 4:-1 5:-1 6:-1 7:-1 8:-1 9:-1 10:-1 11:-1 12:-1 13:-1 14:-1 15:-1 16:-1 17:-1 18:-1 19:-1 20:-1 21:-1 22:-1 23:-1 24:-1 25:-1 26:-1 27:-1 28:-1 29:-1 30:-1 31:-1 32:-1 33:-1 34:-1 35:-1 36:-1 37:-1 38:-1 39:-1 40:-1 41:-1 42:-1 43:-1 44:-1 45:-1 46:-1 47:-1 48:-1 49:-1 50:-1 51:-1 52:-1 53:-1 54:-1 55:-0.998432 56:-0.999199 57:-0.99899 
1024 1:-1 2:-1 3:-0.721569 4:-1 5:-0.843784 6:-1 7:-1 8:-1 9:-1 10:-1 11:-1 12:-1 13:-1 14:-1 15:-1 16:-1 18:-1 19:-1 20:-1 21:-0.734827 22:-1 23:-1 24:-1 25:-1 26:-1 27:-1 28:-1 29:-1 30:-1 31:-1 32:-1 33:-1 34:-1 35:-1 36:-1 37:-1 38:-1 39:-1 40:-1 41:-1 42:-0.90056 43:-1 44:-1 45:-1 46:-1 47:-1 48:-1 49:-1 50:-0.98872 51:-1 52:-0.996613 53:-1 54:-1 55:-0.97191 56:-0.989387 57:-0.982702 
0.04002435558962338 1:-1 2:1 3:-1 4:-1 5:-1 6:-1 7:-1 8:-1 9:-1 10:-1 11:-1 12:-1 13:-1 14:-1 15:-1 16:-1 17:-1 18:-1 19:-1 20:-1 21:-1 22:-1 23:-1 24:-1 25:-1 26:-1 27:-1 28:-1 29:-1 30:-1 31:-1 32:-1 33:-1 34:-1 35:-1 36:-1 37:-1 38:-1 39:-1 40:-1 41:-1 42:-1 43:-1 44:-1 45:-1 46:-1 47:-1 48:-1 49:-1 50:-1 51:-1 52:-1 53:-1 54:-1 55:-0.998432 56:-0.999199 57:-0.99899 
1024 1:-1 2:-1 3:-1 4:-1 5:-1 7:-1 8:-1 9:-1 10:-1 11:-1 12:-1 13:-1 14:-1 15:-1 16:-1 17:-1 18:-1 19:-0.6864 20:-1 21:-1 22:-1 23:-1 24:-1 25:-1 26:-1 27:-1 28:-1 29:-1 30:-1 31:-1 32:-1 33:-1 34:-1 35:-1 36:-1 37:-1 38:-1 39:-1 40:-1 41:-1 42:-1 43:-1 44:-1 45:-1 46:-1 47:-1 48:-1 49:-1 50:-1 51:-1 52:-1 53:-1 54:-1 55:-1 56:-1 57:-0.999495 
