svm_type c_svc
kernel_type polynomial
degree 30
gamma 0.0175439
coef0 0
nr_class 2
total_sv 629
rho -0.236548
label 0 1
nr_sv 328 301
SV
20.22006965034651 1:-1 2:-1 3:-1 4:-1 5:-1 6:-1 7:-1 8:-1 9:-0.558935 10:-1 11:-1 12:-0.760083 13:-0.581982 14:-1 15:-1 16:-1 17:-1 18:-1 19:-0.876267 20:-1 21:-0.78338 22:-1 23:-1 24:-1 25:-1 26:-1 27:-0.930393 28:-1 29:-1 30:-1 31:-1 32:-1 33:-1 34:-1 35:-1 36:-1 37:-1 38:-1 39:-1 40:-1 41:-1 42:-1 43:-1 44:-1 45:-1 46:-1 47:-1 48:-1 49:-1 50:-1 51:-1 52:-1 53:-1 54:-1 55:-0.999608 56:-0.9996 57:-0.998611 
512 1:-1 2:-1 3:-1 4:-1 5:-1 6:-1 7:-1 8:-1 9:-1 10:-1 11:-1 12:-1 13:-1 14:-1 15:-1 16:-1 17:-1 18:-1 19:-1 20:-1 21:-1 22:-1 23:-1 24:-1 25:-1 26:-1 27:-1 28:-1 29:-1 30:-1 31:-1 32:-1 33:-1 34:-1 35:-1 36:-1 37:-1 38:-1 39:-1 40:-1 41:-1 42:-1 43:-1 44:-1 45:-1 46:-1 47:-1 48:-1 49:-1 50:-1 51:-1 52:-0.92401 53:-1 54:-1 55:-0.99608 56:-0.999199 57:-0.998232 
478.7136090900862 1:-1 2:-0.740896 3:-1 4:-1 5:-1 6:-1 7:-1 8:-1 9:-1 10:-1 11:-1 12:-1 13:-1 14:-1 15:-1 16:-1 17:-1 18:-0.592959 19:-1 20:-1 21:-1 22:-1 23:-1 24:-1 25:-1 26:-1 27:-1 28:-1 29:-1 30:-1 31:-1 32:-1 33:-1 34:-1 35:-1 36:-1 37:-1 38:-1 39:-1 40:-1 41:-1 42:-1 43:-1 44:-1 45:-0.827264 46:-1 47:-1 48:-1 49:-1 50:-1 51:-1 52:-1 53:-1 54:-1 55:-0.998558 56:-0.998598 57:-0.99596 
512 1:-1 2:-1 3:-1 4:-1 5:-0.476348 6:-1 7:-1 8:-1 9:-1 10:-1 11:-1 12:-1 13:-1 14:-1 15:-1 16:-1 17:-1 18:-1 19:-0.746133 20:-1 21:-0.555556 22:-1 23:-1 24:-1 25:-1 26:-1 27:-1 28:-1 29:-1 30:-1 31:-1 32:-1 33:-1 34:-1 35:-1 36:-1 37:-1 38:-1 39:-1 40:-1 41:-1 42:-1 43:-1 44:-1 45:-1 46:-1 47:-1 48:-1 49:-1 50:-1 51:-1 52:-1 53:-1 54:-1 55:-0.99902 56:-0.999399 57:-0.998232 
512 1:-0.696035 2:-1 3:-0.729412 4:-1 5:-1 6:-1 7:-1 8:-1 9:-1 10:-0.924092 11:-1 12:-1 13:-1 14:-1 15:-1 16:-0.862 17:-1 18:-1 19:-0.8528 20:-1 21:-0.742297 22:-1 23:-1 24:-1 25:-1 26:-1 27:-1 28:-1 29:-1 30:-1 31:-1 32:-1 33:-1 34:-1 35:-1 36:-1 37:-1 38:-1 39:-1 40:-1 41:-1 42:-1 43:-1 44:-1 45:-1 46:-1 47:-1 48:-1 49:-1 50:-1 51:-1 52:-0.853562 53:-1 54:-1 55:-0.995463 56:-0.992791 57:-0.984217 
338.0137096555869 1:-1 2:-1 3:-1 4:-1 5:-1 6:-1 7:-1 8:-1 9:-1 10:-1 11:-1 12:-0.638056 13:-1 14:-1 15:-1 16:-1 17:-1 18:-1 19:-0.719467 20:-1 21:-0.346405 22:-1 23:-1 24:-1 25:-1 26:-1 27:-1 28:-1 29:-1 30:-1 31:-1 32:-1 33:-1 34:-1 35:-1 36:-1 37:-1 38:-1 39:-1 40:-1 41:-1 42:-1 43:-1 44:-1 45:-1 46:-1 47:-1 48:-1 49:-1 50:-1 51:-1 52:-1 53:-1 54:-1 55:-0.999539 56:-0.999199 57:-0.997475 
0.3075603367327592 1:0.69163 2:-1 3:-1 4:-1 5:-1 6:-1 7:-1 8:-1 9:-1 10:-1 11:-1 12:-1 13:-1 14:-1 15:-1 16:-1 17:-1 18:-1 19:-0.5904 20:-1 21:-1 22:-1 23:-1 24:-1 25:-1 26:-1 27:-1 28:-1 29:-1 30:-1 31:-1 32:-1 33:-1 34:-1 35:-1 36:-1 37:-1 38:-1 39:-1 40:-1 41:-1 42:-1 43:-1 44:-1 45:-1 46:-0.651701 47:-1 48:-1 49:-1 50:-0.867719 51:-1 52:-1 53:-1 54:-1 55:-1 56:-1 57:-0.999369 
512 1:-1 2:-1 3:-1 4:-1 5:-1 6:-1 7:-1 8:-1 9:-1 10:-1 11:-1 12:-1 13:-1 14:-1 15:-1 16:-1 17:-1 18:-1 19:-1 20:-1 21:-1 22:-1 23:-1 24:-1 25:-1 26:-1 27:-1 28:-1 29:-1 30:-1 31:-1 32:-1 33:-1 34:-1 35:-1 36:-1 37:-1 38:-1 39:-1 40:-1 41:-1 42:-1 43:-1 44:-1 45:-0.936508 46:-1 47:-1 48:-1 49:-1 50:-0.97703 51:-1 52:-1 53:-0.69915 54:-1 55:-0.997482 56:-0.997397 57:-0.990025 
21.87189619168151 1:-1 2:-0.945378 3:-1 4:-1 5:-1 6:-1 7:-1 8:-1 9:-0.851711 10:-1 11:-1 12:-0.592554 13:-0.715315 14:-1 15:-1 16:-1 17:-0.669468 18:-1 19:-0.915733 20:-0.957096 21:-1 22:-1 23:-1 24:-1 25:-0.962554 26:-1 27:-1 28:-1 29:-1 30:-1 31:-1 32:-1 33:-1 34:-1 35:-1 36:-0.172269 37:-1 38:-1 39:-1 40:-1 41:-1 42:-1 43:-1 44:-1 45:-1 46:-1 47:-0.632075 48:-1 49:-1 50:-0.960623 51:-1 52:-0.992118 53:-1 54:-1 55:-0.999551 56:-0.998999 57:-0.990657 
512 1:-1 2:-1 3:-0.647059 4:-1 5:-1 6:-1 7:-1 8:-1 9:-1 10:-0.950495 11:-1 12:-1 13:-1 14:-1 15:-1 16:-0.955 17:-1 18:-0.90099 19:-1 20:-1 21:-0.831933 22:-1 23:-1 24:-1 25:-1 26:-1 27:-1 28:-1 29:-1 30:-1 31:-1 32:-1 33:-1 34:-1 35:-1 36:-1 37:-0.869376 38:-1 39:-1 40:-1 41:-1 42:-1 43:-1 44:-1 45:-0.957983 46:-0.959184 47:-1 48:-1 49:-0.974458 50:-0.953445 51:-1 52:-0.996552 53:-1 54:-0.984879 55:-0.990593 56:-0.986183 57:-0.96351 
512 1:-1 2:-0.938375 3:-0.827451 4:-1 5:-0.90319 6:-1 7:-0.939477 8:-1 9:-1 10:-0.732673 11:-0.157088 12:-0.908997 13:-1 14:-1 15:-1 16:-1 17:-1 18:-0.658966 19:-0.6928 20:-1 21:-0.587302 22:-1 23:-1 24:-1 25:-1 26:-1 27:-0.986799 28:-1 29:-1 30:-1 31:-1 32:-1 33:-1 34:-1 35:-1 36:-1 37:-1 38:-1 39:-1 40:-0.907563 41:-1 42:-1 43:-1 44:-1 45:-1 46:-1 47:-1 48:-1 49:-1 50:-0.992617 51:-1 52:-0.995505 53:-0.951358 54:-0.990279 55:-0.996915 56:-0.995795 57:-0.971843 
512 1:-1 2:-1 3:-1 4:-1 5:-1 6:-1 7:-1 8:-1 9:-1 10:-1 11:-1 12:-1 13:-1 14:-1 15:-1 16:-1 17:-1 18:-1 19:-1 20:-1 21:-1 22:-1 23:-1 24:-1 25:-1 26:-1 27:-1 28:-1 29:-1 30:-1 31:-1 32:-1 33:-1 34:-1 35:-1 36:-1 37:-1 38:-1 39:-1 40:-1 41:-1 42:-1 43:-1 44:-1 45:-1 46:-1 47:-1 48:-1 49:-1 50:-1 51:-1 52:-0.953384 53:-1 54:-1 55:-0.999565 56:-0.999399 57:-0.997348 
512 1:-1 2:-1 3:-0.709804 4:-1 5:-1 6:-1 7:-1 8:-1 9:-1 10:-1 11:-1 12:-0.950362 13:-1 14:-1 15:-1 16:-0.951 17:-1 18:-0.892189 19:-0.710933 20:-1 21:-0.770308 22:-1 23:-1 24:-1 25:-1 26:-1 27:-1 28:-1 29:-1 30:-1 31:-1 32:-1 33:-1 34:-1 35:-1 36:-1 37:-0.930334 38:-1 39:-1 40:-1 41:-1 42:-1 43:-1 44:-1 45:-0.954248 46:-1 47:-1 48:-1 49:-0.98358 50:-0.969852 51:-1 52:-0.990948 53:-1 54:-1 55:-0.99689 56:-0.989187 57:-0.96452 
512 1:-1 2:-1 3:-1 4:-1 5:-1 6:-1 7:-0.155433 8:-1 9:-1 10:-1 11:-1 12:-1 13:-1 14:-1 15:-1 16:-1 17:-1 18:-1 19:-0.672533 20:-1 21:-1 22:-1 23:-1 24:-1 25:-1 26:-1 27:-1 28:-1 29:-1 30:-1 31:-1 32:-1 33:-1 34:-1 35:-1 36:-1 37:-1 38:-1 39:-1 40:-1 41:-1 42:-1 43:-1 44:-1 45:-1 46:-1 47:-1 48:-1 49:-1 50:-1 51:-1 52:-0.984543 53:-1 54:-1 55:-0.995661 56:-0.997797 57:-0.994444 
512 1:-1 2:-1 3:-1 4:-1 5:-1 6:-0.85034 7:-1 8:-1 9:-1 10:-1 11:-1 12:-1 13:-1 14:-1 15:-1 16:-0.956 17:-1 18:-0.90319 19:-0.953067 20:-1 21:-0.917834 22:-1 23:-1 24:-1 25:-1 26:-1 27:-1 28:-1 29:-1 30:-1 31:-1 32:-1 33:-1 34:-1 35:-1 36:-1 37:-0.872279 38:-1 39:-1 40:-1 41:-1 42:-1 43:-1 44:-1 45:-0.958917 46:-0.960091 47:-1 48:-1 49:-1 50:-0.96411 51:-0.971576 52:-1 53:-1 54:-0.984339 55:-0.985344 56:-0.975771 57:-0.950884 
47.4614475614212 1:-0.387665 2:-1 3:-0.180392 4:-1 5:-1 6:-1 7:-1 8:-1 9:-1 10:-1 11:-1 12:0.300931 13:-1 14:-1 15:-1 16:-0.931 17:-1 18:-1 19:-0.553067 20:-0.924092 21:-0.871148 22:-1 23:-1 24:-1 25:-1 26:-1 27:-1 28:-1 29:-1 30:-1 31:-1 32:-1 33:-1 34:-1 35:-1 36:-1 37:-1 38:-1 39:-0.858462 40:-1 41:-1 42:-1 43:-1 44:-1 45:-1 46:-1 47:-1 48:-1 49:-1 50:-1 51:-1 52:-0.984359 53:-1 54:-1 55:-0.99804 56:-0.997597 57:-0.992045 
512 1:-1 2:-1 3:-1 4:-1 5:-1 6:-1 7:-1 8:-1 9:-1 10:-1 11:-1 12:-0.664943 13:-1 14:-1 15:-1 16:-1 17:-1 18:-1 19:-1 20:-1 21:-1 22:-1 23:-1 24:-1 25:-1 26:-1 27:-1 28:-1 29:-1 30:-1 31:-1 32:-1 33:-1 34:-1 35:-1 36:-0.659664 37:-1 38:-1 39:-1 40:-1 41:-1 42:-1 43:-1 44:-1 45:-1 46:-1 47:-1 48:-1 49:-1 50:-1 51:-1 52:-1 53:-1 54:-1 55:-0.998867 56:-0.999199 57:-0.992551 
512 1:-1 2:-0.729692 3:-0.698039 4:-1 5:-0.830583 6:-1 7:-1 8:-0.874587 9:-1 10:-1 11:-0.708812 12:-1 13:-0.445045 14:-1 15:-1 16:-0.962 17:-0.893557 18:-0.746975 19:-0.547733 20:-1 21:0.152194 22:-1 23:-1 24:-1 25:-1 26:-1 27:-0.977198 28:-1 29:-1 30:-1 31:-1 32:-1 33:-1 34:-1 35:-1 36:-1 37:-1 38:-1 39:-1 40:-1 41:-1 42:-1 43:-1 44:-1 45:-1 46:-1 47:-1 48:-1 49:-1 50:-1 51:-1 52:-0.993288 53:-1 54:-1 55:-0.999916 56:-0.999399 57:-0.988131 
473.7104072634677 1:-1 2:-0.809524 3:-0.647059 4:-1 5:-1 6:-1 7:-1 8:-1 9:-1 10:-0.80088 11:-1 12:-0.906929 13:-1 14:-1 15:-1 16:-1 17:-1 18:-0.60176 19:-1 20:-1 21:-0.406162 22:-1 23:-1 24:-1 25:-0.956793 26:-1 27:-1 28:-1 29:-1 30:-1 31:-1 32:-1 33:-0.783914 34:-1 35:-1 36:-1 37:-1 38:-1 39:-1 40:-1 41:-1 42:-1 43:-1 44:-1 45:-1 46:-1 47:-1 48:-1 49:-1 50:-0.959188 51:-1 52:-1 53:-1 54:-1 55:-0.995332 56:-0.989588 57:-0.980051 
512 1:-0.92511 2:-1 3:-0.733333 4:-1 5:-0.925193 6:-0.884354 7:-1 8:-1 9:-1 10:-1 11:-1 12:-1 13:-1 14:-1 15:-1 16:-1 17:-1 18:-0.925193 19:-0.488 20:-1 21:-0.648926 22:-1 23:-1 24:-1 25:-1 26:-1 27:-1 28:-1 29:-1 30:-1 31:-1 32:-1 33:-1 34:-1 35:-1 36:-1 37:-1 38:-1 39:-1 40:-1 41:-1 42:-1 43:-1 44:-1 45:-0.952381 46:-0.98458 47:-1 48:-1 49:-1 50:-0.993437 51:-1 52:-0.995997 53:-1 54:-1 55:-0.99963 56:-0.999199 57:-0.991414 
512 1:-0.845815 2:-1 3:-0.721569 4:-1 5:-1 6:-1 7:-1 8:-1 9:-1 10:-0.961496 11:-1 12:-0.853154 13:-1 14:-1 15:-1 16:-1 17:-1 18:-1 19:-0.2032 20:-1 21:-0.802054 22:-1 23:-1 24:-1 25:-1 26:-1 27:-1 28:-1 29:-1 30:-1 31:-1 32:-1 33:-1 34:-1 35:-1 36:-1 37:-1 38:-1 39:-1 40:-1 41:-1 42:-1 43:-1 44:-1 45:-0.96732 46:-1 47:-1 48:-1 49:-1 50:-0.986259 51:-1 52:-1 53:-1 54:-1 55:-1 56:-1 57:-0.995076 
273.2521161459242 1:0.220264 2:-1 3:-1 4:-1 5:-1 6:-1 7:-1 8:-1 9:-1 10:-1 11:-1 12:-1 13:-1 14:-1 15:-1 16:-1 17:-1 18:-1 19:-1 20:-1 21:-1 22:-1 23:-1 24:-1 25:-1 26:-1 27:-1 28:-1 29:-1 30:-1 31:-1 32:-1 33:-1 34:-1 35:-1 36:-1 37:-1 38:-1 39:-1 40:-1 41:-1 42:-1 43:-1 44:-1 45:-1 46:-1 47:-1 48:-1 49:-1 50:-1 51:-1 52:-1 53:-1 54:-1 55:-0.999804 56:-0.9998 57:-0.998737 
512 1:-1 2:-1 3:-1 4:-1 5:-0.808581 6:-1 7:-0.76066 8:-1 9:-1 10:-1 11:-1 12:-1 13:-1 14:-1 15:-1 16:-0.737 17:-1 18:-0.808581 19:-0.719467 20:-1 21:-1 22:-1 23:-1 24:-1 25:-1 26:-1 27:-1 28:-1 29:-1 30:-1 31:-1 32:-1 33:-1 34:-1 35:-1 36:-1 37:-1 38:-1 39:-1 40:-1 41:-1 42:-1 43:-1 44:-1 45:-1 46:-1 47:-1 48:-1 49:-1 50:-1 51:-1 52:-0.950859 53:-0.947026 54:-1 55:-0.965793 56:-0.972968 57:-0.974495 
66.8317960700489 1:-1 2:-1 3:-1 4:-1 5:-1 6:-1 7:-1 8:-1 9:-1 10:-1 11:-1 12:-1 13:-1 14:-1 15:-1 16:-1 17:-1 18:-1 19:-1 20:-1 21:-1 22:-1 23:-1 24:-1 25:-1 26:-1 27:-1 28:-1 29:-1 30:-1 31:-1 32:-1 33:-1 34:-1 35:-1 36:-1 37:-1 38:-1 39:-1 40:-1 41:-1 42:-1 43:-1 44:-1 45:-1 46:-1 47:-1 48:-1 49:-1 50:-1 51:-0.423671 52:-1 53:-1 54:-1 55:-0.997762 56:-0.998598 57:-0.998232 
385.1377984183944 1:-1 2:-1 3:-1 4:-1 5:-1 6:-0.738095 7:-1 8:-1 9:-1 10:-1 11:-1 12:-1 13:-1 14:-1 15:-1 16:-1 17:-1 18:-1 19:-0.173333 20:-1 21:-1 22:-1 23:-1 24:-1 25:-1 26:-1 27:-1 28:-1 29:-1 30:-1 31:-1 32:-1 33:-1 34:-1 35:-1 36:-1 37:-1 38:-1 39:-1 40:-1 41:-1 42:-1 43:-1 44:-1 45:-1 46:-1 47:-1 48:-1 49:-1 50:-0.968007 51:-1 52:-0.980787 53:-1 54:-1 55:-0.999843 56:-0.9998 57:-0.996717 
164.2009131103981 1:-0.674009 2:-1 3:-1 4:-1 5:-1 6:-1 7:-1 8:-1 9:-1 10:-1 11:-1 12:-1 13:-1 14:-1 15:-1 16:-1 17:-1 18:-1 19:-1 20:-1 21:-1 22:-1 23:-0.72844 24:-1 25:-1 26:-1 27:-1 28:-1 29:-1 30:-1 31:-1 32:-1 33:-1 34:-1 35:-1 36:-1 37:-0.785196 38:-1 39:-1 40:-1 41:-1 42:-1 43:-1 44:-1 45:-0.930906 46:-1 47:-1 48:-1 49:-0.938883 50:-0.862182 51:-1 52:-1 53:-1 54:-1 55:-0.998309 56:-0.999199 57:-0.994949 
512 1:-1 2:-1 3:-0.917647 4:-1 5:-0.953795 6:-1 7:-1 8:-0.930693 9:-1 10:-1 11:-1 12:-1 13:-1 14:-1 15:-1 16:-1 17:-1 18:-1 19:-0.793067 20:-1 21:-0.919701 22:-1 23:-1 24:-1 25:-1 26:-1 27:-1 28:-1 29:-1 30:-1 31:-1 32:-1 33:-1 34:-1 35:-1 36:-1 37:-1 38:-1 39:-1 40:-1 41:-1 42:-1 43:-1 44:-1 45:-1 46:-1 47:-1 48:-1 49:-0.963968 50:-1 51:-0.980887 52:-0.992672 53:-1 54:-0.989469 55:-0.999831 56:-0.9996 57:-0.987374 
512 1:-1 2:-1 3:-0.854902 4:-1 5:-0.751375 6:-1 7:-1 8:-1 9:-1 10:-0.917492 11:-1 12:-0.766287 13:-1 14:-1 15:-1 16:-1 17:-1 18:-1 19:-0.717333 20:-1 21:-1 22:-1 23:-1 24:-1 25:-1 26:-1 27:-1 28:-1 29:-1 30:-1 31:-1 32:-1 33:-1 34:-1 35:-1 36:-1 37:-1 38:-1 39:-1 40:-1 41:-1 42:-1 43:-1 44:-0.963 45:-1 46:-1 47:-1 48:-1 49:-1 50:-1 51:-1 52:-1 53:-1 54:-1 55:-0.999483 56:-0.999399 57:-0.994697 
6.394972512818187 1:-1 2:-1 3:-1 4:-1 5:-1 6:-1 7:-1 8:-1 9:-0.684411 10:-0.817382 11:-1 12:-1 13:-1 14:-1 15:-1 16:-1 17:-1 18:-1 19:-0.911467 20:-1 21:-0.533147 22:-1 23:-1 24:-1 25:-1 26:-1 27:-1 28:-1 29:-1 30:-1 31:-1 32:-1 33:-1 34:-1 35:-1 36:-1 37:-1 38:-1 39:-1 40:0.747899 41:-1 42:-1 43:-1 44:-1 45:-1 46:-1 47:-1 48:-1 49:-1 50:-0.9758 51:-1 52:-1 53:-1 54:-1 55:-0.999069 56:-0.997998 57:-0.992677 
512 1:-1 2:-0.960784 3:-0.835294 4:-1 5:-1 6:-1 7:-1 8:-1 9:-1 10:-1 11:-1 12:-0.942089 13:-1 14:-1 15:-1 16:-0.986 17:-1 18:-0.969197 19:-0.985067 20:-1 21:-0.973856 22:-1 23:-1 24:-1 25:-1 26:-1 27:-1 28:-1 29:-1 30:-1 31:-1 32:-1 33:-1 34:-1 35:-1 36:-1 37:-1 38:-1 39:-1 40:-1 41:-1 42:-1 43:-0.921569 44:-0.986 45:-0.986928 46:-1 47:-1 48:-1 49:-1 50:-0.972929 51:-1 52:-0.998645 53:-1 54:-1 55:-0.996823 56:-0.986183 57:-0.946843 
512 1:-1 2:-0.946779 3:-0.85098 4:-1 5:-1 6:-0.870748 7:-1 8:-1 9:-1 10:-0.958196 11:-1 12:-0.840745 13:-1 14:-1 15:-1 16:-1 17:-1 18:-1 19:-0.626667 20:-1 21:-0.78338 22:-1 23:-1 24:-1 25:-1 26:-1 27:-1 28:-1 29:-0.946779 30:-1 31:-1 32:-1 33:-1 34:-1 35:-1 36:-1 37:-1 38:-1 39:-1 40:-1 41:-1 42:-1 43:-1 44:-1 45:-1 46:-1 47:-1 48:-1 49:-1 50:-0.973134 51:-0.968145 52:-1 53:-1 54:-1 55:-0.998348 56:-0.997998 57:-0.985227 
512 1:-1 2:-1 3:-0.784314 4:-1 5:-1 6:-1 7:-1 8:-1 9:-0.790875 10:-1 11:-1 12:-1 13:-0.801802 14:-1 15:-1 16:-0.945 17:-1 18:-0.878988 19:-1 20:-1 21:-0.897292 22:-1 23:-1 24:-1 25:-1 26:-1 27:-1 28:-1 29:-1 30:-1 31:-1 32:-1 33:-1 34:-1 35:-1 36:-1 37:-1 38:-1 39:-1 40:-1 41:-1 42:-1 43:-1 44:-1 45:-1 46:-1 47:-1 48:-1 49:-1 50:-0.980927 51:-1 52:-0.96533 53:-1 54:-1 55:-0.996221 56:-0.989187 57:-0.989773 
6.735028802215401 1:-1 2:-1 3:-1 4:-1 5:-1 6:-1 7:-1 8:-1 9:-1 10:-1 11:-1 12:-1 13:-1 14:-1 15:-1 16:-1 17:-1 18:-1 19:-1 20:-1 21:-1 22:-1 23:-1 24:-1 25:1 26:-0.5006 27:-1 28:-1 29:-1 30:-1 31:-1 32:-1 33:-1 34:-1 35:-1 36:-1 37:-1 38:-1 39:-1 40:-1 41:-1 42:-1 43:-1 44:-1 45:-1 46:-1 47:-1 48:-1 49:-1 50:-1 51:-1 52:-1 53:-1 54:-1 55:-0.994993 56:-0.996596 57:-0.992045 
512 1:-0.92511 2:-0.984594 3:-0.980392 4:-1 5:-0.911991 6:-0.962585 7:-1 8:-0.867987 9:-1 10:-1 11:-1 12:-0.929679 13:-0.96036 14:-1 15:-1 16:-1 17:-1 18:-1 19:-0.877333 20:-1 21:-0.893557 22:-1 23:-0.981651 24:-1 25:-0.950072 26:-1 27:-1 28:-1 29:-1 30:-1 31:-1 32:-1 33:-0.944778 34:-1 35:-0.983 36:-1 37:-0.817126 38:-1 39:-1 40:-1 41:-1 42:-1 43:-1 44:-0.995 45:-1 46:-1 47:-1 48:-1 49:-0.996807 50:-0.937654 51:-1 52:-0.996736 53:-0.990005 54:-1 55:-0.996966 56:-0.990388 57:-0.856944 
512 1:-1 2:-1 3:-0.537255 4:-1 5:-1 6:-1 7:-1 8:-1 9:-0.775665 10:-1 11:-1 12:-1 13:-1 14:-1 15:-1 16:-1 17:-1 18:-1 19:-0.8112 20:-1 21:-0.669468 22:-1 23:-1 24:-1 25:-1 26:-1 27:-1 28:-1 29:-1 30:-1 31:-1 32:-1 33:-1 34:-1 35:-1 36:-1 37:-0.828737 38:-1 39:-1 40:-1 41:-1 42:-1 43:-1 44:-1 45:-1 46:-1 47:-1 48:-1 49:-1 50:-1 51:-1 52:-0.980725 53:-0.895719 54:-1 55:-0.987089 56:-0.986984 57:-0.983838 
512 1:-1 2:-1 3:-0.635294 4:-1 5:-0.931793 6:-1 7:-1 8:-1 9:-0.882129 10:-1 11:-0.762452 12:-0.807653 13:-1 14:-1 15:-1 16:-1 17:-0.826331 18:-1 19:-0.6 20:-1 21:-0.359477 22:-1 23:-1 24:-1 25:-1 26:-1 27:-1 28:-1 29:-1 30:-1 31:-1 32:-1 33:-1 34:-1 35:-1 36:-1 37:-0.910015 38:-1 39:-1 40:-1 41:-1 42:-1 43:-1 44:-1 45:-1 46:-1 47:-1 48:-1 49:-0.975371 50:-0.977851 51:-1 52:-0.996675 53:-1 54:-0.985419 55:-0.9966 56:-0.997397 57:-0.981818 
290.9900293423542 1:-1 2:-1 3:-1 4:-1 5:-1 6:-1 7:-1 8:-1 9:-1 10:-1 11:-1 12:-1 13:-1 14:-1 15:-1 16:-1 17:-1 18:-1 19:-1 20:-1 21:-1 22:-1 23:-1 24:-1 25:-1 26:-1 27:-0.9958 28:-1 29:-0.990196 30:-1 31:-1 32:-1 33:-0.983193 34:-1 35:-1 36:-1 37:-1 38:-1 39:-1 40:-0.970588 41:-1 42:-1 43:-1 44:-1 45:-1 46:-1 47:-1 48:-1 49:-1 50:-0.978671 51:-0.841215 52:-1 53:-1 54:-0.99703 55:-0.993315 56:-0.994594 57:-0.76452 
126.3103193122567 1:-1 2:-1 3:-1 4:-1 5:-1 6:-1 7:-1 8:-1 9:-1 10:-0.421342 11:-1 12:-1 13:-1 14:-1 15:-1 16:-1 17:-1 18:-1 19:-0.438933 20:-1 21:-1 22:-1 23:-1 24:-1 25:-1 26:-1 27:-1 28:-1 29:-1 30:-1 31:-1 32:-1 33:-1 34:-1 35:-1 36:-1 37:-1 38:-1 39:-1 40:-1 41:-1 42:-1 43:-1 44:-1 45:-1 46:-1 47:-1 48:-1 49:-1 50:-1 51:-1 52:-1 53:-1 54:-1 55:-0.998695 56:-0.9996 57:-0.999495 
512 1:-1 2:-1 3:-1 4:-1 5:-1 6:-1 7:-1 8:-1 9:-1 10:-1 11:-1 12:-1 13:-1 14:-1 15:-1 16:-0.973 17:-1 18:-0.940594 19:-0.941333 20:-1 21:-0.897292 22:-1 23:-1 24:-1 25:-1 26:-1 27:-1 28:-1 29:-1 30:-1 31:-1 32:-1 33:-1 34:-1 35:-1 36:-1 37:-1 38:-1 39:-1 40:-1 41:-1 42:-1 43:-1 44:-1 45:-0.948646 46:-0.97551 47:-1 48:-1 49:-1 50:-0.974979 51:-0.960304 52:-1 53:-1 54:-0.989199 55:-0.994334 56:-0.986183 57:-0.959343 
512 1:-0.933921 2:-0.985994 3:-1 4:-1 5:-0.933993 6:-0.94898 7:-1 8:-0.90099 9:-1 10:-1 11:-1 12:-0.875905 13:-1 14:-1 15:-1 16:-1 17:-1 18:-1 19:-0.780267 20:-1 21:-0.84127 22:-1 23:-0.981651 24:-1 25:-0.980797 26:-1 27:-1 28:-1 29:-1 30:-1 31:-1 32:-1 33:-0.939976 34:-1 35:-0.985 36:-1 37:-0.898403 38:-1 39:-1 40:-1 41:-1 42:-1 43:-1 44:-0.995 45:-1 46:-1 47:-1 48:-1 49:-0.966705 50:-0.95201 51:-1 52:-0.995505 53:-1 54:-1 55:-0.997636 56:-0.990388 57:-0.870581 
192.7686724289115 1:-0.885463 2:-1 3:-0.898039 4:-1 5:-1 6:-1 7:-1 8:-1 9:-0.798479 10:-1 11:-0.59387 12:-0.391934 13:-1 14:-1 15:-1 16:-1 17:-1 18:-0.942794 19:-0.544533 20:-1 21:-0.551821 22:-1 23:-1 24:-1 25:-1 26:-0.968788 27:-0.968197 28:-1 29:-1 30:-1 31:-1 32:-1 33:-1 34:-1 35:-1 36:-1 37:-0.924528 38:-1 39:-0.891282 40:-1 41:-1 42:-0.887955 43:-1 44:-1 45:-1 46:-1 47:-1 48:-0.894 49:-1 50:-0.993847 51:-1 52:-1 53:-1 54:-1 55:-0.998863 56:-0.998598 57:-0.983965 
512 1:-0.929515 2:-0.977591 3:-0.937255 4:-1 5:-0.817382 6:-0.945578 7:-1 8:-0.947195 9:-1 10:-1 11:-1 12:-0.896587 13:-0.942342 14:-1 15:-1 16:-1 17:-1 18:-1 19:-0.7504 20:-1 21:-0.874883 22:-1 23:-1 24:-1 25:-1 26:-1 27:-1 28:-1 29:-1 30:-1 31:-1 32:-1 33:-1 34:-1 35:-1 36:-1 37:-1 38:-1 39:-1 40:-1 41:-1 42:-1 43:-1 44:-0.984 45:-0.969188 46:-0.985488 47:-1 48:-1 49:-0.960319 50:-0.988105 51:-1 52:-1 53:-1 54:-1 55:-0.998234 56:-0.996996 57:-0.983081 
65.42210615793091 1:-1 2:-1 3:-0.780392 4:-1 5:-0.982398 6:-0.945578 7:-1 8:-1 9:-1 10:-0.982398 11:-1 12:-1 13:-1 14:-0.952 15:-1 16:-1 17:-1 18:-1 19:-0.9744 20:-1 21:-1 22:-1 23:-1 24:-1 25:-1 26:-1 27:-1 28:-1 29:-1 30:-1 31:-1 32:-1 33:-0.980792 34:-1 35:-0.992 36:-0.966387 37:-1 38:-1 39:-1 40:-1 41:-1 42:-1 43:-1 44:-1 45:-1 46:-1 47:-1 48:-0.692 49:-0.9252 50:-0.896432 51:-1 52:-0.999384 53:-0.993003 54:-1 55:-0.996611 56:-0.989187 57:-0.85846 
512 1:-1 2:-1 3:-1 4:-1 5:-1 6:-1 7:-1 8:-1 9:-1 10:-1 11:-1 12:-1 13:-1 14:-1 15:-1 16:-0.928 17:-1 18:-0.841584 19:-0.767467 20:-1 21:-0.865546 22:-1 23:-1 24:-1 25:-1 26:-1 27:-1 28:-1 29:-1 30:-1 31:-1 32:-1 33:-1 34:-1 35:-1 36:-1 37:-1 38:-1 39:-1 40:-1 41:-1 42:-1 43:-1 44:-1 45:-0.932773 46:-1 47:-1 48:-1 49:-1 50:-0.938884 51:-1 52:-0.987807 53:-1 54:-0.973269 55:-0.994121 56:-0.988386 57:-0.983965 
329.5619433977904 1:-1 2:-1 3:-1 4:-1 5:-1 6:-1 7:-0.389271 8:-0.267327 9:-1 10:-1 11:-1 12:-1 13:-1 14:-1 15:-1 16:-1 17:-1 18:-1 19:-1 20:-1 21:-1 22:-1 23:-1 24:-1 25:-1 26:-1 27:-1 28:-1 29:-1 30:-1 31:-1 32:-1 33:-1 34:-1 35:-1 36:-1 37:-1 38:-1 39:-1 40:-1 41:-1 42:-1 43:-1 44:-1 45:-1 46:-1 47:-1 48:-1 49:-1 50:-0.863618 51:-1 52:-1 53:-0.778444 54:-1 55:-0.993001 56:-0.995194 57:-0.992045 
512 1:-1 2:-1 3:-1 4:-1 5:-1 6:-1 7:-1 8:-1 9:-1 10:-1 11:-1 12:-1 13:-1 14:-1 15:-1 16:-0.959 17:-1 18:-0.909791 19:-0.8688 20:-1 21:-0.923436 22:-1 23:-1 24:-1 25:-1 26:-1 27:-1 28:-1 29:-1 30:-1 31:-1 32:-1 33:-1 34:-1 35:-1 36:-1 37:-1 38:-1 39:-1 40:-1 41:-1 42:-1 43:-1 44:-1 45:-0.923436 46:-1 47:-1 48:-1 49:-1 50:-0.953035 51:-1 52:-0.99298 53:-1 54:-0.984609 55:-0.991777 56:-0.986183 57:-0.966667 
225.9697885397526 1:-1 2:-1 3:-0.0901961 4:-1 5:-1 6:-1 7:-1 8:-1 9:-1 10:-1 11:-1 12:-1 13:-1 14:-1 15:-1 16:-1 17:-1 18:-1 19:-1 20:-1 21:-1 22:-1 23:-1 24:-1 25:-1 26:-1 27:-1 28:-1 29:-1 30:-1 31:-1 32:-1 33:-1 34:-1 35:-1 36:-1 37:-1 38:-1 39:-1 40:-1 41:-1 42:-1 43:-1 44:-1 45:-1 46:-1 47:-1 48:-1 49:-1 50:-0.824856 51:-1 52:-1 53:-1 54:-1 55:-0.998387 56:-0.998598 57:-0.996212 
449.6035550907964 1:-1 2:-1 3:-1 4:-1 5:-1 6:-1 7:-1 8:-1 9:-1 10:-0.869087 11:-1 12:-1 13:-1 14:-1 15:-1 16:-1 17:-1 18:-1 19:-1 20:-1 21:-1 22:-1 23:-1 24:-1 25:-0.885742 26:-0.857143 27:-1 28:-0.476348 29:-1 30:-1 31:-1 32:-1 33:-1 34:-1 35:-1 36:-0.5 37:-1 38:-1 39:-0.755897 40:-1 41:-1 42:-1 43:-1 44:-1 45:-1 46:-1 47:-1 48:-1 49:-1 50:-0.917145 51:-1 52:-1 53:-1 54:-1 55:-0.995338 56:-0.997998 57:-0.987753 
154.30353780729 1:-1 2:-1 3:-1 4:-1 5:-1 6:-1 7:-0.661623 8:-1 9:-1 10:-1 11:-1 12:-0.745605 13:-1 14:-1 15:-1 16:-1 17:-0.655462 18:-1 19:-1 20:-1 21:-1 22:-1 23:-1 24:-1 25:-0.763802 26:-1 27:-1 28:-1 29:-1 30:-0.483193 31:-1 32:-1 33:-1 34:-1 35:-1 36:-1 37:-1 38:-1 39:-1 40:-1 41:-1 42:-1 43:-1 44:-1 45:-1 46:-1 47:-1 48:-1 49:-1 50:-1 51:-1 52:-0.975183 53:-1 54:-1 55:-0.997952 56:-0.998999 57:-0.994444 
512 1:-1 2:-1 3:-0.901961 4:-1 5:-1 6:-0.914966 7:-0.862448 8:-0.917492 9:-1 10:-1 11:-1 12:-1 13:-1 14:-1 15:-1 16:-1 17:-1 18:-1 19:-0.866667 20:-1 21:-0.953315 22:-1 23:-1 24:-1 25:-1 26:-1 27:-1 28:-1 29:-1 30:-1 31:-1 32:-1 33:-1 34:-1 35:-1 36:-1 37:-1 38:-1 39:-1 40:-1 41:-1 42:-1 43:-1 44:-1 45:-0.976657 46:-1 47:-1 48:-1 49:-1 50:-0.963084 51:-1 52:-0.997229 53:-1 54:-1 55:-0.999365 56:-0.999199 57:-0.987753 
512 1:-0.955947 2:-0.985994 3:-0.960784 4:-1 5:-0.953795 6:-0.965986 7:-1 8:-1 9:-0.961977 10:-0.965897 11:-1 12:-0.826267 13:-0.924324 14:-1 15:-1 16:-0.99 17:-1 18:-0.953795 19:-0.810133 20:-1 21:-0.882353 22:-1 23:-1 24:-0.979487 25:-1 26:-1 27:-1 28:-1 29:-1 30:-1 31:-1 32:-1 33:-1 34:-1 35:-1 36:-1 37:-1 38:-1 39:-1 40:-1 41:-1 42:-1 43:-1 44:-1 45:-1 46:-0.980952 47:-1 48:-1 49:-0.984036 50:-0.9637 51:-0.982847 52:-0.995689 53:-0.982342 54:-1 55:-0.998542 56:-0.994393 57:-0.947475 
16.65010390538354 1:-0.634361 2:-1 3:-0.839216 4:-1 5:-1 6:-1 7:-1 8:-1 9:-1 10:-1 11:-0.685824 12:-0.828335 13:-1 14:-1 15:-1 16:-1 17:-1 18:-1 19:-0.6896 20:-1 21:-0.690009 22:-1 23:-1 24:-1 25:-0.960634 26:-0.95078 27:-1 28:-1 29:-1 30:-1 31:-1 32:-1 33:-1 34:-1 35:-1 36:-1 37:-0.880987 38:-1 39:-1 40:-1 41:-1 42:-1 43:-0.770308 44:-1 45:-1 46:-1 47:-1 48:-1 49:-1 50:-1 51:-1 52:-0.982573 53:-1 54:-1 55:-0.997997 56:-0.997597 57:-0.988636 
512 1:-0.581498 2:-1 3:-1 4:-1 5:-1 6:-1 7:-1 8:-1 9:-1 10:-1 11:-1 12:-1 13:-1 14:-1 15:-1 16:-1 17:-1 18:-1 19:-0.797333 20:-1 21:-0.822596 22:-1 23:-1 24:-1 25:-1 26:-1 27:-1 28:-1 29:-1 30:-1 31:-1 32:-1 33:-1 34:-1 35:-1 36:-1 37:-1 38:-1 39:-1 40:-1 41:-1 42:-1 43:-1 44:-1 45:-0.911298 46:-0.913832 47:-1 48:-1 49:-1 50:-0.970468 51:-1 52:-0.644067 53:-1 54:-1 55:-0.997785 56:-0.997197 57:-0.993939 
12.88336848954884 1:-1 2:-1 3:-0.682353 4:-1 5:-0.641364 6:-1 7:-1 8:-1 9:-1 10:-1 11:-1 12:-1 13:-1 14:-1 15:-1 16:-1 17:-1 18:-1 19:-0.9136 20:-1 21:-1 22:-1 23:-1 24:-1 25:-1 26:-1 27:-0.951395 28:-1 29:-1 30:-1 31:-1 32:-1 33:-1 34:-1 35:-1 36:-1 37:-1 38:-0.805522 39:-1 40:-1 41:-1 42:-1 43:-1 44:-1 45:-1 46:-1 47:-1 48:-1 49:-1 50:-1 51:-1 52:-1 53:-1 54:-1 55:-0.999824 56:-0.9998 57:-0.998611 
512 1:-1 2:-1 3:-0.415686 4:-1 5:-1 6:-1 7:-1 8:-1 9:-1 10:-1 11:-1 12:-1 13:-1 14:-1 15:-1 16:-1 17:-1 18:-1 19:-0.841067 20:-1 21:-0.443511 22:-1 23:-1 24:-1 25:-1 26:-1 27:-1 28:-1 29:-1 30:-1 31:-1 32:-1 33:-1 34:-1 35:-1 36:-1 37:-1 38:-1 39:-1 40:-1 41:-1 42:-1 43:-1 44:-1 45:-0.860878 46:-1 47:-1 48:-1 49:-1 50:-1 51:-1 52:-0.934171 53:-1 54:-1 55:-1 56:-1 57:-0.998485 
512 1:-1 2:-1 3:-0.556863 4:-1 5:-0.918592 6:-1 7:-1 8:-1 9:-1 10:-1 11:-1 12:-1 13:-1 14:-1 15:-1 16:-0.963 17:-1 18:-0.918592 19:-0.879467 20:-1 21:-0.930906 22:-1 23:-1 24:-1 25:-1 26:-1 27:-1 28:-1 29:-1 30:-1 31:-1 32:-1 33:-1 34:-1 35:-1 36:-1 37:-1 38:-1 39:-1 40:-1 41:-1 42:-1 43:-1 44:-1 45:-1 46:-1 47:-1 48:-1 49:-1 50:-0.970263 51:-1 52:-0.973151 53:-1 54:-1 55:-0.998448 56:-0.989187 57:-0.981566 
512 1:-1 2:-1 3:-1 4:-1 5:-1 6:-1 7:-1 8:-1 9:-1 10:-1 11:-1 12:-1 13:-1 14:-1 15:-1 16:-0.853 17:-1 18:-1 19:-1 20:-1 21:-1 22:-1 23:-1 24:-1 25:-1 26:-1 27:-1 28:-0.676568 29:-1 30:-1 31:-1 32:-1 33:-1 34:-1 35:-1 36:-1 37:-1 38:-1 39:-1 40:-1 41:-1 42:-1 43:-1 44:-1 45:-1 46:-1 47:-1 48:-1 49:-1 50:-0.948113 51:-0.876011 52:-1 53:-1 54:-1 55:-0.99735 56:-0.996796 57:-0.995076 
512 1:-1 2:-0.890756 3:-0.388235 4:-1 5:-1 6:-1 7:-1 8:-1 9:-1 10:-1 11:-1 12:-0.838676 13:-1 14:-1 15:-1 16:-1 17:-1 18:-0.656766 19:-0.4176 20:-1 21:-0.271709 22:-1 23:-1 24:-1 25:-1 26:-1 27:-1 28:-1 29:-1 30:-1 31:-1 32:-1 33:-1 34:-1 35:-1 36:-1 37:-1 38:-1 39:-1 40:-1 41:-1 42:-1 43:-1 44:-1 45:-1 46:-1 47:-1 48:-1 49:-1 50:-0.971903 51:-1 52:-0.983065 53:-1 54:-1 55:-0.998775 56:-0.998398 57:-0.995202 
169.4146000735245 1:-1 2:-1 3:0.34902 4:-1 5:-1 6:-1 7:-1 8:-1 9:-1 10:-1 11:-1 12:-1 13:-1 14:-1 15:-1 16:-1 17:-1 18:-0.243124 19:-1 20:-1 21:-0.35761 22:-1 23:-1 24:-1 25:-1 26:-1 27:-1 28:-1 29:-1 30:-1 31:-1 32:-1 33:-1 34:-1 35:-1 36:-1 37:-1 38:-1 39:-1 40:-1 41:-1 42:-1 43:-1 44:-1 45:-1 46:-1 47:-1 48:-1 49:-1 50:-1 51:-1 52:-1 53:-1 54:-1 55:-0.998575 56:-0.999399 57:-0.997727 
512 1:-1 2:-1 3:-1 4:-1 5:-1 6:-1 7:-1 8:-1 9:-0.897338 10:-1 11:-1 12:-0.830403 13:-0.902703 14:-1 15:-1 16:-1 17:-0.540616 18:-1 19:-0.854933 20:-1 21:-0.89916 22:-1 23:-1 24:-1 25:-0.974076 26:-1 27:-1 28:-1 29:-1 30:-1 31:-1 32:-1 33:-1 34:-1 35:-1 36:-0.773109 37:-0.921626 38:-1 39:-1 40:-1 41:-1 42:-1 43:-1 44:-1 45:-1 46:-1 47:-1 48:-1 49:-1 50:-0.981542 51:-1 52:-0.997229 53:-1 54:-1 55:-0.999089 56:-0.998598 57:-0.989394 
512 1:-1 2:-1 3:-0.8 4:-1 5:-0.962596 6:-1 7:-1 8:-1 9:-1 10:-1 11:-1 12:-0.929679 13:-1 14:-1 15:-1 16:-1 17:-1 18:-1 19:-0.7088 20:-1 21:-1 22:-1 23:-1 24:-1 25:-1 26:-1 27:-1 28:-1 29:-1 30:-1 31:-1 32:-1 33:-1 34:-1 35:-1 36:-1 37:-1 38:-1 39:-1 40:-1 41:-1 42:-1 43:-1 44:-1 45:-1 46:-1 47:-1 48:-1 49:-1 50:-0.986874 51:-1 52:-0.996059 53:-1 54:-1 55:-0.99493 56:-0.989187 57:-0.971591 
512 1:-1 2:-1 3:-1 4:-1 5:-1 6:-1 7:-1 8:-1 9:-1 10:-1 11:-1 12:-1 13:-1 14:-1 15:-1 16:-1 17:-1 18:-1 19:-1 20:-1 21:-1 22:-1 23:-1 24:-1 25:-1 26:-1 27:-1 28:-1 29:-1 30:-1 31:-1 32:-1 33:-1 34:-1 35:-1 36:-1 37:-1 38:-1 39:-1 40:-1 41:-1 42:-1 43:-1 44:-1 45:-1 46:-1 47:-1 48:-1 49:-1 50:-1 51:-1 52:-0.780097 53:-1 54:-1 55:-1 56:-1 57:-0.999621 
174.7680384481873 1:-1 2:-1 3:-0.372549 4:-1 5:-1 6:-1 7:-1 8:-1 9:-1 10:-1 11:-1 12:-1 13:-1 14:-1 15:-1 16:-1 17:-1 18:-0.647965 19:-0.658667 20:-1 21:-0.551821 22:-1 23:-1 24:-1 25:-0.846375 26:-0.903962 27:-0.855986 28:-0.823982 29:-0.887955 30:-0.663866 31:-0.872 32:-0.663866 33:-1 34:-0.663866 35:-0.92 36:-0.663866 37:-1 38:-1 39:-0.671795 40:-0.663866 41:-1 42:-1 43:-0.103641 44:-1 45:-0.850607 46:-1 47:0.509434 48:-1 49:-1 50:-0.948728 51:-1 52:-1 53:-1 54:-1 55:-0.997913 56:-0.997797 57:-0.988131 
365.1575032702313 1:-1 2:-1 3:-0.976471 4:-1 5:-0.80418 6:-0.955782 7:-1 8:-0.933993 9:-1 10:-1 11:-1 12:-0.973113 13:-0.978378 14:-1 15:-1 16:-1 17:-0.731092 18:-1 19:-1 20:-1 21:-1 22:-1 23:-1 24:-1 25:-0.894383 26:-1 27:-1 28:-1 29:-1 30:-1 31:-1 32:-1 33:-1 34:-1 35:-1 36:-1 37:-0.962264 38:-0.985594 39:-1 40:-1 41:-1 42:-0.991597 43:-1 44:-1 45:-0.968254 46:-1 47:-1 48:-1 49:-0.99179 50:-0.990361 51:-1 52:-1 53:-0.971681 54:-1 55:-0.996229 56:-0.989788 57:-0.922222 
512 1:-1 2:-1 3:-1 4:-1 5:-1 6:-1 7:-1 8:-1 9:-1 10:-1 11:-1 12:-1 13:-1 14:-1 15:-1 16:-1 17:-1 18:-1 19:-1 20:-1 21:-1 22:-1 23:-1 24:-1 25:-1 26:-1 27:-1 28:-1 29:-1 30:-1 31:-1 32:-1 33:-1 34:-1 35:-1 36:-1 37:-1 38:-1 39:-1 40:-1 41:-1 42:-1 43:-1 44:-1 45:-1 46:-1 47:-1 48:-1 49:-1 50:-0.806604 51:-1 52:-0.94193 53:-1 54:-1 55:-0.997715 56:-0.999199 57:-0.998485 
512 1:-1 2:-1 3:-0.862745 4:-1 5:-0.922992 6:-0.758503 7:-1 8:-1 9:-1 10:-1 11:-1 12:-0.853154 13:-1 14:-1 15:-1 16:-1 17:-1 18:-1 19:-0.924267 20:-1 21:-0.934641 22:-1 23:-1 24:-1 25:-1 26:-1 27:-1 28:-1 29:-1 30:-1 31:-1 32:-1 33:-0.915966 34:-1 35:-1 36:-1 37:-0.898403 38:-1 39:-0.928205 40:-1 41:-1 42:-1 43:-0.803922 44:-1 45:-0.96732 46:-1 47:-1 48:-1 49:-1 50:-0.974569 51:-1 52:-0.977092 53:-1 54:-1 55:-0.998744 56:-0.997797 57:-0.986237 
512 1:-1 2:-1 3:-0.290196 4:-1 5:-1 6:-1 7:-1 8:-1 9:-1 10:-1 11:-1 12:-0.813857 13:-0.675676 14:-1 15:-1 16:-1 17:-1 18:-1 19:-0.515733 20:-1 21:-0.492063 22:-1 23:-1 24:-1 25:-1 26:-1 27:-1 28:-1 29:-1 30:-1 31:-1 32:-1 33:-1 34:-1 35:-1 36:-1 37:-1 38:-1 39:-1 40:-1 41:-1 42:-1 43:-1 44:-1 45:-1 46:-1 47:-1 48:-1 49:-1 50:-1 51:-1 52:-0.989901 53:-1 54:-1 55:-0.999234 56:-0.998598 57:-0.996086 
512 1:-1 2:-1 3:-0.607843 4:-1 5:-0.669967 6:-1 7:-1 8:-1 9:-1 10:-0.889989 11:-0.616858 12:-0.58635 13:-1 14:-1 15:-1 16:-1 17:-1 18:-1 19:-0.306667 20:-1 21:-0.439776 22:-1 23:-1 24:-1 25:-1 26:-1 27:-1 28:-1 29:-1 30:-1 31:-1 32:-1 33:-1 34:-1 35:-1 36:-1 37:-1 38:-1 39:-1 40:-1 41:-1 42:-1 43:-1 44:-1 45:-1 46:-1 47:-1 48:-1 49:-1 50:-1 51:-1 52:-0.991071 53:-1 54:-1 55:-0.99933 56:-0.997397 57:-0.993687 
512 1:-1 2:-1 3:-1 4:-1 5:-1 6:-0.829932 7:-1 8:-1 9:-1 10:-1 11:-1 12:-1 13:-1 14:-1 15:-1 16:-1 17:-1 18:-0.889989 19:-0.786667 20:-1 21:-0.906629 22:-1 23:-1 24:-1 25:-1 26:-1 27:-1 28:-1 29:-1 30:-1 31:-1 32:-1 33:-1 34:-1 35:-1 36:-1 37:-1 38:-1 39:-1 40:-1 41:-1 42:-1 43:-1 44:-1 45:-1 46:-1 47:-1 48:-1 49:-1 50:-1 51:-1 52:-0.983312 53:-1 54:-1 55:-0.999888 56:-0.9998 57:-0.995455 
512 1:-1 2:-1 3:-1 4:-1 5:-1 6:-1 7:-1 8:-1 9:-1 10:-1 11:-1 12:-1 13:-1 14:-1 15:-1 16:-1 17:-1 18:-1 19:-1 20:-1 21:-1 22:-1 23:-1 24:-1 25:-1 26:-1 27:-1 28:-1 29:-1 30:-1 31:-1 32:-1 33:-1 34:-1 35:-1 36:-1 37:-1 38:-1 39:-1 40:-1 41:-1 42:-1 43:-1 44:-1 45:-1 46:-1 47:-1 48:-1 49:-1 50:-0.82178 51:-1 52:-0.892912 53:-1 54:-1 55:-1 56:-1 57:-0.999369 
97.12901534318927 1:-1 2:-1 3:-1 4:-1 5:-1 6:-1 7:-1 8:-1 9:-1 10:-1 11:-1 12:-0.391934 13:-1 14:-1 15:-1 16:-0.706 17:-1 18:-1 19:-1 20:-1 21:-1 22:-1 23:-1 24:-1 25:-1 26:-1 27:-1 28:-1 29:-1 30:-1 31:-1 32:-1 33:-1 34:-1 35:-1 36:-1 37:-1 38:-1 39:-0.396923 40:-1 41:-1 42:-1 43:-1 44:-1 45:-1 46:-1 47:-1 48:-1 49:-1 50:-1 51:-1 52:-1 53:-1 54:-1 55:-0.999441 56:-0.9996 57:-0.99899 
309.6243457267018 1:-1 2:-1 3:-1 4:-1 5:-0.551155 6:-1 7:-1 8:-1 9:-1 10:-1 11:-1 12:-0.789038 13:-0.632432 14:-1 15:-1 16:-0.898 17:-1 18:-1 19:-0.8912 20:-1 21:-1 22:-1 23:-1 24:-1 25:-1 26:-1 27:-1 28:-1 29:-1 30:-1 31:-1 32:-1 33:-1 34:-1 35:-1 36:-1 37:-1 38:-1 39:-0.790769 40:-1 41:-1 42:-1 43:-1 44:-1 45:-1 46:-1 47:-1 48:-1 49:-1 50:-1 51:-1 52:-1 53:-1 54:-1 55:-0.998742 56:-0.999399 57:-0.997222 
512 1:-1 2:-0.837535 3:-1 4:-1 5:-1 6:-1 7:-1 8:-0.617162 9:-1 10:-0.872387 11:-1 12:-1 13:-1 14:-1 15:-1 16:-1 17:-1 18:-1 19:-1 20:-1 21:-0.78338 22:-1 23:-1 24:-1 25:-1 26:-1 27:-1 28:-1 29:-1 30:-1 31:-1 32:-1 33:-1 34:-1 35:-1 36:-1 37:-1 38:-1 39:-1 40:-1 41:-1 42:-1 43:-1 44:-1 45:-0.89169 46:-1 47:-1 48:-1 49:-1 50:-1 51:-1 52:-1 53:-1 54:-1 55:-0.99951 56:-0.9996 57:-0.997601 
101.6223700290351 1:-1 2:-1 3:-1 4:-1 5:-1 6:-1 7:-0.81293 8:-1 9:-1 10:-0.925193 11:-1 12:-1 13:-1 14:-1 15:-1 16:-1 17:-1 18:-1 19:-0.853867 20:-1 21:-0.615313 22:-1 23:-1 24:-1 25:-1 26:-1 27:-0.959196 28:-1 29:-1 30:-1 31:-1 32:-0.714286 33:-1 34:-0.714286 35:-1 36:-1 37:-1 38:-1 39:-1 40:-1 41:-1 42:-1 43:-1 44:-1 45:-1 46:-1 47:-1 48:-1 49:-1 50:-0.970468 51:-1 52:-1 53:-1 54:-0.980559 55:-0.995357 56:-0.996396 57:-0.980556 
512 1:-1 2:-1 3:-1 4:-1 5:-1 6:-1 7:-1 8:-1 9:-1 10:-1 11:-1 12:-1 13:-1 14:-1 15:-1 16:-1 17:-1 18:-1 19:-0.605333 20:-1 21:-0.654528 22:-1 23:-1 24:-1 25:-1 26:-1 27:-1 28:-1 29:-1 30:-1 31:-1 32:-1 33:-1 34:-1 35:-1 36:-1 37:-1 38:-1 39:-1 40:-1 41:-1 42:-1 43:-1 44:-1 45:-0.914099 46:-0.916553 47:-1 48:-1 49:-1 50:-1 51:-1 52:-1 53:-0.714476 54:-1 55:-0.996241 56:-0.990789 57:-0.98649 
512 1:-0.665198 2:-1 3:-1 4:-1 5:-1 6:-0.741497 7:-1 8:-1 9:-1 10:-1 11:-1 12:-1 13:-1 14:-1 15:-1 16:-1 17:-1 18:-1 19:-0.672533 20:-1 21:-0.426704 22:-1 23:-1 24:-1 25:-1 26:-1 27:-1 28:-1 29:-1 30:-1 31:-1 32:-1 33:-1 34:-1 35:-1 36:-1 37:-1 38:-1 39:-1 40:-1 41:-1 42:-1 43:-1 44:-1 45:-1 46:-1 47:-1 48:-1 49:-1 50:-0.948113 51:-1 52:-0.98442 53:-1 54:-1 55:-0.997703 56:-0.998398 57:-0.992172 
156.6262347137215 1:-1 2:-1 3:-0.380392 4:-1 5:-1 6:-1 7:-1 8:-1 9:-1 10:-1 11:-1 12:-1 13:-1 14:-1 15:-1 16:-1 17:-1 18:-1 19:-1 20:-1 21:-1 22:-1 23:-1 24:-1 25:-1 26:-1 27:-1 28:-1 29:-1 30:-1 31:-1 32:-1 33:-1 34:-1 35:-1 36:-0.336134 37:-1 38:-1 39:-0.675897 40:-1 41:-1 42:-1 43:-1 44:-1 45:-1 46:-1 47:-1 48:-1 49:-1 50:-1 51:-1 52:-1 53:-1 54:-1 55:-0.999091 56:-0.998799 57:-0.994949 
38.48563447383236 1:-1 2:-1 3:-0.27451 4:-1 5:-1 6:-1 7:-1 8:-1 9:-1 10:-0.79648 11:-1 12:-0.617373 13:-0.333333 14:-1 15:-1 16:-1 17:-1 18:-1 19:-0.408 20:-1 21:-1 22:-1 23:-1 24:-1 25:-1 26:-1 27:-1 28:-1 29:-1 30:-1 31:-1 32:-1 33:-1 34:-1 35:-1 36:-1 37:-1 38:-1 39:-1 40:-1 41:-1 42:-1 43:-1 44:-1 45:-1 46:-1 47:-1 48:-1 49:-1 50:-1 51:-1 52:-0.957387 53:-1 54:-1 55:-0.998575 56:-0.999199 57:-0.997727 
512 1:-1 2:-0.984594 3:-0.956863 4:-1 5:-0.925193 6:-1 7:-1 8:-1 9:-0.958175 10:-0.924092 11:-0.739464 12:-0.95243 13:-0.96036 14:-1 15:-1 16:-1 17:-1 18:-0.975798 19:-0.9136 20:-1 21:-0.914099 22:-1 23:-0.875229 24:-1 25:-1 26:-1 27:-1 28:-1 29:-1 30:-1 31:-1 32:-1 33:-1 34:-1 35:-1 36:-0.953782 37:-0.933237 38:-1 39:-0.977436 40:-1 41:-1 42:-1 43:-1 44:-1 45:-1 46:-0.916553 47:-1 48:-1 49:-0.992246 50:-0.968622 51:-1 52:-0.998953 53:-0.977345 54:-0.99541 55:-0.995216 56:-0.993192 57:-0.937121 
97.36051864384304 1:-1 2:-1 3:-1 4:-1 5:-0.458746 6:-1 7:-1 8:-1 9:-1 10:-0.864686 11:-1 12:-1 13:-1 14:-1 15:-1 16:-1 17:-1 18:-1 19:-0.7376 20:-1 21:-0.770308 22:-1 23:-1 24:-1 25:-1 26:-1 27:-1 28:-1 29:-1 30:-1 31:-1 32:-1 33:-1 34:-1 35:-1 36:-1 37:-1 38:-1 39:-1 40:-1 41:-1 42:-1 43:-1 44:-0.754 45:-1 46:-1 47:-1 48:-1 49:-0.888255 50:-1 51:-1 52:-1 53:-1 54:-1 55:-0.999675 56:-0.9996 57:-0.998359 
135.9434709319239 1:-1 2:-1 3:-1 4:-1 5:-1 6:-1 7:-1 8:-1 9:-1 10:-0.850385 11:-1 12:-1 13:-1 14:-1 15:-0.38322 16:-1 17:-1 18:-1 19:-1 20:-1 21:-1 22:-1 23:-1 24:-1 25:-0.869419 26:-0.836735 27:-1 28:-1 29:-1 30:-1 31:-1 32:-1 33:-0.673469 34:-1 35:-1 36:-1 37:-0.605225 38:-1 39:-1 40:-1 41:-1 42:-1 43:-0.238095 44:-1 45:-1 46:-1 47:-1 48:-1 49:-1 50:-0.917145 51:-0.901005 52:-1 53:-1 54:-1 55:-0.995036 56:-0.996796 57:-0.993434 
512 1:-1 2:-1 3:-1 4:-1 5:-1 6:-1 7:-1 8:-1 9:-1 10:-1 11:-0.708812 12:-0.960703 13:-1 14:-1 15:-1 16:-1 17:-1 18:-1 19:-0.858133 20:-1 21:-0.929038 22:-1 23:-1 24:-1 25:-0.981757 26:-1 27:-1 28:-1 29:-1 30:-1 31:-1 32:-1 33:-1 34:-1 35:-1 36:-1 37:-1 38:-1 39:-1 40:-0.920168 41:-1 42:-1 43:-1 44:-1 45:-1 46:-1 47:-1 48:-1 49:-1 50:-0.968417 51:-1 52:-0.998153 53:-1 54:-0.9919 55:-0.99637 56:-0.997797 57:-0.951136 
486.9436026628391 1:-0.969163 2:-1 3:-0.941176 4:-1 5:-0.663366 6:-0.94898 7:-1 8:-0.848185 9:-1 10:-1 11:-0.94636 12:-0.90486 13:-0.834234 14:-1 15:-1 16:-1 17:-0.980392 18:-1 19:-0.918933 20:-1 21:-0.929038 22:-1 23:-1 24:-1 25:-0.933749 26:-1 27:-1 28:-1 29:-1 30:-1 31:-1 32:-1 33:-1 34:-1 35:-1 36:-1 37:-0.956459 38:-1 39:-1 40:-1 41:-1 42:-0.990196 43:-1 44:-1 45:-0.943044 46:-1 47:-1 48:-1 49:-1 50:-0.995488 51:-1 52:-1 53:-0.989005 54:-1 55:-0.998618 56:-0.992992 57:-0.972348 
136.8252897785139 1:-1 2:-1 3:-1 4:-1 5:-0.768977 6:-1 7:-1 8:-1 9:-1 10:-1 11:-1 12:-1 13:-1 14:-1 15:-1 16:-1 17:-1 18:-1 19:-1 20:-1 21:-1 22:-1 23:-1 24:-1 25:-1 26:-1 27:-1 28:-1 29:-1 30:-1 31:-1 32:-1 33:-0.620648 34:-1 35:-1 36:-1 37:-1 38:-1 39:-1 40:-1 41:-1 42:-1 43:-1 44:-1 45:-1 46:-1 47:-1 48:-1 49:-1 50:-0.985234 51:-1 52:-1 53:-1 54:-1 55:-0.999048 56:-0.998198 57:-0.993182 
512 1:-1 2:-1 3:-0.768627 4:-1 5:-0.958196 6:-1 7:-1 8:-1 9:-1 10:-1 11:-1 12:-0.919338 13:-0.931532 14:-1 15:-1 16:-0.981 17:-0.946779 18:-0.958196 19:-0.7664 20:-1 21:-0.889823 22:-1 23:-1 24:-1 25:-1 26:-1 27:-1 28:-1 29:-1 30:-1 31:-1 32:-1 33:-1 34:-1 35:-1 36:-1 37:-1 38:-1 39:-1 40:-1 41:-1 42:-1 43:-1 44:-1 45:-0.963585 46:-0.982766 47:-1 48:-1 49:-1 50:-0.95242 51:-1 52:-1 53:-0.98734 54:-1 55:-0.999747 56:-0.999399 57:-0.988005 
512 1:-1 2:-1 3:-1 4:-1 5:-0.641364 6:-1 7:-1 8:-1 9:-1 10:-1 11:-1 12:-1 13:-1 14:-1 15:-1 16:-1 17:-1 18:-1 19:-0.476267 20:-1 21:-1 22:-1 23:-1 24:-1 25:-1 26:-1 27:-1 28:-1 29:-1 30:-1 31:-1 32:-1 33:-1 34:-1 35:-1 36:-1 37:-1 38:-1 39:-1 40:-1 41:-1 42:-1 43:-1 44:-1 45:-1 46:-1 47:-1 48:-1 49:-1 50:-1 51:-1 52:-1 53:-1 54:-1 55:-0.998493 56:-0.999199 57:-0.994318 
512 1:-1 2:-1 3:-0.94902 4:-1 5:-1 6:-1 7:-1 8:-1 9:-0.95057 10:-1 11:-1 12:-0.944157 13:-1 14:-1 15:-1 16:-1 17:-1 18:-1 19:-1 20:-1 21:-1 22:-1 23:-1 24:-0.973333 25:-1 26:-1 27:-1 28:-1 29:-1 30:-0.945378 31:-1 32:-1 33:-1 34:-1 35:-1 36:-1 37:-1 38:-1 39:-1 40:-1 41:-1 42:-1 43:-1 44:-1 45:-0.961718 46:-1 47:-1 48:-1 49:-1 50:-0.985234 51:-1 52:-0.998522 53:-1 54:-1 55:-0.998695 56:-0.998598 57:-0.976136 
512 1:-1 2:-0.904762 3:-0.866667 4:-1 5:-1 6:-1 7:-1 8:-0.887789 9:-1 10:-1 11:-0.739464 12:-1 13:-1 14:-1 15:-1 16:-0.828 17:-1 18:-1 19:-0.890133 20:-1 21:-0.615313 22:-1 23:-1 24:-1 25:-1 26:-1 27:-1 28:-1 29:-1 30:-1 31:-1 32:-1 33:-1 34:-1 35:-1 36:-1 37:-1 38:-1 39:-1 40:-0.857143 41:-1 42:-1 43:-1 44:-1 45:-0.968254 46:-1 47:-1 48:-1 49:-1 50:-0.990566 51:-1 52:-1 53:-1 54:-1 55:-0.995406 56:-0.978775 57:-0.975631 
512 1:-1 2:-1 3:-1 4:-1 5:-1 6:-1 7:-1 8:-1 9:-1 10:-1 11:-1 12:-1 13:-1 14:-1 15:-1 16:-1 17:-1 18:-1 19:-1 20:-1 21:-0.940243 22:-1 23:-1 24:-1 25:-1 26:-1 27:-1 28:-1 29:-1 30:-1 31:-1 32:-1 33:-1 34:-1 35:-1 36:-1 37:-1 38:-1 39:-1 40:-1 41:-1 42:-1 43:-1 44:-1 45:-0.970121 46:-1 47:-1 48:-1 49:-0.90057 50:-0.955291 51:-1 52:-0.996675 53:-1 54:-1 55:-0.997727 56:-0.998398 57:-0.98649 
512 1:-1 2:-1 3:-1 4:-1 5:-0.788779 6:-0.836735 7:-1 8:-1 9:-0.81749 10:-1 11:-0.632184 12:-0.900724 13:-1 14:-1 15:-1 16:-0.856 17:-1 18:-0.577558 19:-0.8976 20:-1 21:-0.731092 22:-1 23:-0.823853 24:-1 25:-1 26:-1 27:-1 28:-1 29:-1 30:-1 31:-1 32:-1 33:-1 34:-1 35:-1 36:-1 37:-1 38:-1 39:-1 40:-1 41:-1 42:-1 43:-0.731092 44:-1 45:-1 46:-1 47:-1 48:-1 49:-1 50:-1 51:-1 52:-0.958988 53:-1 54:-1 55:-0.993264 56:-0.994794 57:-0.982197 
210.6797632710799 1:-1 2:-1 3:-1 4:-1 5:-1 6:-0.588435 7:-1 8:-1 9:-1 10:-1 11:-1 12:-1 13:-1 14:-1 15:-1 16:-1 17:-1 18:-1 19:-0.870933 20:-1 21:-1 22:-1 23:-1 24:-1 25:-1 26:-1 27:-1 28:-1 29:-1 30:-1 31:-1 32:-1 33:-1 34:-1 35:-1 36:-1 37:-0.648766 38:-1 39:-1 40:-1 41:-1 42:-1 43:-1 44:-1 45:-0.887021 46:-1 47:-1 48:-1 49:-1 50:-0.956522 51:-1 52:-1 53:-1 54:-1 55:-0.999204 56:-0.999199 57:-0.994444 
512 1:-1 2:-1 3:-1 4:-1 5:-1 6:-1 7:-1 8:-1 9:-1 10:-1 11:-1 12:-1 13:-1 14:-1 15:-1 16:-0.962 17:-1 18:-0.916392 19:-0.7536 20:-1 21:-0.856209 22:-1 23:-1 24:-1 25:-1 26:-1 27:-1 28:-1 29:-1 30:-1 31:-1 32:-1 33:-1 34:-1 35:-1 36:-1 37:-1 38:-1 39:-1 40:-1 41:-1 42:-1 43:-1 44:-1 45:-0.964519 46:-1 47:-1 48:-1 49:-1 50:-0.955701 51:-1 52:-0.990024 53:-1 54:-0.985419 55:-0.992024 56:-0.986183 57:-0.963636 
512 1:-1 2:-1 3:-0.686275 4:-1 5:-0.467547 6:-1 7:-1 8:-1 9:-1 10:-1 11:-1 12:-0.91727 13:-1 14:-1 15:-1 16:-1 17:-1 18:-0.911991 19:-0.438933 20:-1 21:-0.699346 22:-1 23:-1 24:-1 25:-0.961594 26:-0.951981 27:-1 28:-1 29:-1 30:-1 31:-1 32:-1 33:-1 34:-1 35:-1 36:-1 37:-1 38:-1 39:-1 40:-1 41:-1 42:-1 43:-1 44:-1 45:-0.849673 46:-1 47:-1 48:-1 49:-1 50:-1 51:-1 52:-0.983373 53:-1 54:-1 55:-0.997335 56:-0.993192 57:-0.992677 
512 1:-1 2:-1 3:-1 4:-1 5:-1 6:-1 7:-1 8:-1 9:-1 10:-1 11:-1 12:-1 13:-1 14:-1 15:-1 16:-1 17:-1 18:-1 19:-1 20:-1 21:-1 22:-1 23:-1 24:-1 25:-1 26:-1 27:-1 28:-1 29:-1 30:-1 31:-1 32:-1 33:-1 34:-1 35:-1 36:-1 37:-1 38:-1 39:-1 40:-1 41:-1 42:-1 43:-1 44:-1 45:-1 46:-1 47:-1 48:-1 49:-1 50:-1 51:-1 52:-0.86009 53:-1 54:-1 55:-0.99853 56:-0.998799 57:-0.998359 
512 1:-1 2:-1 3:-1 4:-1 5:-0.872387 6:-1 7:-1 8:-1 9:-1 10:-1 11:-1 12:-1 13:-1 14:-1 15:-1 16:-1 17:-1 18:-1 19:-0.9072 20:-1 21:-0.945845 22:-1 23:-1 24:-1 25:-0.972156 26:-0.965186 27:-0.982598 28:-0.872387 29:-1 30:-1 31:-1 32:-1 33:-1 34:-0.878151 35:-0.942 36:-1 37:-1 38:-1 39:-1 40:-1 41:-1 42:-1 43:-1 44:-1 45:-1 46:-1 47:-1 48:-1 49:-1 50:-0.954881 51:-1 52:-1 53:-0.321006 54:-1 55:-0.975381 56:-0.929916 57:-0.945328 
512 1:-1 2:-1 3:-0.509804 4:-1 5:-0.863586 6:-1 7:-1 8:-1 9:-1 10:-1 11:-1 12:-0.741468 13:-1 14:-1 15:-1 16:-0.812 17:-1 18:-1 19:-0.530667 20:-1 21:-1 22:-1 23:-1 24:-0.74359 25:-1 26:-1 27:-1 28:-1 29:-1 30:-1 31:-1 32:-1 33:-1 34:-1 35:-1 36:-1 37:-1 38:-1 39:-1 40:-1 41:-1 42:-1 43:-1 44:-1 45:-1 46:-1 47:-1 48:-1 49:-1 50:-0.932937 51:-1 52:-1 53:-0.963685 54:-0.970568 55:-0.998618 56:-0.998398 57:-0.992803 
512 1:-1 2:-1 3:-0.862745 4:-1 5:-0.922992 6:-1 7:-1 8:-1 9:-0.86692 10:-1 11:-1 12:-1 13:-1 14:-1 15:-1 16:-1 17:-1 18:-1 19:-0.850667 20:-1 21:-0.346405 22:-0.877193 23:-1 24:-1 25:-1 26:-1 27:-1 28:-1 29:-1 30:-1 31:-1 32:-1 33:-1 34:-1 35:-1 36:-1 37:-0.898403 38:-1 39:-1 40:-1 41:-1 42:-1 43:-1 44:-1 45:-1 46:-0.968254 47:-1 48:-1 49:-1 50:-0.866694 51:-1 52:-1 53:-1 54:-0.986499 55:-0.997094 56:-0.996796 57:-0.971591 
42.07762699391917 1:-1 2:-1 3:-1 4:-1 5:-1 6:-1 7:-1 8:-1 9:1 10:-1 11:-1 12:-1 13:-1 14:-1 15:-1 16:-1 17:-0.263305 18:-1 19:-0.719467 20:-1 21:-0.0177404 22:-1 23:-1 24:-1 25:-1 26:-1 27:-1 28:-1 29:-1 30:-1 31:-1 32:-1 33:-1 34:-1 35:-1 36:-1 37:-1 38:-1 39:-1 40:-1 41:-1 42:-1 43:-1 44:-1 45:-1 46:-1 47:-1 48:-1 49:-1 50:-1 51:-1 52:-1 53:-1 54:-1 55:-0.997927 56:-0.997998 57:-0.995707 
512 1:-0.960352 2:-0.987395 3:-0.890196 4:-1 5:-0.938394 6:-1 7:-1 8:-0.907591 9:-1 10:-1 11:-1 12:-0.981386 13:-0.935135 14:-1 15:-1 16:-1 17:-0.94958 18:-0.938394 19:-0.869867 20:-1 21:-0.930906 22:-1 23:-0.966972 24:-1 25:-1 26:-1 27:-1 28:-1 29:-1 30:-1 31:-1 32:-1 33:-1 34:-1 35:-1 36:-0.962185 37:-0.918723 38:-1 39:-1 40:-0.962185 41:-1 42:-1 43:-1 44:-0.972 45:-0.965453 46:-0.991837 47:-1 48:-1 49:-0.993615 50:-0.982773 51:-1 52:-0.997414 53:-1 54:-0.988659 55:-0.998281 56:-0.996596 57:-0.930429 
105.7006158494434 1:-1 2:-1 3:-1 4:-1 5:-1 6:-1 7:-1 8:-1 9:-1 10:-1 11:-1 12:-1 13:-1 14:-1 15:-1 16:-1 17:-1 18:-1 19:-0.6448 20:-1 21:0.243697 22:-1 23:-1 24:-1 25:-1 26:-1 27:-1 28:-1 29:-1 30:-1 31:-1 32:-1 33:-1 34:-1 35:-1 36:-1 37:-1 38:-1 39:-1 40:-1 41:-1 42:-1 43:-1 44:-1 45:-1 46:-1 47:-1 48:-1 49:-1 50:-1 51:-1 52:-1 53:-1 54:-1 55:-0.999412 56:-0.9996 57:-0.998485 
354.7401178728189 1:-1 2:-1 3:-1 4:-1 5:-1 6:-1 7:-1 8:-1 9:-1 10:-1 11:-1 12:-1 13:-1 14:-1 15:-1 16:-1 17:-1 18:-1 19:-1 20:-1 21:-1 22:-1 23:-0.222018 24:-1 25:-1 26:-1 27:-1 28:-1 29:-1 30:-1 31:-1 32:-1 33:-1 34:-1 35:-1 36:-1 37:-1 38:-1 39:-1 40:-1 41:-1 42:-1 43:-1 44:-1 45:-1 46:-1 47:-1 48:-1 49:-1 50:-0.745898 51:-1 52:-1 53:-1 54:-1 55:-0.997715 56:-0.999199 57:-0.998485 
3.968562549502185 1:-1 2:-1 3:-1 4:-1 5:-1 6:-1 7:-1 8:-1 9:-1 10:-1 11:-1 12:-1 13:-1 14:-1 15:-1 16:-1 17:-1 18:-1 19:-1 20:-1 21:-1 22:-1 23:-1 24:-1 25:0.745559 26:0.0912365 27:-1 28:-1 29:-1 30:-1 31:-1 32:-1 33:-1 34:-1 35:-1 36:-1 37:-1 38:-1 39:-1 40:-1 41:-1 42:-1 43:-1 44:-1 45:-1 46:-1 47:-1 48:-1 49:-1 50:-1 51:-1 52:-1 53:-1 54:-1 55:-0.99804 56:-0.9996 57:-0.999621 
81.88543710747342 1:-1 2:-0.827731 3:-1 4:-1 5:-1 6:-1 7:-1 8:-1 9:-1 10:-0.864686 11:-1 12:-0.873837 13:-0.113514 14:-1 15:-1 16:-1 17:-1 18:-1 19:-0.671467 20:-1 21:-0.770308 22:-1 23:-1 24:-1 25:-1 26:-1 27:-0.963396 28:-1 29:-1 30:-1 31:-1 32:-1 33:-1 34:-1 35:-1 36:-1 37:-1 38:-1 39:-1 40:-1 41:-1 42:-1 43:-1 44:-1 45:-1 46:-1 47:-1 48:-1 49:-1 50:-0.954061 51:-1 52:-1 53:-1 54:-1 55:-1 56:-1 57:-0.997601 
23.54706976282137 1:-1 2:-1 3:-1 4:-1 5:-1 6:-1 7:-1 8:-1 9:-1 10:-1 11:-1 12:-1 13:-1 14:-1 15:-1 16:-1 17:-1 18:-1 19:0.5232 20:-1 21:0.333333 22:-1 23:-1 24:-1 25:-1 26:-1 27:-1 28:-1 29:-1 30:-1 31:-1 32:-1 33:-1 34:-1 35:-1 36:-1 37:-1 38:-1 39:-1 40:-1 41:-1 42:-1 43:-1 44:-1 45:-0.333333 46:-1 47:-1 48:-1 49:-1 50:-1 51:-1 52:-1 53:-1 54:-1 55:-1 56:-1 57:-0.999747 
512 1:-1 2:-1 3:-1 4:-1 5:-1 6:-1 7:-0.757909 8:-1 9:-1 10:-1 11:-1 12:-0.817994 13:-1 14:-1 15:-1 16:-1 17:-1 18:-1 19:-0.906133 20:-1 21:-1 22:-1 23:-1 24:-1 25:-1 26:-1 27:-1 28:-1 29:-1 30:-1 31:-1 32:-1 33:-0.577431 34:-1 35:-1 36:-1 37:-1 38:-1 39:-1 40:-1 41:-1 42:-1 43:-1 44:-1 45:-1 46:-1 47:-1 48:-1 49:-1 50:-0.972724 51:-1 52:-1 53:-1 54:-1 55:-0.998767 56:-0.998398 57:-0.994571 
462.3557613027808 1:-0.726872 2:-1 3:-1 4:-1 5:-1 6:-1 7:-1 8:-1 9:-1 10:-1 11:-1 12:-1 13:-1 14:-1 15:-1 16:-1 17:-1 18:-1 19:-1 20:-1 21:-1 22:-1 23:-1 24:-1 25:-1 26:-1 27:-1 28:-1 29:-1 30:-1 31:-1 32:-1 33:-1 34:-1 35:-1 36:-0.739496 37:-1 38:-1 39:-1 40:-1 41:-1 42:-1 43:-1 44:-1 45:-1 46:-1 47:-1 48:-1 49:-1 50:-0.941345 51:-1 52:-1 53:-1 54:-1 55:-0.999097 56:-0.999399 57:-0.995328 
14.74655316487423 1:-1 2:-1 3:0.32549 4:-1 5:-1 6:-1 7:-1 8:-1 9:-1 10:-1 11:-1 12:-1 13:-1 14:-1 15:-1 16:-1 17:-1 18:-1 19:-1 20:-1 21:-0.684407 22:-1 23:-1 24:-1 25:-1 26:-1 27:-1 28:-1 29:-1 30:-1 31:-1 32:-1 33:-1 34:-1 35:-1 36:-1 37:-1 38:-1 39:-1 40:-1 41:-1 42:-1 43:-1 44:-1 45:-1 46:-1 47:-1 48:-1 49:-1 50:-1 51:-1 52:-1 53:-1 54:-1 55:-0.999565 56:-0.9996 57:-0.998737 
512 1:-1 2:-1 3:-1 4:-1 5:-1 6:-1 7:-1 8:-1 9:-1 10:-1 11:-1 12:-0.880041 13:-1 14:-1 15:-1 16:-0.942 17:-1 18:-1 19:-0.690667 20:-1 21:-0.89169 22:-0.932164 23:-1 24:-1 25:-1 26:-1 27:-1 28:-1 29:-1 30:-1 31:-1 32:-1 33:-1 34:-1 35:-1 36:-1 37:-1 38:-1 39:-1 40:-1 41:-1 42:-1 43:-1 44:-1 45:-1 46:-0.947392 47:-1 48:-1 49:-1 50:-0.962059 51:-1 52:-1 53:-1 54:-0.975159 55:-0.997123 56:-0.997998 57:-0.990152 
2.375226213915153 1:-1 2:-1 3:-1 4:-1 5:-1 6:-1 7:-1 8:-1 9:-1 10:-1 11:-1 12:-1 13:-1 14:-1 15:-1 16:-0.63 17:-1 18:-1 19:-1 20:-1 21:-1 22:-1 23:-1 24:-1 25:-1 26:-1 27:-1 28:-1 29:-1 30:-1 31:-1 32:-1 33:-1 34:-1 35:-1 36:-1 37:-1 38:0.776711 39:-1 40:-1 41:-1 42:-1 43:-1 44:-1 45:-1 46:-1 47:-1 48:-1 49:-1 50:-1 51:-1 52:-1 53:-1 54:-1 55:-0.999467 56:-0.9996 57:-0.998359 
512 1:-1 2:-1 3:-0.713725 4:-1 5:-0.920792 6:-0.877551 7:-1 8:-1 9:-1 10:-1 11:-1 12:-1 13:-1 14:-1 15:-1 16:-1 17:-1 18:-1 19:-0.7664 20:-1 21:-1 22:-1 23:-1 24:-1 25:-1 26:-1 27:-1 28:-1 29:-1 30:-1 31:-1 32:-1 33:-1 34:-1 35:-1 36:-1 37:-1 38:-1 39:-1 40:-1 41:-1 42:-1 43:-1 44:-1 45:-1 46:-1 47:-1 48:-1 49:-1 50:-1 51:-1 52:-0.606688 53:-1 54:-1 55:-0.999743 56:-0.999399 57:-0.991414 
512 1:-1 2:-1 3:-1 4:-1 5:-1 6:-1 7:-1 8:-1 9:-1 10:-1 11:-1 12:-1 13:-1 14:-1 15:-1 16:-1 17:-1 18:-0.421342 19:-0.438933 20:-1 21:-1 22:-1 23:-1 24:-1 25:-1 26:-1 27:-1 28:-1 29:-1 30:-1 31:-1 32:-1 33:-1 34:-1 35:-1 36:-1 37:-1 38:-1 39:-1 40:-1 41:-1 42:-1 43:-1 44:-1 45:-1 46:-1 47:-1 48:-1 49:-1 50:-1 51:-1 52:-1 53:-1 54:-1 55:-0.998775 56:-0.9996 57:-0.998485 
512 1:-1 2:-1 3:-1 4:-1 5:-1 6:-1 7:-1 8:-1 9:-1 10:-1 11:-1 12:-1 13:-1 14:-1 15:-1 16:-1 17:-1 18:-1 19:-1 20:-1 21:-1 22:-1 23:-1 24:-1 25:-1 26:-1 27:-1 28:-1 29:-1 30:-1 31:-1 32:-1 33:-1 34:-1 35:-1 36:-1 37:-1 38:-1 39:-1 40:-1 41:-1 42:-1 43:-1 44:-1 45:-1 46:-1 47:-1 48:-1 49:-1 50:-1 51:-1 52:-0.919022 53:-1 54:-1 55:-1 56:-1 57:-0.999242 
512 1:-0.823789 2:-1 3:-0.682353 4:-1 5:-1 6:-1 7:-1 8:-1 9:-1 10:-1 11:-1 12:-1 13:-1 14:-1 15:-1 16:-0.96 17:-1 18:-0.821782 19:-0.869867 20:-1 21:-0.848739 22:-1 23:-1 24:-1 25:-1 26:-1 27:-1 28:-1 29:-1 30:-1 31:-1 32:-1 33:-1 34:-1 35:-1 36:-1 37:-1 38:-1 39:-1 40:-1 41:-1 42:-1 43:-1 44:-1 45:-0.886088 46:-1 47:-1 48:-1 49:-1 50:-0.954266 51:-1 52:-1 53:-1 54:-0.985149 55:-0.992651 56:-0.986183 57:-0.96654 
263.9438137639608 1:-1 2:-1 3:0.152941 4:-1 5:-1 6:-1 7:-1 8:-1 9:-1 10:-1 11:-1 12:-1 13:-1 14:-1 15:-1 16:-1 17:-1 18:-1 19:-0.6864 20:-1 21:-1 22:-1 23:-1 24:-1 25:-1 26:-1 27:-1 28:-1 29:-1 30:-1 31:-1 32:-1 33:-1 34:-1 35:-1 36:-1 37:-1 38:-1 39:-1 40:-1 41:-1 42:-1 43:-1 44:-1 45:-1 46:-1 47:-1 48:-1 49:-1 50:-1 51:-1 52:-0.968902 53:-1 54:-1 55:-0.997305 56:-0.999399 57:-0.997727 
468.7727329011194 1:-1 2:-1 3:-0.870588 4:-1 5:-1 6:-0.833333 7:-1 8:-0.564356 9:-0.939163 10:-0.436744 11:-1 12:-1 13:-1 14:-0.868 15:-1 16:-1 17:-0.907563 18:-1 19:-0.9648 20:-1 21:-1 22:-1 23:-1 24:-1 25:-1 26:-1 27:-1 28:-1 29:-1 30:-1 31:-1 32:-1 33:-1 34:-1 35:-0.984 36:-1 37:-1 38:-1 39:-1 40:-1 41:-1 42:-0.977591 43:-1 44:-1 45:-1 46:-0.970068 47:-1 48:-1 49:-1 50:-0.985644 51:-0.988728 52:-1 53:-1 54:-0.99379 55:-0.998918 56:-0.998198 57:-0.981313 
303.6728539650414 1:-1 2:-1 3:-1 4:-1 5:-0.931793 6:-1 7:-1 8:-1 9:-1 10:-1 11:-1 12:-0.935884 13:-1 14:-1 15:-1 16:-1 17:-1 18:-1 19:-1 20:-1 21:-1 22:-1 23:-1 24:-1 25:-0.970235 26:-1 27:-1 28:-0.861386 29:-1 30:-0.735294 31:-1 32:-1 33:-0.848739 34:-1 35:-0.969 36:-1 37:-1 38:-1 39:-1 40:-1 41:-1 42:-1 43:-1 44:-1 45:-1 46:-1 47:-1 48:-1 49:-1 50:-0.990771 51:-1 52:-1 53:-1 54:-1 55:-0.998407 56:-0.997998 57:-0.986616 
55.83975623889759 1:-1 2:-1 3:-1 4:-1 5:-1 6:-1 7:-1 8:-1 9:-1 10:-1 11:-1 12:-1 13:-1 14:-1 15:-1 16:-1 17:-1 18:-1 19:-0.5264 20:-1 21:-0.170868 22:-1 23:-1 24:-1 25:-1 26:-1 27:-1 28:-1 29:-1 30:-1 31:-1 32:-1 33:-1 34:-1 35:-1 36:-1 37:-1 38:-1 39:-1 40:-1 41:-1 42:-1 43:-1 44:-1 45:-0.792717 46:-1 47:-1 48:-1 49:-1 50:-1 51:-1 52:-0.976415 53:-1 54:-1 55:-0.999347 56:-0.9996 57:-0.999116 
512 1:-1 2:-1 3:-0.776471 4:-1 5:-0.812981 6:-1 7:-1 8:-1 9:-0.893536 10:-1 11:-0.563218 12:-0.942089 13:-1 14:-1 15:-1 16:-0.915 17:-1 18:-0.874587 19:-0.848533 20:-1 21:-0.84127 22:-1 23:-1 24:-1 25:-1 26:-1 27:-1 28:-1 29:-1 30:-1 31:-1 32:-1 33:-1 34:-1 35:-1 36:-1 37:-1 38:-1 39:-1 40:-1 41:-1 42:-1 43:-1 44:-1 45:-1 46:-1 47:-1 48:-1 49:-0.963512 50:-1 51:-1 52:-0.982634 53:-0.919374 54:-1 55:-0.997139 56:-0.994994 57:-0.965025 
512 1:-0.828194 2:-1 3:-1 4:-1 5:-0.742574 6:-1 7:-1 8:-1 9:-1 10:-0.957096 11:-1 12:-0.758014 13:-1 14:-1 15:-1 16:-1 17:-1 18:-0.914191 19:-0.6672 20:-0.957096 21:-0.781513 22:-1 23:-1 24:-1 25:-1 26:-1 27:-0.976598 28:-0.828383 29:-1 30:-1 31:-1 32:-1 33:-1 34:-1 35:-1 36:-1 37:-1 38:-1 39:-1 40:-0.836134 41:-1 42:-1 43:-1 44:-1 45:-1 46:-1 47:-1 48:-1 49:-0.968073 50:-0.985644 51:-1 52:-0.995689 53:-1 54:-1 55:-0.997905 56:-0.997597 57:-0.988889 
118.5009424234272 1:-1 2:-1 3:-1 4:-1 5:-0.870187 6:-1 7:-1 8:-1 9:-1 10:-0.870187 11:-1 12:-0.877973 13:-1 14:-1 15:-1 16:-1 17:-1 18:-1 19:-0.8112 20:-1 21:-1 22:-1 23:-1 24:-1 25:-0.943351 26:-0.929172 27:-1 28:-0.740374 29:-1 30:-1 31:-1 32:-1 33:-0.858343 34:-1 35:-1 36:-1 37:-1 38:-1 39:-1 40:-1 41:-1 42:-1 43:-1 44:-1 45:-1 46:-1 47:-1 48:-1 49:-1 50:-0.955906 51:-1 52:-0.993411 53:-1 54:-1 55:-0.996588 56:-0.997998 57:-0.989394 
171.0110267734847 1:-1 2:-1 3:-1 4:-1 5:-1 6:-1 7:-1 8:-1 9:-1 10:-0.859186 11:-1 12:-1 13:-1 14:-1 15:-1 16:-1 17:-1 18:-1 19:-0.726933 20:-1 21:-1 22:-1 23:-1 24:-1 25:-1 26:-1 27:-1 28:-1 29:-1 30:-1 31:-1 32:-1 33:-1 34:-1 35:-1 36:-1 37:-1 38:-1 39:-0.737436 40:-1 41:-1 42:-1 43:-1 44:-1 45:-1 46:-1 47:-1 48:-1 49:-1 50:-1 51:-1 52:-0.985713 53:-1 54:-1 55:-0.99942 56:-0.998598 57:-0.995707 
512 1:-1 2:-0.952381 3:-1 4:-1 5:-0.850385 6:-1 7:-0.81293 8:-1 9:-1 10:-0.962596 11:-0.739464 12:-1 13:-1 14:-1 15:-1 16:-0.966 17:-1 18:-0.70077 19:-0.6352 20:-1 21:-0.490196 22:-1 23:-1 24:-1 25:-0.967355 26:-0.959184 27:-1 28:-1 29:-1 30:-1 31:-1 32:-1 33:-0.918367 34:-1 35:-1 36:-1 37:-1 38:-1 39:-1 40:-1 41:-1 42:-1 43:-1 44:-1 45:-1 46:-1 47:-1 48:-1 49:-1 50:-1 51:-1 52:-0.997044 53:-0.984008 54:-1 55:-0.999195 56:-0.997197 57:-0.988005 
327.8496901196975 1:-0.977974 2:-1 3:-0.960784 4:-1 5:-1 6:-0.965986 7:-1 8:-0.983498 9:-0.813688 10:-1 11:-1 12:-0.944157 13:-1 14:-1 15:-1 16:-1 17:-0.893557 18:-1 19:-0.9776 20:-1 21:-0.981326 22:-1 23:-1 24:-1 25:-0.952952 26:-0.935174 27:-0.997 28:-1 29:-1 30:-1 31:-1 32:-1 33:-0.908764 34:-1 35:-1 36:-0.840336 37:-0.939042 38:-1 39:-1 40:-1 41:-1 42:-1 43:-1 44:-1 45:-1 46:-1 47:-1 48:-1 49:-0.859521 50:-0.972108 51:-0.961774 52:-1 53:-0.995336 54:-1 55:-0.994679 56:-0.978775 57:-0.825126 
512 1:-1 2:-1 3:-0.737255 4:-1 5:-1 6:-1 7:-1 8:-1 9:-1 10:-1 11:-1 12:-0.791107 13:-0.881081 14:-1 15:-1 16:-1 17:-1 18:-1 19:-0.856 20:-1 21:-0.938375 22:-1 23:-0.878899 24:-1 25:-1 26:-1 27:-1 28:-1 29:-1 30:-1 31:-1 32:-1 33:-1 34:-1 35:-1 36:-1 37:-1 38:-1 39:-1 40:-1 41:-1 42:-1 43:-1 44:-1 45:-0.969188 46:-0.970068 47:-1 48:-1 49:-1 50:-1 51:-1 52:-0.989285 53:-1 54:-1 55:-0.997901 56:-0.990789 57:-0.98548 
137.0378308080457 1:-1 2:-0.914566 3:-1 4:-1 5:-0.731573 6:-1 7:-1 8:-1 9:-1 10:-0.59516 11:-1 12:-1 13:-1 14:-1 15:-0.723356 16:-1 17:-1 18:-1 19:-0.803733 20:-1 21:-0.656396 22:-1 23:-1 24:-1 25:-0.941431 26:-0.926771 27:-1 28:-1 29:-1 30:0.0294118 31:-1 32:-1 33:-1 34:-1 35:-1 36:-1 37:-0.822932 38:-1 39:-1 40:-1 41:-1 42:-1 43:-1 44:-1 45:-1 46:-1 47:-1 48:-1 49:-1 50:-1 51:-1 52:-1 53:-1 54:-1 55:-0.999067 56:-0.998598 57:-0.992298 
512 1:-1 2:-1 3:-1 4:-1 5:-0.828383 6:-1 7:-1 8:-1 9:-0.703422 10:-0.914191 11:-1 12:-0.838676 13:-1 14:-1 15:-1 16:-0.922 17:-1 18:-1 19:-0.8336 20:-1 21:-1 22:-1 23:-1 24:-1 25:-0.925108 26:-0.906363 27:-1 28:-0.656766 29:-1 30:-1 31:-1 32:-1 33:-1 34:-1 35:-1 36:-1 37:-1 38:-1 39:-1 40:-1 41:-1 42:-1 43:-1 44:-1 45:-1 46:-1 47:-1 48:-1 49:-1 50:-0.888433 51:-1 52:-1 53:-0.954689 54:-1 55:-0.996825 56:-0.997998 57:-0.99053 
187.9567919752636 1:-1 2:-1 3:-1 4:-1 5:-0.806381 6:-1 7:-1 8:-1 9:-1 10:-0.708471 11:-0.32567 12:-1 13:-1 14:-1 15:-1 16:-1 17:-1 18:-1 19:-0.812267 20:-1 21:-1 22:-1 23:-1 24:-1 25:-0.831013 26:-0.894358 27:-0.894389 28:-0.806381 29:-0.876751 30:-0.630252 31:-0.8592 32:-0.630252 33:-1 34:-0.630252 35:-0.912 36:-0.630252 37:-0.744557 38:-1 39:-0.819487 40:-0.630252 41:-1 42:-1 43:-0.507003 44:-1 45:-0.752568 46:-1 47:-1 48:-1 49:-0.935234 50:-0.824651 51:-1 52:-0.98245 53:-1 54:-1 55:-0.998477 56:-0.997797 57:-0.990025 
473.8966593369568 1:-1 2:-1 3:-1 4:-1 5:-1 6:-0.748299 7:-1 8:-1 9:-1 10:-1 11:-1 12:-0.846949 13:-0.463063 14:-1 15:-1 16:-1 17:-1 18:-1 19:-0.841067 20:-1 21:-0.721755 22:-1 23:-1 24:-1 25:-1 26:-1 27:-1 28:-1 29:-1 30:-1 31:-1 32:-1 33:-1 34:-1 35:-1 36:-1 37:-1 38:-1 39:-1 40:-1 41:-1 42:-1 43:-1 44:-1 45:-0.930906 46:-1 47:-1 48:-1 49:-1 50:-1 51:-1 52:-1 53:-1 54:-1 55:-0.999294 56:-0.9996 57:-0.995833 
94.30593158092377 1:-1 2:-1 3:-1 4:-1 5:-1 6:-1 7:-1 8:-1 9:-1 10:-0.911991 11:-1 12:-1 13:-1 14:-1 15:-1 16:-0.839 17:-1 18:-1 19:-0.914667 20:-1 21:-0.850607 22:-1 23:-1 24:-1 25:-0.923188 26:-1 27:-1 28:-1 29:-1 30:-1 31:-0.872 32:-1 33:-0.807923 34:-1 35:-1 36:-1 37:-1 38:-1 39:-1 40:-1 41:-1 42:-1 43:-1 44:-1 45:-1 46:-1 47:-1 48:-1 49:-1 50:-0.981747 51:-1 52:-1 53:-1 54:-1 55:-0.997246 56:-0.994594 57:-0.988889 
0.9264066498490435 1:-0.118943 2:-1 3:-1 4:-1 5:-1 6:-1 7:-1 8:-1 9:-1 10:-1 11:0.532567 12:-0.58635 13:-1 14:-1 15:-1 16:-1 17:-1 18:-1 19:-0.786667 20:-1 21:0.493931 22:-1 23:-1 24:-1 25:-1 26:-1 27:-1 28:-1 29:-1 30:-1 31:-1 32:-1 33:-1 34:-1 35:-1 36:-1 37:-1 38:-1 39:-1 40:-1 41:-1 42:-1 43:-1 44:-1 45:-1 46:-1 47:-1 48:-1 49:-1 50:-1 51:-1 52:-1 53:-1 54:-1 55:-0.99042 56:-0.994393 57:-0.993434 
512 1:-1 2:-1 3:-0.772549 4:-1 5:-1 6:-0.802721 7:-1 8:-1 9:-1 10:-1 11:-1 12:-1 13:-1 14:-1 15:-1 16:-1 17:-1 18:-1 19:-0.812267 20:-1 21:-0.781513 22:-1 23:-1 24:-1 25:-1 26:-1 27:-1 28:-1 29:-1 30:-1 31:-1 32:-1 33:-1 34:-1 35:-1 36:-1 37:-1 38:-1 39:-1 40:-1 41:-1 42:-1 43:-1 44:-1 45:-1 46:-1 47:-1 48:-1 49:-1 50:-0.977851 51:-0.947072 52:-0.973397 53:-1 54:-1 55:-1 56:-1 57:-0.995707 
512 1:-0.9163 2:-1 3:-0.847059 4:-1 5:-0.727173 6:-0.955782 7:-1 8:-0.980198 9:-0.878327 10:-1 11:-1 12:-0.906929 13:-0.906306 14:-1 15:-1 16:-1 17:-0.963585 18:-1 19:-0.867733 20:-1 21:-0.927171 22:-1 23:-0.977982 24:-1 25:-0.900144 26:-1 27:-1 28:-1 29:-1 30:-1 31:-1 32:-1 33:-1 34:-1 35:-1 36:-0.97479 37:-1 38:-1 39:-1 40:-1 41:-1 42:-1 43:-1 44:-1 45:-0.963585 46:-1 47:-1 48:-1 49:-1 50:-0.993847 51:-1 52:-1 53:-0.990005 54:-1 55:-0.998881 56:-0.99179 57:-0.962626 
512 1:-1 2:-1 3:-1 4:-1 5:-1 6:-1 7:-1 8:-1 9:-1 10:-1 11:-1 12:-1 13:-1 14:-1 15:-1 16:-1 17:-1 18:-1 19:-1 20:-1 21:-1 22:-1 23:-1 24:-1 25:-1 26:-1 27:-1 28:-1 29:-1 30:-1 31:-1 32:-1 33:-1 34:-1 35:-1 36:-1 37:-1 38:-1 39:-1 40:-1 41:-1 42:-1 43:-1 44:-1 45:-1 46:-1 47:-1 48:-1 49:-1 50:-1 51:-1 52:-0.88386 53:-1 54:-1 55:-0.999265 56:-0.999399 57:-0.998737 
512 1:-1 2:-0.922969 3:-1 4:-1 5:-1 6:-1 7:-1 8:-1 9:-1 10:-1 11:-1 12:-0.654602 13:-1 14:-1 15:-1 16:-1 17:-1 18:-1 19:-0.7024 20:-1 21:-0.688142 22:-1 23:-1 24:-1 25:-1 26:-1 27:-1 28:-1 29:-1 30:-1 31:-1 32:-1 33:-0.867947 34:-1 35:-1 36:-1 37:-1 38:-1 39:-1 40:-1 41:-1 42:-1 43:-1 44:-1 45:-1 46:-1 47:-1 48:-1 49:-1 50:-0.982978 51:-1 52:-1 53:-1 54:-1 55:-0.999232 56:-0.999399 57:-0.995202 
512 1:-1 2:-1 3:-1 4:-1 5:-1 6:-1 7:-1 8:-1 9:-1 10:-1 11:-1 12:-1 13:-1 14:-1 15:-1 16:-1 17:-1 18:-1 19:-1 20:-1 21:-1 22:-1 23:-1 24:-1 25:-1 26:-1 27:-1 28:-1 29:-1 30:-1 31:-1 32:-1 33:-1 34:-1 35:-1 36:-1 37:-1 38:-1 39:-1 40:-1 41:-1 42:-1 43:-1 44:-1 45:-1 46:-1 47:-1 48:-1 49:-1 50:-1 51:-1 52:-1 53:-1 54:-1 55:-0.993631 56:-0.998198 57:-0.99798 
512 1:-1 2:-0.960784 3:-0.890196 4:-1 5:-0.810781 6:-1 7:-1 8:-1 9:-1 10:-0.969197 11:-0.785441 12:-1 13:-1 14:-1 15:-1 16:-1 17:-1 18:-1 19:-0.693867 20:-1 21:-0.678805 22:-1 23:-1 24:-1 25:-0.973116 26:-0.966387 27:-1 28:-1 29:-1 30:-1 31:-1 32:-1 33:-1 34:-1 35:-1 36:-1 37:-1 38:-1 39:-1 40:-1 41:-1 42:-1 43:-1 44:-1 45:-0.946779 46:-1 47:-1 48:-1 49:-1 50:-0.971903 51:-1 52:-1 53:-1 54:-1 55:-0.998138 56:-0.997197 57:-0.980429 
496.4847109906258 1:-0.625551 2:-0.880952 3:-1 4:-1 5:-0.625963 6:-1 7:-1 8:-1 9:-1 10:-0.906491 11:-1 12:-0.824199 13:-1 14:-1 15:-1 16:-1 17:-1 18:-1 19:-1 20:-1 21:-0.84127 22:-1 23:-1 24:-1 25:-1 26:-0.897959 27:-1 28:-1 29:-1 30:-1 31:-1 32:-1 33:-1 34:-1 35:-1 36:-1 37:-1 38:-1 39:-1 40:-1 41:-1 42:-1 43:-1 44:-1 45:-1 46:-1 47:-1 48:-1 49:-1 50:-0.943601 51:-1 52:-1 53:-1 54:-1 55:-0.998922 56:-0.999199 57:-0.996212 
80.98419618051696 1:-1 2:-0.95098 3:-0.862745 4:-1 5:-0.962596 6:-1 7:-1 8:-1 9:-0.935361 10:-0.961496 11:-1 12:-0.745605 13:-1 14:-0.824 15:-1 16:-1 17:-0.952381 18:-1 19:-0.8496 20:-1 21:-0.869281 22:-1 23:-1 24:-1 25:-0.983677 26:-1 27:-1 28:-1 29:-1 30:-1 31:-1 32:-1 33:-1 34:-1 35:-1 36:-1 37:-1 38:-1 39:-1 40:-1 41:-1 42:-0.901961 43:-1 44:-1 45:-0.984127 46:-1 47:-0.169811 48:-1 49:-1 50:-0.992207 51:-1 52:-0.99883 53:-1 54:-0.974349 55:-0.997925 56:-0.994594 57:-0.943687 
512 1:-1 2:-1 3:-0.666667 4:-1 5:-0.70077 6:-1 7:-1 8:-1 9:-1 10:-0.981298 11:-1 12:-0.929679 13:-0.938739 14:-1 15:-1 16:-1 17:-1 18:-1 19:-0.909333 20:-1 21:-1 22:-1 23:-1 24:-1 25:-1 26:-1 27:-1 28:-1 29:-1 30:-1 31:-1 32:-1 33:-1 34:-1 35:-1 36:-1 37:-1 38:-1 39:-1 40:-1 41:-1 42:-1 43:-1 44:-1 45:-1 46:-1 47:-1 48:-1 49:-0.984493 50:-1 51:-1 52:-1 53:-1 54:-1 55:-0.999833 56:-0.9996 57:-0.988889 
40.15603684507124 1:-1 2:-1 3:-1 4:-1 5:-1 6:-1 7:-1 8:-1 9:-1 10:-0.90099 11:-1 12:-0.625646 13:-1 14:-1 15:-1 16:-1 17:-1 18:-1 19:-1 20:-1 21:-1 22:-1 23:-1 24:-1 25:-0.913586 26:-0.891957 27:-1 28:-0.60176 29:-1 30:-1 31:-1 32:-1 33:-1 34:-1 35:-1 36:-0.621849 37:-1 38:-1 39:-0.815385 40:-1 41:-1 42:-1 43:-1 44:-1 45:-1 46:-1 47:-1 48:-1 49:-1 50:-0.752256 51:-1 52:-1 53:-1 54:-1 55:-0.991943 56:-0.988586 57:-0.982702 
176.0116455436028 1:-1 2:-1 3:-1 4:-1 5:-1 6:-1 7:-1 8:-1 9:-1 10:-0.784378 11:-1 12:-1 13:-1 14:-1 15:-1 16:-1 17:-1 18:-0.568757 19:-0.790933 20:-1 21:-1 22:-1 23:-1 24:-1 25:-1 26:-1 27:-1 28:-0.568757 29:-1 30:-1 31:-1 32:-1 33:-1 34:-1 35:-1 36:-1 37:-1 38:-1 39:-1 40:-1 41:-1 42:-1 43:-1 44:-1 45:-1 46:-1 47:-1 48:-1 49:-1 50:-0.923503 51:-1 52:-1 53:-1 54:-1 55:-0.99832 56:-0.997998 57:-0.996843 
495.1370175370967 1:-1 2:-1 3:-0.866667 4:-1 5:-0.925193 6:-1 7:-1 8:-1 9:-1 10:-1 11:-1 12:-0.716649 13:-0.506306 14:-1 15:-1 16:-1 17:-1 18:-0.925193 19:-0.707733 20:-1 21:-0.807656 22:-1 23:-1 24:-1 25:-1 26:-1 27:-1 28:-1 29:-1 30:-1 31:-1 32:-1 33:-1 34:-1 35:-1 36:-1 37:-1 38:-1 39:-1 40:-1 41:-1 42:-1 43:-1 44:-1 45:-1 46:-0.969161 47:-1 48:-1 49:-1 50:-0.95242 51:-1 52:-0.974998 53:-1 54:-1 55:-0.999167 56:-0.998999 57:-0.990404 
512 1:-1 2:-1 3:-1 4:-1 5:-0.768977 6:-1 7:-1 8:-1 9:-1 10:-1 11:-1 12:-1 13:-1 14:-1 15:-1 16:-1 17:-1 18:-1 19:-0.774933 20:-1 21:-0.475257 22:-1 23:-1 24:-1 25:-1 26:-1 27:-0.957996 28:-1 29:-1 30:-1 31:-1 32:-0.852941 33:-1 34:-0.852941 35:-1 36:-1 37:-1 38:-1 39:-1 40:-1 41:-1 42:-1 43:-1 44:-1 45:-1 46:-1 47:-1 48:-1 49:-1 50:-0.990361 51:-1 52:-1 53:-1 54:-0.987309 55:-0.997585 56:-0.997797 57:-0.979545 
512 1:-1 2:-0.981793 3:-0.741176 4:-1 5:-1 6:-1 7:-1 8:-1 9:-1 10:-0.985699 11:-1 12:-0.973113 13:-1 14:-1 15:-1 16:-0.974 17:-1 18:-0.971397 19:-0.717333 20:-1 21:-0.927171 22:-1 23:-1 24:-1 25:-1 26:-1 27:-1 28:-1 29:-1 30:-1 31:-1 32:-1 33:-1 34:-1 35:-1 36:-1 37:-0.924528 38:-1 39:-1 40:-1 41:-1 42:-1 43:-1 44:-1 45:-0.975724 46:-1 47:-1 48:-1 49:-0.991334 50:-0.924733 51:-1 52:-0.988115 53:-1 54:-0.989739 55:-0.995841 56:-0.986183 57:-0.929545 
2.222401456512042 1:-0.118943 2:-1 3:-1 4:-1 5:-1 6:-1 7:-1 8:-1 9:-1 10:-1 11:0.532567 12:-0.58635 13:-1 14:-1 15:-1 16:-1 17:-1 18:-1 19:-0.786667 20:-1 21:0.493931 22:-1 23:-1 24:-1 25:-1 26:-1 27:-1 28:-1 29:-1 30:-1 31:-1 32:-1 33:-1 34:-1 35:-1 36:-1 37:-1 38:-1 39:-1 40:-1 41:-1 42:-1 43:-1 44:-1 45:-1 46:-1 47:-1 48:-1 49:-1 50:-1 51:-1 52:-1 53:-1 54:-1 55:-0.99042 56:-0.994393 57:-0.993434 
127.653610526441 1:-1 2:-1 3:-1 4:-1 5:-1 6:-1 7:-1 8:-1 9:-1 10:-1 11:-1 12:-0.710445 13:-1 14:-1 15:-1 16:-0.86 17:-1 18:-1 19:-1 20:-1 21:-1 22:-1 23:-1 24:-1 25:-1 26:-1 27:-1 28:-1 29:-1 30:-1 31:-1 32:-1 33:-1 34:-1 35:-1 36:-1 37:-0.593614 38:-1 39:-0.712821 40:-1 41:-1 42:-1 43:-1 44:-1 45:-1 46:-1 47:-1 48:-1 49:-1 50:-1 51:-1 52:-1 53:-1 54:-1 55:-0.99923 56:-0.998398 57:-0.994318 
512 1:-1 2:-1 3:-0.843137 4:-1 5:-1 6:-1 7:-1 8:-1 9:-1 10:-1 11:-1 12:-1 13:-1 14:-1 15:-1 16:-1 17:-1 18:-1 19:-0.914667 20:-1 21:-1 22:-1 23:-1 24:-0.917949 25:-1 26:-1 27:-1 28:-1 29:-1 30:-1 31:-1 32:-1 33:-1 34:-1 35:-1 36:-1 37:-1 38:-1 39:-1 40:-1 41:-1 42:-1 43:-1 44:-1 45:-0.962652 46:-0.963719 47:-1 48:-1 49:-1 50:-1 51:-0.928939 52:-1 53:-1 54:-1 55:-0.999271 56:-0.999199 57:-0.991288 
512 1:-0.709251 2:-0.907563 3:-0.741176 4:-1 5:-1 6:-1 7:-1 8:-1 9:-1 10:-0.853685 11:-1 12:-1 13:-1 14:-1 15:-1 16:-0.934 17:-1 18:-1 19:-0.6448 20:-1 21:-0.503268 22:-1 23:-1 24:-1 25:-1 26:-1 27:-1 28:-1 29:-1 30:-1 31:-1 32:-1 33:-1 34:-1 35:-1 36:-1 37:-1 38:-1 39:-1 40:-1 41:-1 42:-1 43:-1 44:-1 45:-1 46:-1 47:-1 48:-1 49:-1 50:-1 51:-1 52:-0.992795 53:-1 54:-1 55:-0.997086 56:-0.996796 57:-0.987879 
0.8667262215693062 1:-1 2:-1 3:-1 4:-1 5:-1 6:-1 7:-1 8:-1 9:-1 10:-1 11:-1 12:-1 13:-1 14:-1 15:-1 16:-1 17:-1 18:-1 19:-1 20:-1 21:-1 22:-1 23:-1 24:-1 25:-0.0859337 26:-0.428571 27:-0.714371 28:0.0473047 29:-0.333333 30:1 31:-0.2384 32:1 33:-1 34:1 35:-0.524 36:1 37:-1 38:-1 39:-1 40:1 41:-1 42:-1 43:-1 44:-1 45:-1 46:-1 47:-1 48:-1 49:-1 50:-0.742207 51:-1 52:-1 53:-1 54:-1 55:-0.995428 56:-0.997998 57:-0.996338 
512 1:-1 2:-1 3:-0.921569 4:-1 5:-0.867987 6:-0.931973 7:-1 8:-1 9:-0.961977 10:-1 11:-1 12:-0.896587 13:-1 14:-1 15:-1 16:-1 17:-0.971989 18:-1 19:-0.978667 20:-1 21:-1 22:-1 23:-1 24:-1 25:-1 26:-1 27:-1 28:-1 29:-1 30:-1 31:-1 32:-1 33:-1 34:-1 35:-1 36:-1 37:-0.970972 38:-1 39:-1 40:-1 41:-1 42:-1 43:-1 44:-1 45:-1 46:-1 47:-1 48:-1 49:-1 50:-0.989951 51:-1 52:-1 53:-1 54:-1 55:-0.999739 56:-0.998198 57:-0.966919 
512 1:-1 2:-0.964986 3:-0.705882 4:-1 5:-0.779978 6:-0.914966 7:-1 8:-1 9:-1 10:-1 11:-0.808429 12:-0.948294 13:-0.54955 14:-1 15:-1 16:-0.975 17:-1 18:-0.724972 19:-0.732267 20:-1 21:-0.673203 22:-1 23:-0.908257 24:-1 25:-1 26:-1 27:-0.984998 28:-1 29:-1 30:-1 31:-1 32:-1 33:-1 34:-1 35:-1 36:-1 37:-1 38:-1 39:-1 40:-1 41:-1 42:-1 43:-1 44:-1 45:-1 46:-1 47:-1 48:-1 49:-1 50:-1 51:-1 52:-0.997414 53:-1 54:-1 55:-0.9996 56:-0.998799 57:-0.985227 
53.36763941386997 1:-1 2:-1 3:-1 4:-1 5:-1 6:-1 7:-1 8:-1 9:-1 10:-1 11:-1 12:-1 13:-1 14:-1 15:-1 16:-1 17:-1 18:-1 19:-0.36 20:-1 21:-1 22:-1 23:-1 24:-1 25:-1 26:-1 27:-1 28:-1 29:-1 30:-1 31:-1 32:-1 33:0.440576 34:-1 35:-1 36:-1 37:-1 38:-1 39:-1 40:-1 41:-1 42:-1 43:-1 44:-1 45:-1 46:-1 47:-1 48:-1 49:-1 50:-1 51:-1 52:-1 53:-1 54:-1 55:-0.999347 56:-0.999399 57:-0.998611 
512 1:-1 2:-1 3:-1 4:-1 5:-1 6:-0.897959 7:-1 8:-1 9:-1 10:-1 11:-0.770115 12:-0.499483 13:-1 14:-1 15:-1 16:-0.97 17:-1 18:-0.80198 19:-0.6128 20:-1 21:-0.887955 22:-1 23:-1 24:-1 25:-1 26:-1 27:-1 28:-1 29:-1 30:-1 31:-1 32:-1 33:-1 34:-1 35:-1 36:-1 37:-1 38:-1 39:-1 40:-1 41:-1 42:-1 43:-1 44:-1 45:-1 46:-1 47:-1 48:-1 49:-1 50:-1 51:-1 52:-0.994643 53:-1 54:-1 55:-0.99659 56:-0.987385 57:-0.981439 
512 1:-1 2:-1 3:-0.854902 4:-1 5:-0.938394 6:-0.904762 7:-1 8:-1 9:-0.965779 10:-1 11:-1 12:-0.962771 13:-0.899099 14:-1 15:-1 16:-1 17:-1 18:-0.89879 19:-0.710933 20:-1 21:-0.826331 22:-1 23:-1 24:-1 25:-1 26:-1 27:-1 28:-1 29:-1 30:-1 31:-1 32:-1 33:-1 34:-1 35:-1 36:-1 37:-1 38:-1 39:-1 40:-1 41:-1 42:-1 43:-1 44:-1 45:-0.947712 46:-0.991837 47:-0.915094 48:-1 49:-1 50:-0.996514 51:-1 52:-1 53:-1 54:-1 55:-0.999953 56:-0.9996 57:-0.983965 
512 1:-1 2:-1 3:-1 4:-1 5:-1 6:-1 7:-1 8:-1 9:-1 10:-1 11:-1 12:-1 13:-1 14:-1 15:-1 16:-1 17:-1 18:-1 19:-1 20:-1 21:-1 22:-1 23:-1 24:-1 25:-1 26:-1 27:-1 28:-1 29:-1 30:-1 31:-1 32:-1 33:-1 34:-1 35:-1 36:-1 37:-1 38:-1 39:-1 40:-1 41:-1 42:-1 43:-1 44:-1 45:-1 46:-1 47:-1 48:-1 49:-1 50:-0.823216 51:-1 52:-0.946918 53:-1 54:-1 55:-1 56:-1 57:-0.999747 
512 1:-1 2:-0.967787 3:-1 4:-1 5:-0.949395 6:-1 7:-1 8:-1 9:-1 10:-0.948295 11:-1 12:-0.95243 13:-1 14:-0.666 15:-1 16:-1 17:-1 18:-1 19:-0.873067 20:-1 21:-1 22:-1 23:-1 24:-1 25:-0.954873 26:-1 27:-0.986199 28:-1 29:-1 30:-1 31:-0.9632 32:-1 33:-1 34:-1 35:-0.977 36:-1 37:-1 38:-1 39:-1 40:-1 41:-1 42:-1 43:-1 44:-1 45:-1 46:-1 47:-1 48:-1 49:-1 50:-1 51:-1 52:-1 53:-0.94736 54:-1 55:-0.982291 56:-0.953144 57:-0.861995 
0.7424899154206123 1:-0.118943 2:-1 3:-1 4:-1 5:-1 6:-1 7:-1 8:-1 9:-1 10:-1 11:0.532567 12:-0.58635 13:-1 14:-1 15:-1 16:-1 17:-1 18:-1 19:-0.786667 20:-1 21:0.493931 22:-1 23:-1 24:-1 25:-1 26:-1 27:-1 28:-1 29:-1 30:-1 31:-1 32:-1 33:-1 34:-1 35:-1 36:-1 37:-1 38:-1 39:-1 40:-1 41:-1 42:-1 43:-1 44:-1 45:-1 46:-1 47:-1 48:-1 49:-1 50:-1 51:-1 52:-1 53:-1 54:-1 55:-0.99042 56:-0.994393 57:-0.993434 
512 1:-1 2:-0.635854 3:-1 4:-1 5:-1 6:-1 7:-1 8:-1 9:-1 10:-1 11:-1 12:-1 13:-1 14:-1 15:-1 16:-1 17:-1 18:-1 19:-0.629867 20:-1 21:-0.676937 22:-1 23:-1 24:-1 25:-1 26:-1 27:-1 28:-1 29:-1 30:-1 31:-1 32:-1 33:-1 34:-1 35:-1 36:-1 37:-1 38:-1 39:-1 40:-1 41:-1 42:-1 43:-1 44:-1 45:-1 46:-1 47:-1 48:-1 49:-1 50:-0.968417 51:-1 52:-0.952399 53:-1 54:-1 55:-1 56:-1 57:-0.99798 
512 1:-1 2:-1 3:-1 4:-1 5:-1 6:-1 7:-1 8:-1 9:-1 10:-1 11:-1 12:-1 13:-1 14:-1 15:-1 16:-1 17:-1 18:-1 19:-0.832533 20:-1 21:-1 22:-1 23:-1 24:-1 25:-1 26:-1 27:-1 28:-1 29:-1 30:-1 31:-1 32:-1 33:-1 34:-1 35:-1 36:-0.672269 37:-1 38:-1 39:-1 40:-1 41:-1 42:-1 43:-1 44:-1 45:-1 46:-1 47:-1 48:-1 49:-1 50:-1 51:-1 52:-1 53:-1 54:-1 55:-1 56:-1 57:-0.998106 
512 1:-1 2:-1 3:-1 4:-1 5:-1 6:-0.908163 7:-1 8:-1 9:-1 10:-0.970297 11:-1 12:-0.944157 13:-1 14:-1 15:-1 16:-0.973 17:-1 18:-1 19:-0.767467 20:-1 21:-0.490196 22:-1 23:-1 24:-1 25:-0.974076 26:-1 27:-1 28:-1 29:-1 30:-1 31:-0.9568 32:-1 33:-1 34:-1 35:-1 36:-1 37:-1 38:-1 39:-1 40:-1 41:-1 42:-1 43:-1 44:-1 45:-1 46:-1 47:-1 48:-1 49:-1 50:-1 51:-1 52:-1 53:-1 54:-1 55:-0.996878 56:-0.996596 57:-0.979167 
512 1:-1 2:-1 3:-0.262745 4:-1 5:-0.793179 6:-1 7:-1 8:-1 9:-1 10:-1 11:-1 12:-1 13:-1 14:-1 15:-1 16:-1 17:-1 18:-1 19:-0.698133 20:-1 21:-1 22:-1 23:-1 24:-1 25:-1 26:-1 27:-1 28:-1 29:-1 30:-1 31:-1 32:-1 33:-1 34:-1 35:-1 36:-1 37:-1 38:-1 39:-1 40:-1 41:-1 42:-1 43:-1 44:-1 45:-0.912232 46:-1 47:-1 48:-1 49:-1 50:-1 51:-1 52:-0.953445 53:-1 54:-1 55:-1 56:-1 57:-0.997348 
512 1:-1 2:-1 3:-0.360784 4:-1 5:-1 6:-1 7:-1 8:-1 9:-1 10:-1 11:-1 12:-0.662875 13:-1 14:-1 15:-1 16:-0.837 17:-1 18:-1 19:-0.826133 20:-1 21:-0.695612 22:-1 23:-1 24:-1 25:-1 26:-1 27:-1 28:-1 29:-1 30:-1 31:-1 32:-1 33:-1 34:-1 35:-1 36:-1 37:-1 38:-1 39:-1 40:-1 41:-1 42:-1 43:-1 44:-1 45:-1 46:-1 47:-1 48:-1 49:-1 50:-1 51:-1 52:-1 53:-1 54:-1 55:-0.999645 56:-0.9996 57:-0.998485 
5.391063361426625 1:-1 2:-1 3:-1 4:-1 5:-1 6:-1 7:-1 8:-1 9:-1 10:-1 11:-1 12:-1 13:-1 14:-1 15:-1 16:-1 17:-1 18:-1 19:-1 20:-1 21:-1 22:-1 23:-1 24:-1 25:-0.669707 26:-0.587035 27:-1 28:-1 29:-1 30:-1 31:-1 32:-1 33:-1 34:-1 35:-1 36:-1 37:1 38:-1 39:-1 40:-1 41:-1 42:-1 43:-1 44:-1 45:-0.678805 46:-1 47:-1 48:-1 49:-1 50:-1 51:-1 52:-1 53:-1 54:-1 55:-0.996437 56:-0.998598 57:-0.996212 
450.9020674256162 1:-1 2:-1 3:-1 4:-1 5:-1 6:-1 7:-1 8:-1 9:-1 10:-1 11:-1 12:-0.931748 13:-1 14:-1 15:-1 16:-1 17:-1 18:-1 19:-0.5424 20:-1 21:-0.507003 22:-1 23:-1 24:-1 25:-1 26:-1 27:-1 28:-1 29:-1 30:-1 31:-1 32:-1 33:-1 34:-1 35:-1 36:-1 37:-1 38:-1 39:-1 40:-1 41:-1 42:-1 43:-1 44:-1 45:-0.938375 46:-1 47:-1 48:-1 49:-1 50:-0.988105 51:-1 52:-1 53:-1 54:-1 55:-0.9997 56:-0.9996 57:-0.998232 
512 1:-1 2:-1 3:-0.917647 4:-1 5:-1 6:-0.928571 7:-1 8:-1 9:-1 10:-0.976898 11:-0.83908 12:-0.735264 13:-1 14:-1 15:-1 16:-1 17:-0.941176 18:-1 19:-0.863467 20:-1 21:-0.880486 22:-1 23:-1 24:-1 25:-1 26:-1 27:-1 28:-1 29:-1 30:-1 31:-1 32:-1 33:-1 34:-1 35:-1 36:-1 37:-0.814224 38:-1 39:-1 40:-1 41:-1 42:-1 43:-1 44:-1 45:-1 46:-1 47:-1 48:-0.872 49:-1 50:-1 51:-1 52:-1 53:-0.967683 54:-1 55:-0.997156 56:-0.989187 57:-0.967929 
512 1:-1 2:-1 3:-1 4:-1 5:-0.79758 6:-1 7:-1 8:-1 9:-1 10:-1 11:-1 12:-0.809721 13:-1 14:-1 15:-1 16:-1 17:-1 18:-1 19:-0.901867 20:-1 21:-0.828198 22:-1 23:-1 24:-1 25:-1 26:-1 27:-1 28:-1 29:-1 30:-1 31:-1 32:-1 33:-1 34:-1 35:-1 36:-1 37:-1 38:-1 39:-1 40:-1 41:-1 42:-1 43:-1 44:-1 45:-1 46:-1 47:-1 48:-1 49:-1 50:-1 51:-1 52:-1 53:-1 54:-1 55:-0.99902 56:-0.998799 57:-0.99596 
512 1:-1 2:-0.887955 3:-1 4:-1 5:-0.867987 6:-1 7:-1 8:-0.933993 9:-1 10:-0.977998 11:-1 12:-1 13:-1 14:-1 15:-1 16:-0.82 17:-1 18:-0.515952 19:-0.808 20:-1 21:-0.475257 22:-1 23:-1 24:-1 25:-1 26:-1 27:-1 28:-1 29:-1 30:-1 31:-1 32:-1 33:-1 34:-1 35:-1 36:-1 37:-1 38:-1 39:-1 40:-1 41:-0.943978 42:-1 43:-1 44:-1 45:-0.981326 46:-0.981859 47:-1 48:-1 49:-1 50:-1 51:-1 52:-0.996305 53:-1 54:-1 55:-0.996962 56:-0.99159 57:-0.971465 
512 1:-1 2:-1 3:-0.937255 4:-1 5:-0.859186 6:-1 7:-1 8:-0.947195 9:-1 10:-1 11:-1 12:-0.604964 13:-1 14:-1 15:-1 16:-0.984 17:-1 18:-1 19:-0.675733 20:-1 21:-0.671335 22:-1 23:-1 24:-1 25:-1 26:-0.961585 27:-0.980798 28:-1 29:-1 30:-1 31:-0.9744 32:-1 33:-1 34:-1 35:-1 36:-0.932773 37:-1 38:-1 39:-1 40:-0.932773 41:-1 42:-1 43:-1 44:-1 45:-0.970121 46:-1 47:-1 48:-1 49:-1 50:-0.98872 51:-1 52:-1 53:-0.981676 54:-1 55:-0.998436 56:-0.998799 57:-0.975379 
103.1808540065879 1:-1 2:-1 3:-1 4:-1 5:-1 6:-1 7:-1 8:-1 9:-1 10:-0.907591 11:-1 12:-1 13:-1 14:-1 15:-1 16:-1 17:-0.764706 18:-1 19:-0.8208 20:-1 21:-1 22:-1 23:-1 24:-1 25:-1 26:-1 27:-1 28:-1 29:-1 30:-1 31:-1 32:-1 33:-1 34:-1 35:-1 36:-1 37:-0.756168 38:-1 39:-0.827692 40:-1 41:-1 42:-1 43:-0.529412 44:-1 45:-0.921569 46:-0.92381 47:-1 48:-1 49:-1 50:-1 51:-0.93286 52:-0.974567 53:-1 54:-0.963008 55:-0.995978 56:-0.997597 57:-0.98548 
413.5446276512628 1:-1 2:-1 3:-1 4:-1 5:0.10011 6:-1 7:-1 8:-1 9:-1 10:-1 11:-1 12:-1 13:-1 14:-1 15:-1 16:-1 17:-1 18:-1 19:-1 20:-1 21:-1 22:-1 23:-1 24:-1 25:-1 26:-1 27:-1 28:-1 29:-1 30:-1 31:-1 32:-1 33:-1 34:-1 35:-1 36:-1 37:-1 38:-1 39:-1 40:-1 41:-1 42:-1 43:-1 44:-1 45:-1 46:-1 47:-1 48:-1 49:-1 50:-1 51:-1 52:-1 53:-1 54:-1 55:-0.9951 56:-0.998398 57:-0.997475 
62.63302999740606 1:-1 2:-0.42577 3:-1 4:-1 5:-0.70077 6:-1 7:-1 8:-1 9:-1 10:-1 11:-1 12:-1 13:-1 14:-1 15:-1 16:-1 17:-1 18:-0.70077 19:-0.2704 20:-1 21:-0.746032 22:-1 23:-1 24:-1 25:-1 26:-1 27:-0.836184 28:-1 29:-1 30:-1 31:-1 32:-1 33:-1 34:-1 35:-1 36:-1 37:-1 38:-1 39:-1 40:-1 41:-1 42:-1 43:-1 44:-1 45:-0.873016 46:-1 47:-1 48:-1 49:-1 50:-0.956932 51:-1 52:-0.974136 53:-1 54:-1 55:-0.999242 56:-0.998799 57:-0.994697 
512 1:-1 2:-1 3:-1 4:-0.985517 5:-0.793179 6:-1 7:-1 8:-0.89769 9:-1 10:-0.930693 11:-1 12:-0.7394 13:-1 14:-1 15:-1 16:-1 17:-1 18:-1 19:-0.899733 20:-1 21:-0.764706 22:-1 23:-1 24:-1 25:-1 26:-1 27:-1 28:-0.861386 29:-1 30:-1 31:-1 32:-1 33:-1 34:-1 35:-1 36:-0.869748 37:-1 38:-1 39:-1 40:-1 41:-1 42:-1 43:-1 44:-1 45:-1 46:-1 47:-1 48:-1 49:-1 50:-0.992412 51:-1 52:-0.995443 53:-1 54:-1 55:-0.994309 56:-0.992391 57:-0.969066 
49.8937186567938 1:-1 2:-1 3:-0.529412 4:-1 5:-1 6:-1 7:-1 8:-1 9:-1 10:-1 11:-1 12:-0.75181 13:-1 14:-1 15:-1 16:-1 17:-1 18:-1 19:-0.357867 20:-1 21:-1 22:-1 23:-1 24:-1 25:-1 26:-1 27:-1 28:-1 29:-1 30:-1 31:-1 32:-1 33:-1 34:-1 35:-1 36:-1 37:-1 38:-1 39:-0.507692 40:-1 41:-0.663866 42:-1 43:-1 44:-1 45:-0.887955 46:-0.891156 47:-1 48:-1 49:-0.910148 50:-1 51:-1 52:-0.525402 53:-1 54:-1 55:-0.995296 56:-0.997197 57:-0.993687 
181.5095951808222 1:-1 2:-1 3:-1 4:-1 5:-1 6:-1 7:-1 8:-1 9:-1 10:-1 11:-1 12:-0.427094 13:-1 14:-1 15:-1 16:-1 17:-1 18:-1 19:-0.704533 20:-1 21:-1 22:-1 23:-1 24:-1 25:-0.467115 26:-0.667467 27:-0.833783 28:-0.390539 29:-0.222689 30:0.163866 31:-0.5568 32:0.163866 33:-1 34:0.163866 35:-0.723 36:0.163866 37:-1 38:-1 39:-1 40:0.163866 41:-1 42:-1 43:-1 44:-1 45:-1 46:-1 47:-1 48:-1 49:-1 50:-0.747949 51:-1 52:-1 53:-1 54:-1 55:-0.99559 56:-0.997998 57:-0.995202 
512 1:-1 2:-1 3:-0.87451 4:-1 5:-1 6:-0.945578 7:-1 8:-1 9:-1 10:-1 11:-1 12:-0.867632 13:-1 14:-1 15:-1 16:-1 17:-0.865546 18:-1 19:-0.8976 20:-1 21:-0.820728 22:-1 23:-1 24:-1 25:-0.953913 26:-1 27:-1 28:-1 29:-1 30:-1 31:-1 32:-1 33:-1 34:-1 35:-1 36:-0.932773 37:-1 38:-1 39:-1 40:-1 41:-1 42:-1 43:-1 44:-1 45:-1 46:-1 47:-1 48:-1 49:-0.990422 50:-0.978466 51:-1 52:-0.998707 53:-0.97901 54:-0.982989 55:-0.994534 56:-0.992391 57:-0.945581 
512 1:-1 2:-1 3:-1 4:-1 5:-1 6:-1 7:-1 8:-1 9:-1 10:-0.724972 11:-1 12:-1 13:-1 14:-1 15:-1 16:-1 17:-1 18:-1 19:-0.733333 20:-1 21:-0.533147 22:-1 23:-1 24:-1 25:-1 26:-1 27:-1 28:-1 29:-1 30:-1 31:-1 32:-1 33:-1 34:-1 35:-1 36:-1 37:-1 38:-1 39:-1 40:-1 41:-1 42:-1 43:-1 44:-1 45:-1 46:-1 47:-1 48:-1 49:-1 50:-1 51:-1 52:-1 53:-1 54:-1 55:-0.999185 56:-0.9996 57:-0.99798 
512 1:-1 2:-0.952381 3:-1 4:-1 5:-0.850385 6:-1 7:-0.81293 8:-1 9:-1 10:-0.962596 11:-0.739464 12:-1 13:-1 14:-1 15:-1 16:-0.966 17:-1 18:-0.70077 19:-0.6352 20:-1 21:-0.490196 22:-1 23:-1 24:-1 25:-1 26:-1 27:-1 28:-1 29:-1 30:-1 31:-1 32:-1 33:-0.918367 34:-1 35:-1 36:-1 37:-1 38:-1 39:-1 40:-1 41:-1 42:-1 43:-1 44:-1 45:-1 46:-0.969161 47:-1 48:-1 49:-1 50:-1 51:-1 52:-0.997044 53:-0.984008 54:-1 55:-0.999206 56:-0.997197 57:-0.987879 
3.755784000038341 1:-0.700441 2:-1 3:-1 4:-1 5:-1 6:-1 7:-1 8:-1 9:-1 10:-1 11:-1 12:-1 13:-0.754955 14:-1 15:-1 16:-1 17:-1 18:-1 19:-0.853867 20:-1 21:-0.615313 22:-1 23:-1 24:-1 25:-1 26:-1 27:-0.917792 28:-1 29:-1 30:-1 31:-1 32:-1 33:-1 34:-1 35:-1 36:-1 37:-1 38:-1 39:-1 40:-1 41:-1 42:-1 43:0.927171 44:-1 45:-1 46:-1 47:-1 48:-1 49:-1 50:-0.931911 51:-1 52:-1 53:-1 54:-1 55:-0.999755 56:-0.9998 57:-0.997854 
211.3127245291696 1:-1 2:-1 3:-1 4:-1 5:-1 6:-1 7:-1 8:-0.778878 9:-1 10:-1 11:-1 12:-0.720786 13:-1 14:-1 15:-1 16:-0.933 17:-1 18:-1 19:-0.568 20:-1 21:-0.622782 22:-1 23:-1 24:-1 25:-0.93567 26:-1 27:-1 28:-1 29:-1 30:-1 31:-1 32:-1 33:-1 34:-1 35:-0.933 36:-1 37:-1 38:-1 39:-1 40:-1 41:-1 42:-1 43:-1 44:-1 45:-0.937442 46:-1 47:-1 48:-1 49:-1 50:-0.920837 51:-1 52:-1 53:-1 54:-1 55:-0.995551 56:-0.996396 57:-0.984848 
173.349980244728 1:-1 2:-1 3:-1 4:-1 5:-1 6:-0.734694 7:-1 8:-1 9:-1 10:-1 11:-1 12:-1 13:-1 14:-1 15:-1 16:-1 17:-1 18:-0.828383 19:-1 20:-1 21:-0.854342 22:-1 23:-1 24:-1 25:-1 26:-1 27:-1 28:-1 29:-1 30:-1 31:-1 32:-1 33:-1 34:-1 35:-1 36:-1 37:-1 38:-1 39:-1 40:-1 41:-1 42:-1 43:-1 44:-1 45:-1 46:-1 47:-1 48:-1 49:-1 50:0.0822395 51:-1 52:-0.983804 53:-1 54:-1 55:-0.999908 56:-0.9998 57:-0.997348 
47.59948415045608 1:-0.118943 2:-1 3:-1 4:-1 5:-1 6:-1 7:-1 8:-1 9:-1 10:-1 11:0.532567 12:-0.58635 13:-1 14:-1 15:-1 16:-1 17:-1 18:-1 19:-0.786667 20:-1 21:0.493931 22:-1 23:-1 24:-1 25:-1 26:-1 27:-1 28:-1 29:-1 30:-1 31:-1 32:-1 33:-1 34:-1 35:-1 36:-1 37:-1 38:-1 39:-1 40:-1 41:-1 42:-1 43:-1 44:-1 45:-1 46:-1 47:-1 48:-1 49:-1 50:-1 51:-1 52:-1 53:-1 54:-1 55:-0.99042 56:-0.994393 57:-0.993434 
415.0761717043169 1:-1 2:-1 3:-0.109804 4:-1 5:-1 6:-1 7:-1 8:-1 9:-1 10:-1 11:-1 12:-0.530507 13:-1 14:-1 15:-1 16:-0.887 17:-1 18:-0.751375 19:-0.757867 20:-1 21:-1 22:-1 23:-1 24:-1 25:-1 26:-1 27:-1 28:-1 29:-1 30:-1 31:-1 32:-1 33:-1 34:-1 35:-1 36:-1 37:-1 38:-1 39:-1 40:-1 41:-1 42:-1 43:-1 44:-1 45:-1 46:-0.897506 47:-1 48:-1 49:-1 50:-0.970673 51:-1 52:-1 53:-1 54:-1 55:-0.98479 56:-0.984782 57:-0.976894 
22.91183872379717 1:-1 2:-0.921569 3:-1 4:-1 5:-0.876788 6:-1 7:-1 8:-1 9:-1 10:-1 11:-1 12:-0.648397 13:-1 14:-1 15:-1 16:-1 17:-0.52381 18:-1 19:-0.879467 20:-1 21:-1 22:-1 23:-1 24:-1 25:-1 26:-1 27:-1 28:-1 29:-0.841737 30:-0.764706 31:-1 32:-1 33:-1 34:-1 35:-1 36:-1 37:-1 38:-1 39:-0.885128 40:-1 41:-1 42:-1 43:-1 44:-1 45:-1 46:-1 47:-1 48:-1 49:-1 50:-1 51:-1 52:-1 53:-1 54:-1 55:-0.997985 56:-0.997597 57:-0.991162 
512 1:-1 2:-1 3:-1 4:-1 5:-1 6:-1 7:-1 8:-1 9:-1 10:-1 11:-1 12:-1 13:-1 14:-0.84 15:-1 16:-1 17:-1 18:-1 19:-0.402667 20:-1 21:-0.253035 22:-1 23:-1 24:-0.671795 25:-1 26:-1 27:-1 28:-1 29:-1 30:-1 31:-1 32:-1 33:-1 34:-1 35:-1 36:-1 37:-1 38:-1 39:-1 40:-1 41:-1 42:-1 43:-1 44:-1 45:-1 46:-1 47:-1 48:-1 49:-0.944356 50:-0.949959 51:-1 52:-1 53:-1 54:-1 55:-0.998219 56:-0.998999 57:-0.997475 
321.5400715971316 1:-1 2:-0.82493 3:-1 4:-1 5:-1 6:-1 7:-1 8:-1 9:-1 10:-1 11:-1 12:-0.418821 13:-1 14:-1 15:-1 16:-1 17:-1 18:-0.656766 19:-0.9008 20:-1 21:-0.94211 22:-1 23:-1 24:-1 25:-1 26:-1 27:-1 28:-1 29:-1 30:-1 31:-1 32:-0.869748 33:-1 34:-1 35:-1 36:-0.869748 37:-1 38:-1 39:-1 40:-1 41:-1 42:-1 43:-1 44:-1 45:-1 46:-1 47:-1 48:-1 49:-1 50:-0.966366 51:-1 52:-0.993288 53:-0.982009 54:-1 55:-0.997662 56:-0.996596 57:-0.982955 
512 1:-1 2:-1 3:-1 4:-1 5:-1 6:-1 7:-1 8:-1 9:-1 10:-1 11:-1 12:-1 13:-1 14:-1 15:-1 16:-1 17:-1 18:-1 19:-0.925333 20:-1 21:-1 22:-1 23:-1 24:-1 25:-1 26:-1 27:-1 28:-1 29:-1 30:-1 31:-1 32:-1 33:-1 34:-1 35:-1 36:-1 37:-1 38:-1 39:-1 40:-1 41:-1 42:-1 43:-1 44:-1 45:-1 46:-1 47:-1 48:-1 49:-1 50:-0.960829 51:-1 52:-1 53:-0.968349 54:-0.974349 55:-0.998652 56:-0.997998 57:-0.987121 
133.0719535857248 1:-1 2:-1 3:-1 4:-1 5:-1 6:-0.778912 7:-1 8:-0.785479 9:-1 10:-0.928493 11:-1 12:-0.592554 13:-1 14:-1 15:-1 16:-1 17:-1 18:-1 19:-1 20:-1 21:-1 22:-1 23:-1 24:-1 25:-1 26:-1 27:-0.960996 28:-1 29:-1 30:-1 31:-1 32:-1 33:-1 34:-1 35:-1 36:-1 37:-1 38:-1 39:-1 40:-1 41:-1 42:-1 43:-1 44:-1 45:-0.939309 46:-1 47:-1 48:-1 49:-0.950741 50:-0.977851 51:-1 52:-1 53:-0.964018 54:-1 55:-0.998189 56:-0.998398 57:-0.987247 
512 1:-0.991189 2:-1 3:-0.941176 4:-1 5:-0.947195 6:-0.894558 7:-1 8:-0.986799 9:-0.91635 10:-1 11:-0.984674 12:-0.983454 13:-1 14:-1 15:-0.99093 16:-1 17:-1 18:-0.9956 19:-0.991467 20:-1 21:-0.988796 22:-1 23:-1 24:-1 25:-0.957753 26:-0.943577 27:-0.9988 28:-1 29:-1 30:-1 31:-1 32:-1 33:-0.973589 34:-1 35:-1 36:-1 37:-1 38:-0.995198 39:-1 40:-1 41:-1 42:-0.997199 43:-1 44:-1 45:-1 46:-1 47:-1 48:-1 49:-0.915621 50:-0.969237 51:-0.978437 52:-1 53:-0.998001 54:-1 55:-0.996398 56:-0.989788 57:-0.737753 
512 1:-1 2:-1 3:-0.537255 4:-1 5:-0.964796 6:-1 7:-1 8:-1 9:-1 10:-0.982398 11:-1 12:-0.966908 13:-0.942342 14:-1 15:-1 16:-1 17:-0.955182 18:-1 19:-0.6928 20:-1 21:-0.906629 22:-1 23:-1 24:-1 25:-1 26:-1 27:-1 28:-1 29:-1 30:-1 31:-1 32:-1 33:-1 34:-1 35:-1 36:-1 37:-1 38:-1 39:-1 40:-1 41:-1 42:-1 43:-1 44:-1 45:-0.969188 46:-1 47:-1 48:-1 49:-0.985861 50:-0.923298 51:-1 52:-0.965454 53:-1 54:-1 55:-0.999095 56:-0.998198 57:-0.982955 
8.198296802720362 1:-0.528634 2:-1 3:-0.580392 4:-1 5:-0.764576 6:-0.636054 7:-1 8:-1 9:-1 10:-1 11:-1 12:-1 13:-1 14:-1 15:-1 16:-1 17:-1 18:-1 19:-1 20:-1 21:-1 22:-1 23:-1 24:-1 25:-0.897264 26:-1 27:-0.935794 28:-1 29:-1 30:-0.55042 31:-1 32:-0.55042 33:-1 34:-0.55042 35:-1 36:-1 37:-1 38:-1 39:-1 40:-1 41:-1 42:-1 43:-1 44:-1 45:-1 46:-1 47:-1 48:-1 49:-1 50:-0.924118 51:-1 52:-0.988608 53:-1 54:-1 55:-0.99757 56:-0.995795 57:-0.993056 
512 1:-1 2:-1 3:-0.643137 4:-1 5:-1 6:-1 7:-1 8:-1 9:-1 10:-1 11:-1 12:-0.811789 13:-0.672072 14:-1 15:-1 16:-1 17:-1 18:-1 19:-0.413333 20:-1 21:-0.830065 22:-1 23:-1 24:-0.624615 25:-1 26:-1 27:-1 28:-1 29:-1 30:-1 31:-1 32:-1 33:-1 34:-1 35:-1 36:-1 37:-1 38:-1 39:-1 40:-1 41:-1 42:-1 43:-1 44:-1 45:-0.915033 46:-0.91746 47:-1 48:-1 49:-1 50:-1 51:-1 52:-0.991995 53:-1 54:-1 55:-0.997145 56:-0.990789 57:-0.989268 
20.04527828446332 1:-1 2:-1 3:-0.368627 4:-1 5:-1 6:-1 7:-1 8:-1 9:-0.387833 10:-1 11:-1 12:-1 13:-1 14:-1 15:-1 16:-1 17:-1 18:-1 19:-0.4848 20:-1 21:-1 22:-1 23:-1 24:-1 25:-1 26:-1 27:-1 28:-1 29:-1 30:0.352941 31:-1 32:-1 33:-1 34:-1 35:-1 36:-1 37:-1 38:-1 39:-1 40:-1 41:-1 42:-1 43:-1 44:-1 45:-1 46:-1 47:-1 48:-1 49:-1 50:-1 51:-1 52:-1 53:-1 54:-1 55:-0.998493 56:-0.998598 57:-0.997222 
512 1:-0.907489 2:-1 3:-0.917647 4:-0.990189 5:-0.861386 6:-1 7:-1 8:-1 9:-1 10:-1 11:-0.678161 12:-1 13:-0.924324 14:-1 15:-1 16:-0.916 17:-1 18:-0.907591 19:-0.797333 20:-1 21:-1 22:-1 23:-0.922936 24:-1 25:-1 26:-1 27:-1 28:-1 29:-1 30:-1 31:-1 32:-1 33:-1 34:-1 35:-1 36:-1 37:-0.939042 38:-1 39:-1 40:-1 41:-1 42:-1 43:-1 44:-1 45:-1 46:-1 47:-1 48:-1 49:-1 50:-0.993642 51:-1 52:-0.976969 53:-0.979344 54:-1 55:-0.996292 56:-0.985983 57:-0.94899 
512 1:-1 2:-1 3:-1 4:-1 5:-1 6:-1 7:-1 8:-1 9:-1 10:-1 11:-1 12:-1 13:-1 14:-1 15:-1 16:-1 17:-1 18:-1 19:-0.714133 20:-1 21:-0.749767 22:-1 23:-1 24:-1 25:-1 26:-1 27:-1 28:-1 29:-1 30:-1 31:-1 32:-1 33:-1 34:-1 35:-1 36:-1 37:-1 38:-1 39:-1 40:-1 41:-1 42:-1 43:-1 44:-1 45:-0.937442 46:-1 47:-1 48:-1 49:-1 50:-1 51:-1 52:-0.970996 53:-1 54:-1 55:-0.999935 56:-0.9998 57:-0.996212 
512 1:-1 2:-1 3:-1 4:-1 5:-1 6:-1 7:-1 8:-1 9:-1 10:-1 11:-1 12:-1 13:-1 14:-1 15:-1 16:-1 17:-1 18:-1 19:-1 20:-1 21:-1 22:-1 23:-1 24:-1 25:-1 26:-1 27:-1 28:-1 29:-1 30:-1 31:-1 32:-1 33:-1 34:-1 35:-1 36:-1 37:-1 38:-1 39:-1 40:-1 41:-1 42:-1 43:-1 44:-1 45:-1 46:-1 47:-1 48:-1 49:-0.989966 50:-0.995488 51:-0.990689 52:-0.998645 53:-0.99267 54:-0.99406 55:-0.995136 56:-0.999199 57:-0.254924 
392.4340089310339 1:-1 2:-1 3:-1 4:-1 5:-0.881188 6:-1 7:-1 8:-1 9:-1 10:-0.820682 11:-0.586207 12:-0.888314 13:-0.805405 14:-1 15:-1 16:-1 17:-1 18:-1 19:-0.767467 20:-1 21:-0.796452 22:-1 23:-1 24:-1 25:-0.895343 26:-0.935174 27:-1 28:-1 29:-1 30:-1 31:-1 32:-1 33:-1 34:-1 35:-0.946 36:-1 37:-1 38:-1 39:-1 40:-1 41:-1 42:-1 43:-1 44:-1 45:-1 46:-1 47:-1 48:-1 49:-1 50:-0.981542 51:-0.955893 52:-1 53:-1 54:-1 55:-0.998101 56:-0.996996 57:-0.991919 
512 1:-1 2:-1 3:-1 4:-1 5:-1 6:-1 7:-1 8:-1 9:-1 10:-1 11:-1 12:-1 13:-1 14:-1 15:-1 16:-1 17:-1 18:-1 19:-0.556267 20:-1 21:-1 22:-1 23:-1 24:-1 25:-1 26:-1 27:-1 28:-1 29:-1 30:-1 31:-1 32:-1 33:-1 34:-1 35:-1 36:-1 37:-1 38:-1 39:-1 40:-1 41:-1 42:-1 43:-1 44:-1 45:-1 46:-1 47:-1 48:-1 49:-1 50:-1 51:-1 52:-0.954431 53:-1 54:-1 55:-0.998775 56:-0.998999 57:-0.998485 
494.0901657319572 1:-1 2:-1 3:-1 4:-1 5:-1 6:-1 7:-1 8:-1 9:-1 10:-1 11:-1 12:-1 13:-1 14:-1 15:-1 16:-0.697 17:-1 18:-0.333333 19:-0.6768 20:-1 21:-0.434174 22:-1 23:-1 24:-1 25:-1 26:-1 27:-1 28:-1 29:-1 30:-1 31:-1 32:-1 33:-1 34:-1 35:-1 36:-1 37:-1 38:-1 39:-1 40:-1 41:-1 42:-1 43:-1 44:-1 45:-1 46:-1 47:-1 48:-1 49:-1 50:-1 51:-1 52:-1 53:-1 54:-1 55:-0.991861 56:-0.989187 57:-0.991667 
512 1:-1 2:-0.955182 3:-0.87451 4:-1 5:-0.964796 6:-0.945578 7:-1 8:-1 9:-0.939163 10:-0.964796 11:-1 12:-1 13:-1 14:-1 15:-0.854875 16:-1 17:-0.910364 18:-0.929593 19:-0.914667 20:-0.964796 21:-0.611578 22:-1 23:-1 24:-0.967179 25:-1 26:-1 27:-0.990399 28:-0.859186 29:-1 30:-1 31:-1 32:-1 33:-1 34:-1 35:-1 36:-1 37:-1 38:-1 39:-1 40:-1 41:-1 42:-1 43:-1 44:-0.984 45:-1 46:-1 47:-1 48:-1 49:-1 50:-0.731542 51:-1 52:-0.998645 53:-0.874396 54:-1 55:-0.994281 56:-0.968763 57:-0.902652 
393.2984620787303 1:-1 2:-1 3:-1 4:-1 5:-1 6:-1 7:-1 8:-1 9:-1 10:-1 11:-1 12:-1 13:-1 14:-1 15:-1 16:-1 17:-1 18:-1 19:0.185067 20:-1 21:-1 22:-1 23:-1 24:-1 25:-1 26:-1 27:-1 28:-1 29:-1 30:-1 31:-1 32:-1 33:-1 34:-1 35:-1 36:-1 37:-1 38:-1 39:-1 40:-1 41:-1 42:-1 43:-1 44:-1 45:-1 46:-1 47:-1 48:-1 49:-1 50:-1 51:-1 52:-1 53:-1 54:-1 55:-0.99951 56:-0.9998 57:-0.999495 
512 1:-1 2:-0.964986 3:-1 4:-1 5:-1 6:-1 7:-1 8:-1 9:-1 10:-0.943894 11:-0.409962 12:-0.948294 13:-1 14:-1 15:-1 16:-1 17:-1 18:-1 19:-0.8912 20:-1 21:-0.904762 22:-1 23:-1 24:-1 25:-0.975996 26:-0.938776 27:-1 28:-1 29:-1 30:-1 31:-1 32:-1 33:-1 34:-1 35:-1 36:-1 37:-1 38:-1 39:-1 40:-1 41:-1 42:-1 43:-1 44:-1 45:-1 46:-1 47:-1 48:-1 49:-1 50:-0.974569 51:-1 52:-0.987253 53:-1 54:-1 55:-0.98156 56:-0.931518 57:-0.919949 
512 1:-0.964758 2:-1 3:-0.933333 4:-1 5:-1 6:-0.972789 7:-1 8:-1 9:-0.969582 10:-1 11:-1 12:-1 13:-0.971171 14:-1 15:-1 16:-1 17:-1 18:-0.982398 19:-0.553067 20:-1 21:-0.74043 22:-1 23:-1 24:-1 25:-1 26:-1 27:-1 28:-1 29:-1 30:-1 31:-1 32:-1 33:-1 34:-1 35:-1 36:-1 37:-1 38:-1 39:-1 40:-1 41:-1 42:-1 43:-1 44:-1 45:-0.975724 46:-1 47:-1 48:-1 49:-0.985861 50:-0.984003 51:-1 52:-0.995197 53:-1 54:-1 55:-0.999777 56:-0.998398 57:-0.965783 
512 1:-1 2:-1 3:-0.898039 4:-1 5:-0.942794 6:-0.955782 7:-1 8:-1 9:-1 10:-1 11:-1 12:-0.892451 13:-1 14:-1 15:-1 16:-1 17:-0.890756 18:-1 19:-0.888 20:-1 21:-0.803922 22:-1 23:-1 24:-1 25:-0.962554 26:-1 27:-1 28:-1 29:-1 30:-1 31:-1 32:-1 33:-1 34:-1 35:-1 36:-0.945378 37:-1 38:-1 39:-1 40:-1 41:-1 42:-1 43:-1 44:-1 45:-1 46:-1 47:-1 48:-1 49:-0.992246 50:-0.981747 51:-0.991669 52:-0.997845 53:-0.982342 54:-0.985689 55:-0.99179 56:-0.978775 57:-0.913636 
512 1:-1 2:-1 3:-1 4:-1 5:-1 6:-1 7:-1 8:-1 9:-1 10:-1 11:-1 12:-0.826267 13:-1 14:-1 15:-1 16:-1 17:-1 18:-1 19:-0.4624 20:-1 21:-0.843137 22:-1 23:-1 24:-1 25:-1 26:-1 27:-1 28:-1 29:-1 30:-1 31:-1 32:-1 33:-1 34:-1 35:-1 36:-1 37:-1 38:-1 39:-1 40:-1 41:-1 42:-1 43:-1 44:-1 45:-0.921569 46:-1 47:-1 48:-1 49:-1 50:-0.970673 51:-1 52:-0.991194 53:-1 54:-1 55:-0.999275 56:-0.999399 57:-0.995455 
512 1:-1 2:-1 3:-1 4:-1 5:-0.155116 6:-1 7:-1 8:-1 9:-1 10:-1 11:-1 12:-1 13:-1 14:-1 15:-1 16:-1 17:-1 18:-1 19:-0.5904 20:-1 21:-1 22:-1 23:-1 24:-1 25:-1 26:-1 27:-1 28:-1 29:-1 30:-1 31:-1 32:-1 33:-1 34:-1 35:-1 36:-1 37:-1 38:-1 39:-1 40:-1 41:-1 42:-1 43:-1 44:-1 45:-1 46:-1 47:-1 48:-1 49:-1 50:-1 51:-1 52:-1 53:-1 54:-1 55:-1 56:-1 57:-0.999242 
512 1:-1 2:-1 3:-1 4:-1 5:-1 6:-1 7:-1 8:-1 9:-1 10:-1 11:-1 12:-1 13:-1 14:-1 15:-1 16:-1 17:-1 18:-1 19:-0.396267 20:-1 21:-0.648926 22:-1 23:-0.541284 24:-1 25:-1 26:-1 27:-1 28:-1 29:-1 30:-1 31:-1 32:-1 33:-1 34:-1 35:-1 36:-1 37:-1 38:-1 39:-1 40:-1 41:-1 42:-1 43:-1 44:-1 45:-1 46:-1 47:-1 48:-1 49:-1 50:-0.954881 51:-1 52:-1 53:-1 54:-1 55:-0.997746 56:-0.998598 57:-0.994697 
4.585840457747752 1:-1 2:-1 3:-1 4:-1 5:-1 6:-1 7:-1 8:-0.412541 9:-1 10:-1 11:-1 12:-1 13:-1 14:-1 15:-1 16:-1 17:-1 18:-1 19:-1 20:-1 21:-1 22:-1 23:-1 24:-1 25:-1 26:-1 27:-1 28:-1 29:-1 30:-1 31:-1 32:-1 33:-1 34:-1 35:-1 36:-1 37:-0.483309 38:-1 39:-1 40:-1 41:-1 42:-1 43:1 44:-1 45:-1 46:-1 47:-1 48:-1 49:-1 50:-1 51:-1 52:-1 53:-1 54:-1 55:-0.998695 56:-0.998799 57:-0.998232 
7.962476266931528 1:-1 2:-1 3:-1 4:-1 5:-0.823982 6:-1 7:-1 8:-1 9:-1 10:-1 11:-1 12:-1 13:-1 14:-1 15:-1 16:-1 17:-1 18:-1 19:-1 20:-1 21:-0.699346 22:-1 23:-1 24:-1 25:-1 26:-1 27:-1 28:-1 29:-1 30:-1 31:-1 32:-1 33:-0.613445 34:-1 35:-1 36:-1 37:-1 38:-0.807923 39:-1 40:-1 41:-1 42:-0.887955 43:-1 44:-1 45:-1 46:-1 47:-1 48:-1 49:-1 50:-1 51:-1 52:-1 53:-1 54:-1 55:-0.999314 56:-0.9996 57:-0.993308 
29.95431169302107 1:-1 2:-1 3:-0.415686 4:-1 5:-1 6:-0.87415 7:-1 8:-1 9:-1 10:-1 11:-1 12:-0.846949 13:-0.866667 14:-1 15:-1 16:-1 17:-1 18:-1 19:-0.761067 20:-1 21:-0.861811 22:-1 23:-1 24:-1 25:-1 26:-1 27:-1 28:-1 29:-1 30:-1 31:-1 32:-1 33:-1 34:-1 35:-1 36:-0.37395 37:-1 38:-0.911164 39:-1 40:-1 41:-1 42:-1 43:-1 44:-1 45:-1 46:-1 47:-1 48:-1 49:-1 50:-0.987695 51:-1 52:-1 53:-1 54:-1 55:-0.998452 56:-0.999199 57:-0.986111 
277.0959555954807 1:-1 2:-1 3:-0.34902 4:-1 5:-1 6:-1 7:-1 8:-1 9:-1 10:-1 11:-1 12:-0.65667 13:-1 14:-1 15:-1 16:-1 17:-1 18:-0.817382 19:-0.733333 20:-1 21:-1 22:-1 23:-1 24:-1 25:-1 26:-1 27:-1 28:-1 29:-1 30:-1 31:-1 32:-1 33:-1 34:-1 35:-1 36:-1 37:-1 38:-1 39:-1 40:-1 41:-1 42:-1 43:-1 44:-1 45:-1 46:-1 47:-1 48:-1 49:-1 50:-1 51:-1 52:-0.990701 53:-1 54:-1 55:-0.998985 56:-0.998598 57:-0.994949 
512 1:-1 2:-1 3:-1 4:-1 5:-1 6:-1 7:-1 8:-1 9:-1 10:-1 11:-1 12:-0.441572 13:-1 14:-1 15:-1 16:-1 17:-1 18:-1 19:-0.712 20:-1 21:-0.495798 22:-1 23:-1 24:-1 25:-1 26:-1 27:-1 28:-1 29:-1 30:-1 31:-1 32:-1 33:-1 34:-1 35:-1 36:-1 37:-1 38:-1 39:-1 40:-1 41:-1 42:-1 43:-1 44:-1 45:-1 46:-1 47:-1 48:-1 49:-1 50:-1 51:-1 52:-0.972658 53:-1 54:-1 55:-0.996472 56:-0.998799 57:-0.996591 
512 1:-0.792952 2:-1 3:-0.756863 4:-1 5:-1 6:-1 7:-1 8:-1 9:-0.942966 10:-1 11:-1 12:-0.968976 13:-1 14:-1 15:-1 16:-1 17:-1 18:-1 19:-0.984 20:-0.983498 21:-1 22:-1 23:-0.944954 24:-1 25:-1 26:-1 27:-1 28:-1 29:-0.956583 30:-1 31:-1 32:-1 33:-1 34:-1 35:-1 36:-1 37:-1 38:-1 39:-1 40:-1 41:-1 42:-1 43:-1 44:-1 45:-1 46:-1 47:-1 48:-1 49:-1 50:-0.989336 51:-1 52:-0.993534 53:-0.97368 54:-0.99298 55:-0.998115 56:-0.997597 57:-0.980556 
512 1:-1 2:-1 3:-0.87451 4:-1 5:-1 6:-1 7:-0.911967 8:-1 9:-0.878327 10:-1 11:-1 12:-0.865564 13:-1 14:-1 15:-1 16:-1 17:-1 18:-0.929593 19:-0.895467 20:-1 21:-0.50887 22:-1 23:-1 24:-1 25:-1 26:-1 27:-0.980798 28:-1 29:-1 30:-1 31:-1 32:-1 33:-1 34:-1 35:-0.902 36:-1 37:-1 38:-1 39:-1 40:-1 41:-1 42:-1 43:-1 44:-1 45:-1 46:-1 47:-1 48:-1 49:-1 50:-1 51:-1 52:-1 53:-1 54:-0.965438 55:-0.99092 56:-0.976572 57:-0.957449 
82.98544384094636 1:-1 2:-1 3:-0.584314 4:-1 5:-0.766777 6:-1 7:-1 8:-1 9:-1 10:-1 11:-1 12:-0.780765 13:-1 14:-1 15:-1 16:-1 17:-1 18:-1 19:-0.546667 20:-1 21:-1 22:-1 23:-1 24:-1 25:-1 26:-1 27:-0.936394 28:-1 29:-1 30:-1 31:-1 32:-1 33:-0.745498 34:-1 35:-1 36:-1 37:-1 38:-1 39:-1 40:-1 41:-1 42:-1 43:-1 44:-1 45:-1 46:-1 47:-1 48:-1 49:-1 50:-1 51:-1 52:-0.988546 53:-1 54:-1 55:-0.99951 56:-0.999399 57:-0.99697 
255.3646915768594 1:-1 2:-1 3:-1 4:-1 5:-0.958196 6:-1 7:-1 8:-1 9:-1 10:-1 11:-0.854406 12:-0.842813 13:-0.931532 14:-1 15:-1 16:-0.981 17:-1 18:-0.958196 19:-0.959467 20:-0.979098 21:-1 22:-1 23:-1 24:-1 25:-0.963514 26:-1 27:-1 28:-0.916392 29:-1 30:-1 31:-1 32:-1 33:-1 34:-1 35:-1 36:-0.920168 37:-0.889695 38:-1 39:-0.961026 40:-1 41:-1 42:-0.946779 43:-1 44:-1 45:-1 46:-1 47:-1 48:-1 49:-0.969897 50:-0.977235 51:-1 52:-0.998645 53:-0.985341 54:-1 55:-0.998512 56:-0.995995 57:-0.949242 
512 1:-1 2:-0.848739 3:-1 4:-1 5:-1 6:-1 7:-1 8:-1 9:-1 10:-0.881188 11:-1 12:-0.32575 13:-1 14:-1 15:-1 16:-1 17:-1 18:-1 19:-0.4208 20:-1 21:-1 22:-1 23:-1 24:-1 25:-1 26:-1 27:-1 28:-1 29:-1 30:-1 31:-1 32:-1 33:-1 34:-1 35:-1 36:-1 37:-1 38:-1 39:-1 40:-1 41:-1 42:-1 43:-1 44:-1 45:-0.89916 46:-1 47:-1 48:-1 49:-1 50:-1 51:-1 52:-0.989593 53:-1 54:-1 55:-0.997938 56:-0.995995 57:-0.995202 
512 1:-1 2:-1 3:-1 4:-1 5:-0.850385 6:-1 7:-1 8:-1 9:-1 10:-1 11:-1 12:-0.929679 13:-1 14:-1 15:-1 16:-1 17:-1 18:-1 19:-0.963733 20:-1 21:-0.619048 22:-1 23:-1 24:-1 25:-1 26:-1 27:-1 28:-1 29:-1 30:-1 31:-1 32:-1 33:-1 34:-1 35:-1 36:-1 37:-1 38:-1 39:-1 40:-1 41:-1 42:-1 43:-0.809524 44:-1 45:-1 46:-1 47:-1 48:-1 49:-1 50:-0.989541 51:-1 52:-1 53:-1 54:-1 55:-0.999878 56:-0.999399 57:-0.982828 
33.71452501714743 1:-1 2:-1 3:-1 4:-1 5:-1 6:-1 7:-1 8:-1 9:-1 10:-1 11:-1 12:-1 13:-1 14:-1 15:-1 16:-1 17:-1 18:-1 19:-1 20:-1 21:-1 22:-1 23:-1 24:0.864615 25:-1 26:-1 27:-1 28:-1 29:-1 30:-1 31:-1 32:-1 33:-1 34:-1 35:-1 36:-1 37:-1 38:-1 39:-1 40:-1 41:-1 42:-1 43:-1 44:-1 45:-1 46:-1 47:-1 48:-1 49:-1 50:-0.80845 51:-1 52:-1 53:-1 54:-1 55:-0.99608 56:-0.998398 57:-0.997854 
512 1:-1 2:-1 3:-1 4:-1 5:-1 6:-1 7:-1 8:-1 9:-1 10:-1 11:-1 12:-1 13:-1 14:-1 15:-1 16:-1 17:-1 18:-1 19:-0.533867 20:-1 21:-0.88422 22:-1 23:-1 24:-1 25:-1 26:-1 27:-1 28:-1 29:-1 30:-1 31:-1 32:-1 33:-1 34:-1 35:-1 36:-1 37:-1 38:-1 39:-1 40:-1 41:-1 42:-1 43:-1 44:-1 45:-1 46:-1 47:-1 48:-1 49:-1 50:-1 51:-1 52:-1 53:-0.961353 54:-1 55:-0.999179 56:-0.999199 57:-0.994571 
512 1:-1 2:-0.928571 3:-1 4:-1 5:-0.775578 6:-1 7:-1 8:-0.831683 9:-1 10:-1 11:-1 12:-1 13:-1 14:-1 15:-1 16:-0.949 17:-0.857143 18:-1 19:-0.9456 20:-1 21:-1 22:-1 23:-1 24:-1 25:-1 26:-1 27:-1 28:-1 29:-1 30:-1 31:-1 32:-1 33:-1 34:-1 35:-1 36:-0.785714 37:-1 38:-1 39:-1 40:-0.785714 41:-1 42:-1 43:-1 44:-0.949 45:-1 46:-1 47:-1 48:-1 49:-1 50:-0.985439 51:-1 52:-1 53:-1 54:-1 55:-0.997891 56:-0.998398 57:-0.98649 
43.14170548946466 1:-1 2:-1 3:-1 4:-1 5:-0.522552 6:-1 7:-1 8:-1 9:-1 10:-1 11:-1 12:-1 13:-1 14:-0.132 15:-1 16:-1 17:-1 18:-1 19:-0.768533 20:-1 21:-1 22:-1 23:-1 24:-1 25:-1 26:-1 27:-1 28:-1 29:-1 30:-1 31:-1 32:-1 33:-1 34:-1 35:-1 36:-1 37:-1 38:-1 39:-1 40:-1 41:-1 42:-1 43:-1 44:-1 45:-1 46:-1 47:-1 48:-1 49:-1 50:-0.924733 51:-1 52:-1 53:-1 54:-1 55:-1 56:-1 57:-0.999116 
512 1:-1 2:-1 3:-0.835294 4:-1 5:-1 6:-1 7:-0.942228 8:-1 9:-1 10:-0.976898 11:-1 12:-0.913133 13:-1 14:-1 15:-1 16:-1 17:-1 18:-0.953795 19:-0.841067 20:-1 21:-0.921569 22:-1 23:-1 24:-1 25:-0.979837 26:-0.97479 27:-1 28:-1 29:-1 30:-1 31:-1 32:-1 33:-0.94958 34:-1 35:-1 36:-1 37:-1 38:-1 39:-1 40:-1 41:-1 42:-1 43:-1 44:-1 45:-1 46:-1 47:-1 48:-1 49:-0.984493 50:-0.971493 51:-0.983337 52:-1 53:-0.977011 54:-1 55:-0.995784 56:-0.992791 57:-0.960732 
512 1:-1 2:-1 3:-1 4:-1 5:-1 6:-1 7:-1 8:-1 9:-1 10:-0.633663 11:-1 12:-0.311272 13:-1 14:-1 15:-1 16:-1 17:-1 18:-1 19:-0.6448 20:-1 21:-1 22:-1 23:-1 24:-1 25:-1 26:-1 27:-1 28:-1 29:-1 30:-1 31:-1 32:-1 33:-1 34:-1 35:-1 36:-1 37:-1 38:-1 39:-1 40:-1 41:-1 42:-1 43:-1 44:-1 45:-1 46:-1 47:-1 48:-1 49:-1 50:-1 51:-1 52:-0.928813 53:-1 54:-1 55:-0.997388 56:-0.998198 57:-0.997475 
447.500469561092 1:-1 2:-1 3:-0.721569 4:-1 5:-0.843784 6:-1 7:-1 8:-1 9:-1 10:-1 11:-1 12:-1 13:-1 14:-1 15:-1 16:-1 18:-1 19:-1 20:-1 21:-0.734827 22:-1 23:-1 24:-1 25:-1 26:-1 27:-1 28:-1 29:-1 30:-1 31:-1 32:-1 33:-1 34:-1 35:-1 36:-1 37:-1 38:-1 39:-1 40:-1 41:-1 42:-0.90056 43:-1 44:-1 45:-1 46:-1 47:-1 48:-1 49:-1 50:-0.98872 51:-1 52:-0.996613 53:-1 54:-1 55:-0.97191 56:-0.989387 57:-0.982702 
486.9813417735546 1:-1 2:-1 3:-1 4:-1 5:-1 7:-1 8:-1 9:-1 10:-1 11:-1 12:-1 13:-1 14:-1 15:-1 16:-1 17:-1 18:-1 19:-0.6864 20:-1 21:-1 22:-1 23:-1 24:-1 25:-1 26:-1 27:-1 28:-1 29:-1 30:-1 31:-1 32:-1 33:-1 34:-1 35:-1 36:-1 37:-1 38:-1 39:-1 40:-1 41:-1 42:-1 43:-1 44:-1 45:-1 46:-1 47:-1 48:-1 49:-1 50:-1 51:-1 52:-1 53:-1 54:-1 55:-1 56:-1 57:-0.999495 
77.20990002319935 1:-0.995595 2:-0.998599 3:-0.94902 4:-1 5:-0.971397 6:-0.996599 7:-1 8:-1 9:-0.996198 10:-0.985699 11:-0.977011 12:-0.906929 13:-0.989189 14:-0.986 15:-1 16:-0.989 17:-0.851541 18:-0.984598 19:-0.992533 20:-1 21:-0.994398 22:-1 23:-0.99633 24:-1 25:-1 26:-1 27:-1 28:-1 29:-0.998599 30:-1 31:-1 32:-1 33:-0.623049 34:-1 35:-1 36:-0.953782 37:-0.750363 38:-1 39:-1 40:-0.987395 41:-1 42:-0.995798 43:-0.983193 44:-0.999 45:-0.999066 46:-0.979138 47:-1 48:-0.97 49:-0.996351 50:-0.977235 51:-1 52:-0.999877 53:-1 54:-0.9973 55:-0.997832 56:-0.988586 57:-0.617929 
512 1:-1 2:-1 3:-1 4:-1 5:-1 6:-1 7:-1 8:-1 9:-0.718631 10:-1 11:-1 12:-1 13:-1 14:-1 15:-1 16:-1 17:-1 18:-1 19:-0.762133 20:-1 21:-1 22:-1 23:-1 24:-1 25:-1 26:-1 27:-1 28:-1 29:-1 30:-1 31:-1 32:-1 33:-1 34:-1 35:-1 36:-1 37:-1 38:-1 39:-0.848205 40:-1 41:-1 42:-1 43:-1 44:-1 45:-0.930906 46:-1 47:-1 48:-1 49:-1 50:-0.943396 51:-1 52:-0.966008 53:-1 54:-1 55:-0.996735 56:-0.996996 57:-0.991035 
512 1:-0.475771 2:-1 3:-0.768627 4:-1 5:-1 6:-1 7:-1 8:-1 9:-1 10:-1 11:-1 12:-0.753878 13:-1 14:-1 15:-1 16:-1 17:-1 18:-1 19:-0.6832 20:-1 21:-0.777778 22:-1 23:-1 24:-1 25:-1 26:-1 27:-1 28:-1 29:-1 30:-1 31:-1 32:-1 33:-1 34:-1 35:-1 36:-1 37:-1 38:-1 39:-1 40:-1 41:-1 42:-1 43:-1 44:-1 45:-1 46:-1 47:-1 48:-1 49:-1 50:-1 51:-1 52:-0.993719 53:-1 54:-1 55:-0.998981 56:-0.998799 57:-0.995328 
512 1:-1 2:-1 3:-1 4:-1 5:-1 6:-1 7:-1 8:-1 9:-1 10:-1 11:-1 12:-0.791107 13:-1 14:-1 15:-1 16:-0.899 17:-1 18:-1 19:-0.784533 20:-1 21:-1 22:-1 23:-1 24:-1 25:-1 26:-1 27:-1 28:-1 29:-1 30:-1 31:-1 32:-1 33:-1 34:-1 35:-1 36:-1 37:-1 38:-1 39:-1 40:-1 41:-1 42:-1 43:-1 44:-1 45:-1 46:-1 47:-1 48:-1 49:-1 50:-1 51:-1 52:-0.979863 53:-1 54:-1 55:-0.999485 56:-0.998999 57:-0.997096 
512 1:-1 2:-1 3:-1 4:-1 5:-1 6:-1 7:-1 8:-1 9:-1 10:-1 11:-1 12:-0.638056 13:-1 14:-1 15:-1 16:-1 17:-1 18:-1 19:-0.626667 20:-1 21:-0.346405 22:-1 23:-1 24:-1 25:-1 26:-1 27:-1 28:-1 29:-1 30:-1 31:-1 32:-1 33:-1 34:-1 35:-1 36:-1 37:-1 38:-1 39:-1 40:-1 41:-1 42:-1 43:-1 44:-1 45:-0.836601 46:-1 47:-1 48:-1 49:-0.851767 50:-1 51:-1 52:-1 53:-0.783108 54:-1 55:-0.999755 56:-0.9996 57:-0.997854 
88.10111643366632 1:-1 2:-1 3:-1 4:-1 5:-1 6:-1 7:-1 8:-1 9:-1 10:-1 11:-1 12:-1 13:-1 14:-1 15:-1 16:-1 17:-0.831933 18:-1 19:-1 20:-1 21:-1 22:-1 23:-1 24:-1 25:-1 26:-1 27:-1 28:-1 29:-1 30:-1 31:-1 32:-1 33:-1 34:-1 35:-1 36:-0.243697 37:-1 38:-1 39:-1 40:-1 41:-1 42:-1 43:-1 44:-1 45:-1 46:-0.945578 47:-1 48:-1 49:-1 50:-0.981952 51:-1 52:-1 53:-1 54:-1 55:-0.99881 56:-0.999399 57:-0.994444 
289.9112285126553 1:-1 2:-1 3:-1 4:-1 5:-0.940594 6:-1 7:-1 8:-0.910891 9:-1 10:-1 11:-1 12:-0.944157 13:-0.311712 14:-1 15:-0.877551 16:-0.973 17:-1 18:-0.881188 19:-1 20:-1 21:-1 22:-1 23:-1 24:-1 25:-0.974076 26:-0.967587 27:-1 28:-0.881188 29:-1 30:-0.886555 31:-1 32:-1 33:-1 34:-1 35:-1 36:-1 37:-1 38:-1 39:-1 40:-1 41:-1 42:-1 43:-1 44:-1 45:-1 46:-0.97551 47:-1 48:-1 49:-0.982212 50:-0.976005 51:-1 52:-1 53:-1 54:-1 55:-0.997021 56:-0.989187 57:-0.976263 
302.128917627347 1:-1 2:-1 3:-0.486275 4:-1 5:-1 6:-1 7:-1 8:-0.567657 9:-1 10:-1 11:-1 12:-1 13:-1 14:-1 15:-1 16:-1 17:-1 18:-1 19:-0.579733 20:-1 21:-1 22:-1 23:-1 24:-1 25:-1 26:-1 27:-1 28:-0.711771 29:-1 30:-1 31:-1 32:-1 33:-1 34:-1 35:-1 36:-1 37:-1 38:-1 39:-1 40:-1 41:-1 42:-1 43:-1 44:-1 45:-0.877684 46:-1 47:-1 48:-1 49:-1 50:-0.942781 51:-1 52:-0.99144 53:-1 54:-1 55:-0.997785 56:-0.997197 57:-0.993939 
512 1:-1 2:-1 3:-1 4:-1 5:-1 6:-1 7:-1 8:-1 9:-1 10:-1 11:-1 12:-1 13:-0.805405 14:-1 15:-1 16:-0.946 17:-0.848739 18:-1 19:-0.826133 20:-1 21:-0.89916 22:-1 23:-1 24:-1 25:-1 26:-1 27:-1 28:-1 29:-1 30:-1 31:-1 32:-1 33:-1 34:-1 35:-1 36:-1 37:-1 38:-1 39:-1 40:-1 41:-1 42:-1 43:-1 44:-0.946 45:-1 46:-0.95102 47:-1 48:-1 49:-1 50:-1 51:-1 52:-0.974937 53:-1 54:-1 55:-0.997966 56:-0.997397 57:-0.993434 
512 1:-1 2:-0.981793 3:-0.796078 4:-1 5:-1 6:-0.955782 7:-1 8:-0.739274 9:-1 10:-1 11:-1 12:-0.973113 13:-1 14:-1 15:-1 16:-0.987 17:-1 18:-1 19:-0.972267 20:-1 21:-0.927171 22:-1 23:-1 24:-1 25:-1 26:-1 27:-1 28:-1 29:-1 30:-1 31:-1 32:-1 33:-1 34:-1 35:-1 36:-1 37:-1 38:-1 39:-1 40:-1 41:-1 42:-0.981793 43:-1 44:-1 45:-1 46:-1 47:-1 48:-1 49:-0.990878 50:-0.98749 51:-1 52:-0.997537 53:-0.986673 54:-1 55:-0.998387 56:-0.994994 57:-0.953157 
5.347635145218891 1:-1 2:-1 3:-0.678431 4:-1 5:-0.819582 6:-1 7:-1 8:-1 9:-1 10:-1 11:-1 12:-0.830403 13:-1 14:-1 15:-1 16:-1 17:-0.770308 18:-1 19:-1 20:-1 21:-1 22:-1 23:-1 24:-1 25:-1 26:-0.801921 27:-1 28:-1 29:-1 30:-0.655462 31:-1 32:-1 33:-1 34:-1 35:-1 36:-1 37:-1 38:-1 39:-1 40:-1 41:-1 42:-1 43:-1 44:-1 45:-0.923436 46:-1 47:-1 48:-1 49:-1 50:-1 51:-1 52:-0.992672 53:-1 54:-1 55:-0.999467 56:-0.998999 57:-0.994823 
207.2207625688371 1:-1 2:-1 3:-1 4:-1 5:1 6:-1 7:-1 8:-1 9:-1 10:-1 11:-1 12:-1 13:-1 14:-1 15:-1 16:-1 17:-1 18:-1 19:-1 20:-1 21:-1 22:-1 23:-1 24:-1 25:-1 26:-1 27:-1 28:-1 29:-1 30:-1 31:-1 32:-1 33:-1 34:-1 35:-1 36:-1 37:-1 38:-1 39:-1 40:-1 41:-1 42:-1 43:-1 44:-1 45:-1 46:-1 47:-1 48:-1 49:-1 50:-1 51:-1 52:-1 53:-1 54:-1 55:-1 56:-1 57:-1 
30.89942240353666 1:-1 2:-1 3:-1 4:-1 5:-1 6:-1 7:-1 8:-1 9:-1 10:-1 11:-1 12:-1 13:-1 14:-1 15:-1 16:-1 17:-1 18:-1 19:-0.7376 20:-1 21:-1 22:-1 23:-1 24:-1 25:-1 26:-1 27:-1 28:-1 29:-1 30:-1 31:-1 32:-1 33:-1 34:-1 35:-1 36:-1 37:-1 38:-1 39:-1 40:-1 41:-1 42:-1 43:-1 44:-1 45:-0.885154 46:-1 47:-1 48:-1 49:-1 50:-1 51:-1 52:0.17809 53:-1 54:-1 55:-0.975992 56:-0.990589 57:-0.993434 
273.7082882604504 1:-1 2:-1 3:-1 4:-1 5:-1 6:-1 7:-1 8:-1 9:-1 10:-1 11:-1 12:-1 13:-1 14:-0.824 15:-1 16:-1 17:-0.753501 18:-0.806381 19:-0.717333 20:-1 21:-0.671335 22:-1 23:-1 24:-1 25:-0.915506 26:-1 27:-1 28:-1 29:-1 30:-1 31:-1 32:-1 33:-1 34:-1 35:-1 36:-1 37:-1 38:-1 39:-1 40:-1 41:-1 42:-1 43:-1 44:-1 45:-1 46:-1 47:-1 48:-1 49:-1 50:-1 51:-1 52:-1 53:-1 54:-1 55:-0.999275 56:-0.9996 57:-0.995455 
512 1:-1 2:-1 3:-0.745098 4:-1 5:-0.929593 6:-1 7:-1 8:-1 9:-1 10:-1 11:-1 12:-0.933816 13:-1 14:-1 15:-1 16:-1 17:-1 18:-1 19:-1 20:-1 21:-1 22:-1 23:-1 24:-1 25:-1 26:-1 27:-1 28:-1 29:-1 30:-1 31:-1 32:-1 33:-1 34:-1 35:-1 36:-1 37:-1 38:-1 39:-1 40:-1 41:-1 42:-1 43:-1 44:-1 45:-1 46:-1 47:-1 48:-1 49:-1 50:-0.98749 51:-0.970105 52:-0.996244 53:-1 54:-1 55:-0.999232 56:-0.997998 57:-0.991162 
